81 300
push 0.2771315 -0.1399246 2.4630764 -0.02063171 -0.7388275 -2.608094 1.1540548 -0.6649639 -0.78190273 -0.68402666 -0.26003876 0.1557422 -0.59611595 1.9211632 -0.7171748 0.1227049 -0.19148347 -2.2719562 0.45387498 -0.14655223 1.6881231 1.2163718 0.40163073 -0.48827216 1.7170285 -0.17028074 0.035774637 -0.26452857 -1.418386 0.36018756 -1.2351106 -0.71876025 0.12742631 0.23843661 1.3984749 -0.53828025 1.0822034 0.6239767 -0.5627649 -1.2695775 0.4586643 -1.7104251 -0.16290025 0.17438938 -0.34341973 -1.7625211 0.17247301 -1.0843397 -0.556449 -0.21946923 -0.3811507 0.06855455 0.9278287 -1.2931422 -0.50665903 -0.9319066 -0.73469394 0.6221232 0.41571745 0.93569624 0.40269676 0.9755173 -0.27338812 -1.4318955 0.4863992 0.93226314 0.08755919 -0.26979285 -0.8409593 0.70734125 -0.80469155 -1.1399531 1.0096488 0.58579296 -1.5625416 0.6540289 0.82554525 -1.321176 -0.13943256 0.27685365 -0.49101293 -0.9083609 -0.7295175 -0.2783799 -1.2707487 -0.01849052 0.24783644 -0.9141013 0.29133105 -0.013324034 -0.0049291807 -0.43031478 1.084074 -0.56877065 0.8920725 -0.22949116 -0.6433055 0.7961919 -0.69228417 0.92634535 0.6668259 -0.5107284 -0.9690039 1.0630409 0.24476436 -1.1589285 -1.1746159 0.57282406 -0.70730394 0.37504563 0.9061784 0.84455454 0.221017 0.8640374 -0.28039813 -0.7355104 0.06756229 -1.0442413 -1.8870407 0.26782078 0.5345302 1.0506684 -0.5543697 -0.16018796 0.025336169 0.43324783 -0.934651 0.4542416 -0.36503768 0.6747817 0.019810524 -0.85545146 -0.3750716 -0.14120992 0.7714432 0.1970951 -1.3108859 0.460277 -1.1666465 0.8379525 0.75725186 0.852263 -0.16785164 0.7516754 1.1148546 -0.584374 -2.2217422 0.12811688 1.8007941 -0.64113265 -0.061094247 -0.41273698 -1.3423903 -1.176685 0.4767158 -1.328415 -0.34679726 0.6149529 -0.33537397 0.10006624 -0.65261954 -1.3811412 0.3140505 0.62355626 -1.1288556 -0.68273336 0.20373228 0.416775 -1.1472844 -0.84010756 -0.42525306 0.1868432 1.3873836 -0.18326186 -0.34998155 0.6188682 0.83087444 -0.07320099 -0.06743684 0.6970992 0.0965435 0.27323085 -0.9463793 -0.733745 0.4379406 -1.3908228 -0.7094652 -0.67967826 0.9109302 -0.75578576 0.71201223 -0.42732728 0.21007727 0.18084508 0.3720639 0.22367667 0.30421495 -0.009294918 0.52035767 0.07228194 -1.0999305 -0.1062667 -2.445528 0.19786705 -1.4366282 -0.11175806 -0.6570907 0.867219 0.69469 -0.13537611 -0.7854067 0.5201006 0.73567903 -0.037086863 -0.4470685 0.6705412 -0.089431964 1.6026872 -0.17539966 0.35958925 -0.46619603 -0.6652302 0.425198 0.59686846 -0.74228173 0.97843593 -1.3580905 -0.45261812 -0.21400113 0.43540168 -2.3833644 -0.55688286 0.28102708 -1.7113515 0.44993138 0.28069744 -0.038624167 -1.1156952 1.2015765 1.336107 -0.16448969 -1.0667224 0.52569705 -0.7449931 -0.17832825 -1.0578039 1.0036653 0.12800872 -1.1405845 0.20437968 -0.2035802 0.3950297 -0.23170143 -0.9170648 -0.5434232 -0.7048891 0.8416894 -1.13721 -0.63885444 -0.9556185 0.6988335 -0.097006515 0.23787089 -0.38470203 2.4674928 1.662037 0.32955167 0.072403274 0.23583911 0.5582207 -1.2000068 0.7922518 -1.000487 0.41166893 -0.45613378 -0.60199577 0.85010487 -0.03290171 0.35253116 0.17194855 -0.25791693 0.9524984 -0.4213528 -0.8099376 0.5882049 1.3515937 0.3542167 0.96811014 0.84801054 0.22045432 -0.86804825 -0.18081932 -1.3911173 -0.5998408 -0.7395176 0.885278 -1.825969 -0.57346976 1.2808824 1.9072003
dup -0.0409565 1.6768544 -1.3146262 0.07812483 0.8667842 -0.92463917 2.130179 -1.219898 -0.17614065 -1.6387833 0.54431844 0.9467609 0.57884365 -0.35105836 -0.3785911 -1.1205759 -1.0546994 1.0023321 -1.329035 2.0241435 0.22409283 -0.26302955 1.355737 -1.2630032 -0.9430668 0.7763736 1.5359114 -1.3275839 0.6386356 1.157264 -0.8492165 -1.3172026 0.22046259 0.79845667 2.1118562 -0.37989855 0.6244727 -0.40224868 0.511313 0.028166985 0.5635885 -0.48119634 0.03335478 -1.0214075 1.7486386 0.31137484 1.252522 0.031206694 0.5168215 1.3190385 1.0108126 1.2516463 1.2017827 -1.1135836 -0.010396945 0.30560243 -0.45371023 1.1682793 0.045867853 0.07812027 -0.03632342 -0.83341455 -1.960609 -0.7053686 -1.3661336 -0.015321717 -1.9561014 0.58491325 0.9231008 -2.116947 0.25899944 0.47561023 0.448183 -0.865382 -0.5445304 0.6192541 0.9014036 1.1264333 -0.08277109 -1.1233028 -1.6161373 -0.47626296 1.1686262 0.27244094 -1.0616691 -0.5441332 0.5469687 -0.6120182 -1.6376394 -1.4477663 0.13095489 0.40830004 0.73702365 -0.06525318 -0.6122958 -0.51372415 -0.0578741 -0.96864563 0.24714363 0.19619228 -0.71029025 0.01005132 -0.3656601 -0.47365108 0.4480507 -0.68493056 0.46182552 0.14371815 -1.0319717 0.19806826 1.2478043 -0.6303994 0.89421856 0.006467096 -1.6144663 -0.26227105 0.8988011 -0.55956686 -0.4110853 -0.6237068 -0.7623112 0.7741612 -0.1436914 0.83439916 0.7642825 -0.34696266 -1.2261934 0.682867 1.0428326 -1.348361 -0.4200542 -0.8846749 1.1106205 -1.0666314 0.5284929 -1.915624 0.54994637 -0.13297701 -0.020812877 0.5871419 0.13092728 0.08521623 -0.48250744 -0.014031347 0.3831875 -0.6528448 -0.52173704 -0.26745418 1.4164271 -0.78783405 -0.02339804 0.17609411 -0.59284353 0.059853975 -0.8617322 0.2321148 -1.0868385 0.7307033 -0.60596234 0.37821215 -1.2330744 0.8165123 -1.2020979 -0.15642509 0.3781186 0.1153064 0.10225754 -2.0361109 0.45146865 0.35392535 -0.38166568 0.9908418 0.35374203 0.063138664 -0.056547515 0.8112407 -0.25381178 0.2635857 -0.5161347 1.0806245 0.46548405 -0.48765296 -0.23926814 -0.12936252 1.2784113 -1.0947429 -0.6277721 -1.3398169 -0.04790266 0.5289495 -0.36466688 0.4437787 -1.5967383 0.61851054 -0.6661643 2.4504447 0.16674826 -1.4817367 -0.5174867 -0.6311511 0.7431129 -0.44172746 -1.3522772 0.040752918 -0.13429771 -0.2981584 0.2962063 -0.9599696 1.5401558 -0.8599303 0.12668343 0.18853651 0.8139804 -0.6286159 -0.38061923 0.53755724 0.46327224 0.17786998 -0.011531397 -0.830609 1.2180762 -0.9911186 1.8044306 0.6982668 -1.7856338 2.3180602 0.5099695 -1.2272213 -0.105938405 -1.3694642 -0.7063672 -0.12501055 -0.054349534 0.90922034 -0.5899866 0.46984962 0.6794027 -0.45825538 -0.018714137 -0.53057545 -0.045340184 -1.1929486 -0.022966698 -1.0466658 -0.060344514 0.32853815 1.1226847 0.32308525 0.9615291 -0.09364065 -0.26204607 -0.039178148 0.5091945 0.16251916 0.76590216 0.60655457 1.99544 -0.080613084 -0.4430923 0.2950203 1.2187409 -0.21827228 0.36572203 0.7328333 0.5920295 2.4725063 1.259448 1.5161806 1.2987705 -0.17409402 0.26653773 -0.16928113 -1.681146 -1.2699711 0.32589653 -0.09909471 0.2618879 0.9312765 0.12968251 -1.2412937 1.1612375 -1.2603914 0.0023889346 0.50313586 0.041556485 -1.0969287 1.8251767 -3.0483143 -1.4763153 -0.63959396 0.67947555 -1.159599 -0.0755895 -1.15238 0.3902192 1.3799937 -1.2237754 0.9275446 0.53459686 -0.38013783
swap -0.702785 -0.05000915 -1.6932985 0.9434692 -0.48852903 -1.0745939 0.75993186 0.32345748 0.72309524 1.2840772 0.6143252 -0.24999434 -2.7255588 -2.1752775 1.0818768 0.8282939 -1.3207215 -0.44518456 -0.22866365 -0.35192645 -0.15727185 -2.6188853 0.10567782 0.5001163 -0.797053 0.8215916 -0.0645443 -1.1319685 2.8543236 1.048621 0.7067969 -1.6085283 -1.8049618 2.1476917 2.566777 1.0190097 0.79005873 0.6090937 -0.13374904 -0.19606091 0.69103676 -0.03850002 0.39002958 -0.23236229 -0.14385135 0.72802085 -0.56834656 -0.022704255 1.1232588 0.89678776 1.1918089 0.57994616 0.38688126 0.11493264 0.77107674 -1.1652509 -0.91942096 1.1950191 -0.35842866 -0.5057695 0.5331059 -0.16132765 -0.568161 -1.0573212 -0.49870947 2.0484335 -0.19708897 3.24058e-05 0.33873904 -1.2747608 0.47974542 0.3790774 2.4955518 0.70667756 0.48635536 0.17923434 1.5206909 0.4403895 0.33206138 -0.8946141 -1.6721044 0.95346516 -0.3561452 -0.18406275 -2.0123038 0.6286876 0.4689707 0.3355148 0.86693585 -0.15400514 -0.18438214 0.21074246 0.32385978 1.326346 0.5413514 -0.7350902 -0.48013738 -1.276737 -0.5615675 -0.048189204 -0.04667706 -0.5221505 -0.06748681 0.9288873 1.101254 -0.05855834 -0.48414287 0.7520999 -1.583148 -1.386386 0.44499683 0.08868427 -0.07665142 -0.29976806 -0.5240637 0.021789975 -1.2487632 0.4043403 -0.4016164 1.3994062 -0.49422264 -0.25990975 0.42945996 0.4842141 -0.31109977 0.46817344 -0.930999 0.13700567 1.0570747 0.32489276 -0.5940824 -0.2573003 0.89619666 -0.067074 0.26821798 -1.1202633 -0.009943236 2.0720506 1.0653249 -0.09530697 -0.977501 -0.1994003 0.4785235 0.2920632 -1.2751174 -1.114136 0.09865417 -0.8607894 -1.1885391 -1.661206 -0.35458833 0.82118726 0.63122886 0.055396885 -1.3971541 0.11862365 0.24647893 0.021424077 -0.5882458 -0.197175 -0.31661087 -0.012986123 -0.24284378 -0.11706782 1.363837 0.46809337 -0.09061482 -1.2831541 0.6470877 0.054166496 0.23925416 0.466697 0.7153014 0.16161303 0.7100801 -0.43170294 0.31173748 0.5686249 0.24057686 0.31050524 0.6044846 -0.15973736 1.3738911 0.7247213 0.91950506 -1.4251331 0.42020243 -1.2613895 0.000365406 -0.7705409 0.5295417 -0.7006542 -1.0966604 0.4384477 0.77075213 2.3811674 0.036536213 -1.2265031 0.7869357 -0.25590923 -0.7110843 -0.97479635 -0.67142665 1.6242492 0.60013646 0.094898134 -0.24318883 -0.041913167 1.2569956 -0.99941427 -0.2782071 -0.0041073617 -0.19525182 -0.0033401446 0.11312777 -0.19740465 0.11824362 -0.17005128 1.097385 -1.8614337 1.3155104 0.34219664 0.6981062 0.04792883 -1.1366785 2.662531 -0.67230946 0.30514696 1.1483848 -0.7575141 1.3171002 0.36514226 0.072501995 1.1276494 0.48478365 0.9455823 0.9177396 0.080036186 0.54009044 1.0593635 -0.82165194 -1.5515229 0.1646045 -1.1648431 -0.68469495 1.0987698 0.6679643 -0.034713775 0.7591097 1.5467358 -0.31233773 -0.9042091 2.022725 0.81692845 0.5025708 0.7450507 1.8638524 1.8976805 -0.6126404 0.8881855 -0.24310046 0.17153402 0.17722 0.6659355 0.6053992 2.4854064 1.7632203 0.18301408 -1.731767 -1.0765688 -0.44557047 1.1571003 -1.5762619 -0.32706013 0.6284861 0.5889292 0.21991217 1.4927524 -0.6519889 -0.96165454 0.6196995 0.26021686 -1.4349438 0.5697933 0.19652057 -1.5484656 1.8107425 -1.0435762 -1.1971817 1.4037362 0.5823912 -1.2845696 -1.966963 -0.61268055 0.17098492 1.0887678 -2.975573 0.10244986 0.25538456 0.98063135
jumpdest 4.0552697 -0.3761675 0.44739392 1.0324725 -1.881982 -2.0631902 0.13089918 -4.1969633 0.7286644 -0.9199768 3.4452233 1.7662555 0.5669916 1.9241831 2.7157052 0.5215438 -0.61209756 2.5567963 0.6842953 0.5983522 2.3516042 -0.6279059 2.672177 0.05862385 0.15088663 0.16524166 0.77960634 0.6670693 0.40998247 2.4024937 -2.0699465 -0.6977818 -1.0371897 -0.93546283 0.9029924 -2.3814945 -1.22573 -2.5998955 -1.0372014 -1.5563569 0.5847743 -0.39384127 -0.14291647 -0.6793557 1.5162758 -1.3467448 -0.5466106 0.89954144 1.2856069 -1.0209736 -0.55529445 1.6352731 0.7088144 -0.14316995 0.18406622 -0.24733722 0.51447606 0.16664104 -0.4485947 0.9840956 -1.1713037 -0.2389954 1.9302827 0.0021416438 0.3841991 0.19683896 0.039585356 2.159542 -1.297536 -0.447392 -0.08232553 -0.1761705 0.29479262 -1.3280683 -0.07689211 -1.5063307 -3.0507286 0.27656117 0.55719006 -0.64350855 -2.220195 -2.7367709 0.4654187 0.13631934 -2.5804708 -2.3973873 1.9155507 0.39213175 -1.7034732 -1.788613 0.6993105 -0.24567688 0.61969405 -0.46363556 -0.79980385 -3.3549774 -1.8010079 1.2625253 -0.6669697 1.5893424 -1.354022 -0.18846096 -1.5932671 0.19593273 0.97653586 -1.8139021 1.1669801 -0.95701665 1.3838037 -0.6523756 1.7719586 -0.996567 -0.55621874 0.27991527 -0.12759583 0.15309702 0.3327986 -1.028621 -2.6539972 -0.7516907 0.75643146 -0.19699095 -0.602403 -0.16002537 0.7873881 0.5463036 -1.7051035 0.14895396 -0.20930342 0.72139084 0.57585305 0.18205917 -1.8201597 -1.3590409 -1.0110854 -0.8459441 -0.0344388 0.11648387 0.9359863 -0.5026793 0.60665447 -0.39763707 -0.83511037 0.1595754 0.77759546 -0.8027594 -1.1570098 0.13679054 0.33504447 -0.035650868 1.8399106 0.71988136 0.6798167 -0.29494762 0.08860476 0.70600784 -2.54642 -1.3397908 -0.54507583 -1.1625232 -0.5678314 -0.37473896 0.4610475 -0.08774412 1.0021473 -0.18342067 1.9759994 -0.43810418 0.35783178 0.39801875 1.724 0.23426233 0.16307886 -1.7827007 -0.015667383 -0.1820275 -0.8632808 1.2791092 0.30143383 0.22977939 -0.6338349 0.25512892 0.720158 1.4151458 0.7332952 0.5492829 -2.3490853 -1.049481 -0.7716211 -0.7904288 1.8766673 0.86710876 -0.8136824 0.37401363 0.5028479 1.1497954 0.41664022 0.7126285 -0.24476716 1.0129198 -1.4560684 0.7441497 0.11292943 -0.63405496 1.1436335 0.72548705 -1.3946517 -0.92855513 -0.33720067 0.95213187 -0.6149224 -0.9068064 -0.6196559 -0.73316383 0.24117176 -1.089039 -1.50636 0.15579067 2.2227428 -0.3702256 -0.6187844 0.64564407 -1.4950182 2.467913 -0.5344369 0.6682308 -1.1321291 -0.43818104 0.2222035 -1.1445717 -3.395704 -1.3909209 3.1018248 -0.42304412 1.7679068 -0.9236306 0.5189259 1.8942829 2.563176 -0.55710435 -0.50948197 -1.9331197 2.2499998 -0.8916582 0.39057544 1.759873 1.0471313 1.8330595 0.9994879 -0.036744438 -1.9935752 -1.2718691 -0.368835 -0.67619747 -0.7535422 -1.863352 -3.0087008 0.44882262 2.4381254 -3.3213592 -2.797603 -0.34462616 2.76346 0.933987 -0.45798248 -0.090141244 -0.61602765 2.196738 2.1678262 2.3262534 -1.3456776 0.47730774 2.0438426 1.4134206 -2.6016192 -0.24977536 0.8673004 -1.226769 -0.76221174 -1.7694786 -2.134842 1.7835416 0.2843895 2.2582953 2.4318452 0.9710917 1.0039232 1.2437652 0.9283528 -1.1700782 -0.6467441 1.9135739 -2.8050072 0.9268938 -0.8155557 0.9696384 2.9185686 1.56966 -1.1469481 1.3167465
pop 1.4764025 1.6206607 -1.275347 3.348241 -0.8597524 -0.26988068 1.5633252 -3.8693209 -0.508361 -0.37053424 3.7592425 -0.9867421 -1.3574345 -3.383867 4.734501 -1.7861085 -2.2686112 -1.2224817 -0.6194055 1.421258 2.777796 -1.6885121 2.554003 -2.4355073 0.3510304 5.5341125 1.8837489 -0.6811242 1.4483862 1.1657197 -3.313656 0.47426617 -1.120979 -0.68537897 0.13572824 0.15368742 -0.6005268 -1.1943122 -1.4501024 -0.8055147 3.2817576 -0.28989795 -1.5378025 -2.574273 0.8228681 3.295194 0.5213107 0.4474769 0.551819 1.0101721 1.5763925 0.57527536 0.14848417 0.7093963 0.45456412 1.9847424 -0.6339899 -0.9168965 -1.2892176 -2.650138 -0.8436262 -0.3209964 -1.1773249 1.7037274 -1.5807717 0.7379866 -3.171123 2.021313 -0.09404228 -1.7127582 1.4749291 0.11087787 1.5058517 -1.422435 -1.9218026 -0.4507358 -0.75230753 2.1747227 -0.27207592 -2.0925581 -1.7811208 1.1996436 1.7806903 0.8281144 -1.4642031 -1.4818238 -0.104649924 -0.20371386 -0.8677947 -0.4604597 -1.2213627 0.2105728 -0.003540403 0.043524552 -0.8774837 -1.2238803 -0.6106358 -1.7357537 -2.499495 -3.5249681 -2.9007213 -0.34878182 -1.2545874 0.2298149 1.7614071 -2.9281754 0.69484943 -0.6577568 2.1869514 -0.8171412 -0.66331565 -0.05238669 -0.7742496 -0.62159866 1.5166891 0.1184674 -1.3020762 -0.67681766 -1.9182144 0.7144411 -1.486035 0.55374455 -0.21941881 1.0418248 2.2351208 1.7258555 -0.0017972868 0.8955483 0.034854505 -1.4194632 -0.84016913 1.9543945 -1.7659044 -2.2090135 -2.0350854 -0.9971771 0.348322 -0.51214105 2.2568843 -0.7176557 -1.3516304 0.831232 0.8333594 0.011900066 -0.35613644 -0.7708951 0.7405906 0.15692902 -2.1019218 -0.8226134 0.732276 2.9103935 2.3814297 1.1775755 -0.8157907 1.4813694 -1.2670903 -1.1105533 -0.7902894 -0.45641565 -0.8504452 -0.41084388 -1.775674 -1.1959286 2.1860983 -0.4774305 1.1929718 -0.6872579 1.9294784 -0.6599651 0.31491837 0.6420674 -0.19732574 -0.47748312 0.4999426 -2.0341322 -0.45563382 1.3267244 0.17161244 0.19706699 -0.021995457 0.48656005 1.2726251 1.6806731 1.7724855 0.31509075 -0.70778584 0.9443899 -1.5494523 1.9879831 -1.5814008 -0.3375987 -3.26238 0.07626059 1.7685773 3.3012376 0.21812752 0.7153159 -0.5113044 0.9255093 -0.22060844 0.63030785 2.8555868 0.011354614 2.1634476 0.110954806 0.19768144 -0.52239835 1.7574198 0.20935789 -0.4652745 0.3642638 -1.4733003 -0.7264032 1.2280585 -1.4991183 -2.1417933 -0.69297165 0.7491177 -3.4399815 1.9724256 1.2165761 -0.06656491 2.7788105 -0.100808084 1.8984627 1.3617437 -0.22457385 1.0351896 -2.8018236 -0.095177285 0.789733 0.6630843 0.35542518 1.7772256 0.37694213 2.805119 1.9889117 -0.00042239245 1.5801446 -0.15033147 -2.6672444 0.97698444 -1.5340371 0.032003082 1.4023587 -0.903817 1.7307853 -1.124222 2.1927912 -0.5879136 -0.5714393 1.4432932 -2.7134583 1.1768141 -0.6173026 -0.6099777 1.0689973 0.15607588 -1.0003731 -1.4905832 1.8907182 -0.13694955 -2.7676144 -0.4351074 2.1007884 -0.5011206 1.0781418 0.2576192 0.10481102 -0.8432793 0.55738324 1.7408327 -2.3151321 -1.1869565 1.3576316 -3.218193 4.049586 1.6497434 -2.6214514 0.076068066 0.40558773 -1.0975335 2.0833864 2.4270856 -2.6969907 0.2136578 -1.1198262 -1.2792171 1.4613105 -1.4719391 1.3410602 -0.29446805 -0.13903934 -0.31818953 -0.59312445 -0.15736762 -0.34332216 1.3648142 -1.7864131
add 1.0200865 -1.1028407 -1.8536321 0.10060467 3.6775427 1.6014825 4.487699 3.3984642 0.12818171 1.6710403 1.1637034 1.4222274 -0.22975963 -0.22312248 1.5096544 -2.671615 -0.6105887 2.736631 -4.8253975 1.159688 -1.5909959 2.421645 0.5033509 -0.9833268 -1.081107 1.5422205 4.1410937 -3.4697201 -0.8806076 1.4068376 -0.88164276 -0.3914882 -0.76372975 0.32567406 2.4025888 -0.58454055 1.7940527 -3.0415366 -1.6200379 -0.04164077 1.387143 -0.22434741 -0.5072724 0.9060872 2.7317774 2.1359868 -0.95726305 1.182715 1.0101479 1.2851762 -0.52991754 1.300193 1.2279099 1.0527585 -1.5422541 1.5263562 -0.44713232 -0.4621775 -0.8026442 2.0465908 -0.24190201 -3.4559145 -1.5997046 -1.2477762 -1.2336485 -2.8033113 -2.4574645 1.5100397 0.8026223 -2.7573128 0.9904625 0.13594463 -0.095503904 1.0280432 -2.3655207 1.3499142 0.12429894 0.33681944 0.63165665 -3.6275356 -0.07426326 4.170924 -0.68402636 0.7486501 -1.7850443 -1.5390191 0.96112484 -0.80005574 -4.0316973 -1.4387088 1.2196184 0.7479776 1.8005283 1.342612 0.2581091 0.043040365 -0.2697702 -1.3224744 -1.2560722 -1.5123553 -1.1777891 0.040106956 0.524171 -1.861597 0.8756662 -0.8224089 1.0193081 -1.5507317 -0.54373753 -0.9814865 1.6281649 -0.098317206 -0.5593332 2.4256673 -0.25159237 1.4289238 -0.056030676 1.4652792 0.4705468 -1.2425241 -2.7612453 -0.3267564 -1.2277752 0.72722864 1.8214624 -1.748185 0.43747464 -0.4171332 1.7747768 0.7991763 -1.2162198 0.4870983 1.5243642 -1.4563679 0.55891234 -1.2329985 0.64730984 -0.5907565 -0.04697778 0.2614891 0.3109272 -0.17351434 0.045925215 0.69169456 -0.014511362 0.22868997 -0.6836743 -0.7171417 1.7368858 0.22885977 -0.33603042 -0.4614555 -0.45060423 1.1858548 -1.213419 0.8932648 -1.1217909 0.58975977 0.34086224 1.3332278 0.5792169 0.28738227 0.051860474 1.5580038 1.7335367 -1.3084139 -0.9073407 0.70821446 0.6609736 -1.5923446 -1.4025346 -1.4009678 -2.2171378 0.6500262 0.11453798 -1.9557976 -1.2320226 0.35098183 -1.9219465 2.0093608 1.3214049 -0.34888563 1.325175 0.5896724 3.5177662 -1.6263704 -1.444104 -2.3722906 -0.5149528 0.35074273 -2.1226628 0.6973681 0.07134339 1.2197189 -0.76808405 2.4587831 1.0932463 -1.2456001 0.6174881 -1.4283472 -0.14532393 -0.08764725 -2.459533 0.20209667 0.5429749 -0.17053981 -3.010393 -2.272737 0.18629919 -2.6924644 0.81987345 0.22989352 0.6355751 -0.26319015 -0.7846655 0.19195478 0.8638231 1.6166692 -1.4071187 -0.11640177 0.39660776 0.7844903 0.7484171 -0.3499715 -2.3325055 2.468352 1.6188506 -1.9435475 0.21135454 -0.08561677 0.85645586 1.2955261 -1.9025087 0.8053445 -1.7733668 -0.9390798 0.8628652 -0.050924893 -0.9388285 -0.3675561 -2.381103 -1.5079931 0.35881078 -1.275701 2.4165792 0.03177891 1.909738 -1.8087643 -0.5751461 1.0627323 0.89558685 0.20636319 -0.70418 0.41857615 0.3389625 1.0730659 1.0352799 -0.19411647 -3.7114377 2.653467 2.4340641 0.8712242 -1.0348753 -0.31886482 0.2760157 4.2038674 0.747744 -2.0011766 1.3716278 -2.1383395 0.9455447 0.6782211 -3.4382498 -2.839379 1.7790083 -1.450152 -0.72691494 1.2991538 -1.1496773 -0.7158403 4.2342057 -3.0037916 -2.1782358 1.6533678 0.5988533 -1.7800974 0.395735 -1.5451297 -0.8409302 -0.6606971 -1.4582484 -0.36649606 -2.4567003 -2.8209896 2.866403 -1.9716098 -2.6844084 1.2084364 -0.8270622 0.659062
jump 1.1829123 0.68737066 -0.392353 1.8148495 -1.1659706 -3.7175858 -0.73291457 -2.356638 -0.35665268 -1.4931054 2.820388 1.233556 -1.7008054 2.3952801 -0.6003086 -2.0886 0.8772945 -1.712452 0.02348392 -0.57941157 1.445747 2.19926 1.7646648 -1.1724731 1.2376602 2.2088099 -1.2529829 3.5740466 -1.6688973 1.2905641 -2.793525 4.848124 -2.0940597 2.744039 3.6646 -0.31615102 1.0459582 -0.24004447 -3.3796315 -0.21355684 2.8420782 -1.355384 -0.2660703 1.4935687 0.49569994 1.2819097 -0.46401516 -2.694673 -0.16424198 0.105844624 0.8760618 0.8691321 1.1300015 -0.8234701 -1.2006079 1.2183565 -1.3415356 -1.2454727 -1.1746368 0.3131988 -0.03575243 1.6810766 -0.59073144 0.6405279 1.7576677 1.9339454 0.19242802 2.0851073 -1.1804891 3.76854 1.2732818 -2.4366434 3.901655 -0.7259896 -3.547198 0.5459937 -3.0940168 -0.37985256 1.587194 -1.3951151 -1.3826855 -0.2665829 0.5305945 0.82696277 -3.2817583 -1.5866834 1.629944 0.42646357 0.5412965 -0.6084001 -1.4454763 -0.6335875 2.586854 0.23752533 0.34578744 -0.7781321 2.2183843 -1.5703526 -0.45396405 -2.5082612 2.2715602 -1.7502464 0.14773475 0.5321176 -0.13712503 -0.8197058 -3.10443 0.5769777 -1.0533082 -3.1186879 2.2148945 0.2415549 0.56588215 2.2823725 1.6191205 1.7330104 -3.2977533 -1.9831139 -1.2293677 3.9908414 0.36562717 -0.3784101 -0.933515 -0.40125498 1.4221025 1.2963415 -0.12103382 -1.4236237 0.57226926 1.533791 0.49560243 -0.07025963 -1.7697409 -1.6027751 -1.8350161 0.28613698 -0.45742142 2.8683069 -0.6559965 0.2417553 0.18008882 -0.16975705 -0.005543525 0.7183478 -0.21352334 -0.87750405 0.067253 -1.2679988 -0.38834473 -3.2130284 2.6484876 3.8078299 0.934989 -2.749767 0.5966484 -1.2148529 1.130712 0.026917629 -0.2556203 -1.7018 0.04065589 -0.12970158 1.2376041 -1.7334529 -0.47538307 -0.74043214 0.61954343 1.0008897 0.1472719 1.0143193 2.1567752 1.590127 -0.51102877 -0.93842626 -0.19153294 0.28872102 1.997992 -0.66406006 -0.16257228 -0.7202233 -0.89550394 2.442783 2.7637315 -0.37593836 0.67183536 0.6786217 -1.0114769 -0.8669269 0.5968917 -0.99385047 3.9570026 -0.7194258 -1.7521833 -1.6174326 0.8211314 3.7256315 -1.8838103 0.047723573 0.05827212 1.5029254 -1.5897481 2.4832768 -2.3358266 0.0212777 -0.38109687 -1.1501467 -1.8746499 1.0289083 0.95420265 0.23155536 -2.1231685 0.51724553 -2.1445143 -1.9540324 0.2236305 -1.7957488 -0.756158 0.13483866 -0.13192955 -1.84749 -0.46838224 1.1832044 -3.173499 3.1770318 1.4903541 -0.7199759 0.531084 2.5125723 0.13299696 -2.194387 1.7346952 -1.050054 3.518156 -0.7701676 3.1255667 -2.1415067 1.4802189 0.99031025 1.4104745 4.6290746 -2.4371195 -2.0795004 2.5346754 -1.7350855 0.20337701 0.92306685 0.04086675 0.23633063 1.1827922 0.57980967 -1.0875199 -2.325324 0.36218444 -1.2262654 1.8932577 -3.692375 0.27436742 1.4210882 -2.0047085 -1.9362612 0.33689496 1.5238677 2.1061494 0.3307091 0.10312838 1.6377053 -0.9483749 0.6620597 0.96457833 2.3387408 -1.1501058 -1.1932693 0.9954752 -0.09332328 -0.35384583 0.9281767 -1.798367 2.0321143 0.5633411 -3.3665717 -4.433009 3.1420832 -3.1675262 2.5693448 1.264433 -1.4144187 2.31595 0.4339786 -3.4287376 2.3241904 -2.4180741 1.4332967 -0.91681933 1.4678448 -2.7476194 0.44635054 -1.6801319 -1.4241045 -1.1119331 4.48388
mstore -0.72986484 1.9257787 0.5593346 0.073807016 -1.2345196 -0.8467624 2.1225035 5.432089 -1.2551215 4.769283 0.73233753 -0.7098031 -1.7217973 0.92114145 -2.4817317 -1.6742486 0.9393706 -0.039067566 -3.4650927 -1.2277656 -0.96235466 1.0929496 -0.5873753 -1.4596525 0.5179826 2.5007763 0.17371377 -1.1546059 0.9449461 -1.9769251 0.90434784 -0.7152814 -0.44546 1.8901076 1.4443822 -0.23818217 2.2141652 -0.139551 -2.1415176 -0.85708135 0.5344382 -2.0612764 1.6055894 3.001888 -0.49903363 -2.445037 0.23116267 -1.605751 -0.6948285 0.23150387 -0.4565034 1.7820474 0.8189395 -0.011622692 -0.5988439 -3.1600738 -1.488078 3.0691621 -0.23430106 4.0838227 1.9747466 -1.3716938 0.28885975 -3.8862677 -0.31077382 -2.6269183 0.7922179 -1.0349338 -0.52345794 0.22245668 0.2192488 1.2511929 0.8108407 0.4226978 -2.5621264 -0.54356015 1.4638373 0.08447933 -0.26799893 -0.8712775 0.9050706 0.76355314 -2.241726 0.19917962 -0.03980399 0.8646243 0.8354152 -2.0852933 -1.8882498 -1.7193192 -0.07764564 0.89990956 1.8702176 -1.740963 0.27347955 0.7701273 -0.9400447 -2.1557572 0.22537223 2.4162922 -0.1590312 -0.2199735 0.15563215 -0.17341523 1.2995965 -1.1893325 0.19737937 0.42215645 -1.5698187 0.8885928 -0.5425603 0.72406244 2.1781285 0.7841049 0.36900055 -1.2294744 0.32234153 0.08087587 0.40418145 -0.50917935 -0.4412193 -0.3257373 -0.38048702 0.32229275 0.04965338 -0.80127597 -1.9919571 -0.18883795 0.41250202 1.6591895 -1.0302473 -0.6174536 1.3495547 0.62526107 4.0052614 -0.55121213 -1.86499 -0.48939812 -0.9375322 0.30464038 0.56032485 0.65735126 0.025306866 1.7969114 -0.35086668 0.88978624 -1.7723433 -1.2342222 3.029496 1.414848 -2.2821317 -0.8339237 -1.8859979 0.8224696 -0.26992556 -1.7331039 -0.12280028 1.2320744 -1.845426 1.2576611 0.17820443 -0.13588312 -1.1594954 2.1541579 -0.95454913 0.46638632 -3.2178714 1.1870384 -0.7865238 -2.144081 -2.2590759 0.2979905 0.33892348 0.4786664 0.5649658 -1.3956298 0.7581767 0.8698576 -2.0531378 2.133719 2.905196 -0.6770434 0.04389577 -1.3222947 2.4743547 -2.5934472 -0.5255158 -1.9053122 0.27521995 -0.09087866 -2.1067483 0.31378144 -0.092531554 1.4808077 -0.90216964 1.8240048 0.7079836 -2.6348324 0.530988 -1.4363334 0.2675009 0.21322179 -4.3676376 -0.19476666 -0.6873511 -1.5087192 -0.74992603 -1.2980812 1.91588 -2.2036257 -0.036485206 0.86206186 0.03190579 -1.335911 -1.1813844 2.9602199 1.4123664 2.0836656 -0.68775624 1.172203 -1.3430756 -0.67296505 2.0969608 -1.8972353 -1.8882862 2.9599414 -2.2463918 -1.0339577 -0.39359695 0.8930613 -2.085813 -0.66741204 -0.15240395 0.499344 -0.6883741 1.1226246 -0.118765146 -3.6543114 -0.4533505 1.4923706 -1.6743296 -2.8805554 -0.027927494 0.33505931 1.919898 -1.5749314 3.2994843 -0.5495429 -0.75618094 -0.4359493 0.5898567 0.9344963 0.26704296 2.4453843 -0.25453436 -1.0886335 6.1208224 -2.2370222 -5.101032 1.0288621 5.5966296 -1.1010456 -0.8268371 0.07685695 1.3925413 3.6514897 2.3388128 -3.0029006 -2.4031494 -1.377756 -0.47032425 0.69489753 -4.433479 -0.3997394 1.3736995 -2.0364249 2.6247776 -0.980785 -0.48997477 3.2754471 1.5629079 0.12059105 -2.5200508 -2.3433154 1.4241445 -0.31226557 1.3160183 0.8866269 0.91209245 -0.48645157 -0.17534737 -2.6366267 -2.443964 -2.0407982 0.9968725 -0.63922375 -5.391499 0.9707985 1.0463408 3.3529527
jumpi 1.5979627 1.6131133 2.1508374 -1.7802404 -0.17374945 -0.7688933 3.101715 -2.5684266 1.7844434 -2.10587 0.65848595 -1.0913458 5.7596025 5.6166377 -5.7038507 -2.1177344 1.9175966 0.07817905 4.0457354 0.17108956 -4.4813137 4.198206 1.388605 -2.443477 3.1702719 -5.34265 -1.6000264 -2.2561495 1.7395557 1.6650499 -3.276264 -5.5923667 3.1351786 -4.4155602 -0.068720885 -2.4808872 -0.25263053 -0.25967517 1.2783495 -5.2628007 1.2805521 -2.5944803 -0.9220666 -2.3023412 -2.5281782 0.73206925 0.76620376 -2.3398104 -0.43999246 2.1410756 0.43080965 -2.9095857 0.034140773 0.8819127 -0.8708093 -0.024183292 -0.48698366 -2.6798918 -0.68788636 -0.89835924 0.9325648 0.08301776 -1.7903543 0.62989265 -0.7542416 -0.07009259 -3.8677683 -0.016390104 0.46961895 -2.7671158 0.3141796 0.40027922 -1.3139497 -3.1528106 0.4455806 1.3979003 -3.683142 4.4008245 -2.052268 1.0673902 -4.005289 -1.1592507 3.034573 0.64906377 -1.3943669 -5.4971843 1.7602073 0.8666854 -1.5123864 -2.5651622 -0.62875533 1.544641 2.0562117 -2.763035 -2.1189191 1.5196527 -1.3315815 0.8060062 5.1013904 -0.7791902 -0.90019876 -0.2278155 0.56947905 -2.041013 2.6191828 -1.3245685 0.16467413 1.425882 4.542162 1.3035657 3.409863 -2.5880313 -4.2593803 -0.6110613 -3.838831 2.648779 2.4837148 1.6237285 -1.4588654 -3.3869843 -1.2231877 -0.012872072 0.32284844 -0.14424878 0.8271165 0.58002216 -0.0023616503 -1.1439191 0.8038517 -0.37789842 0.7013567 1.0396235 -2.5941858 0.6976429 -2.3141994 -1.5868202 2.2608192 -2.3239684 0.98440105 -0.629565 1.5741653 0.17008245 -1.0549155 -0.940915 2.075164 3.2511115 0.069436245 0.75639826 0.49632087 1.3380244 3.1487257 -0.985268 -0.09880928 -0.050763175 3.74533 -0.39595145 -0.9496845 0.8207063 -1.9712842 -0.15826774 0.199719 -0.48051932 2.862047 -0.26230085 -0.7370909 -0.4219779 2.187835 1.0540243 0.79528147 2.0952964 3.0468063 -2.365159 0.9340476 -0.010410766 -2.5204382 3.0705745 1.9779192 -0.8620207 0.8483164 -0.5617053 -2.0041375 2.116453 -2.7477984 -2.6124694 -2.7763925 2.1510735 -2.42659 -0.10548366 -0.61141396 -0.42770544 -1.2503816 1.0698364 -2.5002854 -5.457417 -1.2391037 -1.1309057 -0.27639058 1.1126994 -1.7553709 -2.0243642 2.8982272 4.0387034 -0.27836898 -3.6239226 -3.9726982 -0.56998765 0.062160764 -3.444561 -0.04533055 -3.1709113 0.50664526 0.079592794 3.0888598 0.1931105 0.2767662 1.7892267 2.4837859 -0.14193521 -0.9688484 2.4193413 -0.25614604 -1.4758768 1.5434963 1.567786 -1.9987469 -1.3864589 2.2062817 -1.8144934 -0.81994843 -0.5485052 -1.9269719 -0.46259898 -0.8886968 -0.8055659 -1.4003083 -0.62403536 -0.21868443 0.79075086 -0.3592771 -3.6734695 -1.252414 -0.11729201 -1.538748 4.2855706 -1.7448155 3.1278439 0.5741805 -1.1427659 -2.5188203 1.7465237 1.0605818 0.31553882 -5.0833 -2.0712028 0.29514697 -2.892485 -1.504599 -1.1535183 0.5291435 -1.4895161 -2.1492796 -2.4363847 0.9966727 0.50251234 -1.1577837 0.6390927 -0.29813433 2.8429363 4.4522753 4.715542 0.36479256 -1.7562702 -2.0866032 3.044355 -0.27947968 0.70332116 -1.523562 0.7343414 0.4026103 -1.9147952 -3.9188359 2.1454084 6.52147 -0.070014946 1.5416965 0.19987415 2.695674 -2.467402 1.6595829 -0.3287394 1.1340989 0.53050804 -1.9706849 2.29456 0.36217427 -1.4693954 5.895999 -0.13147272 -3.3622167 -2.7424169
and -3.267713 0.26077992 0.79924554 -1.544642 -3.4895132 -0.10768546 -3.677809 4.296936 -1.1500943 3.0204163 -2.95818 -0.63310605 -1.049767 -0.38567725 -4.294725 3.2891552 1.2034354 -3.216954 1.3837398 -0.40246642 0.18384196 -3.171973 -3.8739958 0.36415485 -0.8747091 -2.5312917 -5.717502 -1.5121293 2.3619368 -3.0420687 3.4294715 -4.1136975 -2.180819 0.9298344 1.7189022 1.5262413 1.2439784 4.13597 -0.52718383 -1.6268432 -3.3309295 -1.6487625 1.7665411 1.3137478 -1.808215 -2.3791084 -0.091720745 -1.4748242 -0.6178433 0.39202127 -0.73730034 -0.24560633 0.24255173 -0.03385875 0.9505658 -3.7066212 -0.86189425 1.9389924 0.9913262 -1.9353033 1.6160564 0.86328316 0.6077673 -3.9288425 -0.4112157 3.0153272 1.2450218 -3.9076748 -0.6018472 -0.93265283 -0.8281101 1.1353521 0.44114485 0.77617586 2.9538846 -0.3482893 3.9566216 -0.14711197 -0.6112978 3.5344548 -1.2049332 -2.238105 -1.4381796 -0.87551475 0.09440372 2.8397079 -0.43353522 1.3027421 3.7232683 0.84327734 -0.10770137 0.8516526 -0.5403055 -1.4609003 0.31815478 1.2058852 -1.0711418 1.5565315 3.0724287 1.1813705 0.31021926 -0.9419384 0.21981639 1.1903957 2.161462 3.176296 -1.7011497 3.7445788 -1.5656718 1.5446889 -1.168269 -0.8667116 1.4550132 -1.8088573 -2.780897 -2.25106 1.8209867 0.09635791 0.04639116 0.05624245 1.3382758 2.094409 1.40011 -0.06559958 -1.4530834 -0.111080706 -1.6993215 1.1809989 -0.20577742 0.30828178 -0.21982476 -0.96704954 0.40338445 2.769388 2.434917 -0.197249 -1.2822814 1.4317354 -0.60250634 0.22463639 -0.5962733 1.7079023 -1.2392901 0.19279332 0.056941383 0.5295473 -0.389354 0.043287374 -0.036163796 0.16010037 -2.688572 -2.669399 -1.1414349 -0.21331586 -0.33117452 -0.8820266 0.63255775 0.19586045 -1.0642453 -0.76196295 -0.7215713 -0.6087969 2.1628902 -1.4544708 -2.469086 1.5058242 -1.2601843 -1.3153049 -1.2656666 -0.49908355 -0.25530478 0.48939544 2.023383 1.0223937 1.3400669 -0.12280087 2.5009773 -0.016497292 1.7364113 -0.50008076 0.852553 -0.2667027 -1.7608182 -2.1628742 -1.1206828 -2.3677793 2.524481 -0.07213228 0.43082526 -1.8426024 -0.2931877 -2.3092365 -0.06918792 -0.66149 0.78299415 0.6630498 -0.15094842 -1.3288374 0.6983697 -0.22058651 0.3830832 -0.15421706 -2.334084 -0.11593381 -2.4230814 -0.24454114 1.2495209 1.221822 1.5603279 -1.1566962 -2.0978816 1.213921 0.33404222 0.50777006 -0.62612426 1.9078403 0.899963 0.8346997 0.073106706 1.340758 0.08508758 -0.7312268 2.6591985 -2.8279445 -1.3411082 0.09793114 -2.5811856 1.5245763 0.020925323 0.6549782 1.2004989 0.2794643 -1.5220633 -0.055913292 -1.08214 3.3788052 -0.29253232 -2.7323718 1.3307321 0.8848758 1.09896 0.75554895 -0.9696543 0.27549863 -1.7053756 -1.628857 -1.7544631 0.55571765 -0.16126257 -0.89750075 -0.50890607 1.2636971 3.3116565 0.9829935 -0.71239275 -1.3032523 3.4386618 0.20638621 0.05186035 0.12377835 1.2300287 -1.370832 -0.9643316 -0.5882493 3.377681 -0.38904142 1.9055742 0.24451748 -3.7439044 -0.42915294 -0.97742 -0.013669766 -2.9504423 0.96162045 -0.6044456 -1.2373936 1.1513803 0.62243766 0.17872712 1.992582 1.4393591 1.3850286 -1.3855157 -5.5413074 -3.3075695 1.1661837 2.2940993 -1.9932538 0.71031463 -0.20113397 0.5351362 -3.6729228 -0.5909386 1.5868714 -1.9083794 1.4980422 -4.3860893 -0.41562924 1.045101 1.8368675
mload -4.17656 -0.41924655 3.9821765 -3.2662685 -2.5031178 3.0674303 -1.710171 -2.116224 -2.640176 0.3792756 -3.539584 -1.553819 -1.9594359 -4.24004 2.589846 0.780432 0.76297504 -1.7491045 -0.858376 1.8997527 -2.4108424 -3.3502831 0.5225892 2.9815617 -0.5058083 2.2492487 3.9893608 0.23664412 -2.6020906 0.9125708 3.211617 -1.3436985 0.115153074 -1.212056 -1.7651161 -2.5878203 -0.92496693 0.25768447 0.51744604 0.976549 0.87564564 -3.3885803 -0.4426554 -1.0581928 0.29158974 0.21336482 1.2906468 -1.4129435 0.19479178 1.0119102 1.2962362 -0.8540478 0.32860506 0.12589473 0.7048043 -1.0223645 1.8593868 1.2159338 1.7766496 3.608319 1.3892139 2.2781713 -2.6537704 3.1394448 -1.9033378 1.2236334 -0.8613751 0.81361914 1.2174169 -1.1447287 0.16364048 -0.3671193 -5.1832438 -0.44731614 -2.045956 1.0542662 1.819195 0.66114175 -1.4481258 1.650246 1.2678233 1.9745251 0.68689394 0.78996927 0.7696827 -1.67405 1.2589364 0.03546227 -1.3160868 1.888478 -2.596857 -2.8754756 -2.8171053 1.0833839 1.5400428 0.2060725 -0.6491746 0.59968746 -0.1877287 -3.0992835 0.580123 -0.36378637 -1.1103988 -0.33429813 -0.15885092 -2.7958994 -0.11419294 0.51378226 -0.37080377 -1.0641274 -0.12928538 1.1226494 1.231094 1.1231145 -1.219441 0.12233325 1.3890802 -0.109784774 -1.5203319 -0.89263034 -0.16472998 -1.2003385 -0.83601916 -0.16891871 -1.0286881 -3.1588082 -0.18584253 1.0949645 0.97450083 0.2936102 0.79496306 -2.4681196 0.26350003 2.3039477 2.6065836 0.04708778 0.945149 -0.47752038 0.99222696 1.8758129 -0.96181333 1.1550639 0.31339204 -0.81973356 1.9704137 -1.1323553 -1.114394 0.12802747 1.6701726 -0.5602521 -0.76585925 -2.9281251 -0.8838712 1.8083766 -2.130413 1.4208167 -1.2585245 1.0371627 1.1682806 1.3376577 0.7298233 0.7840054 -2.5380752 3.0325866 2.7255838 0.5212014 3.34004 -4.0157895 -0.316722 -0.17912057 0.7361038 -1.9227295 0.551295 1.6032611 2.166046 -1.2470329 -0.73881036 1.4021847 1.2651144 3.340749 0.9103686 -1.7596234 -3.6141038 1.8775221 -0.8162547 -2.36406 0.36545384 -0.08714782 -1.7682309 1.3139787 -4.676784 0.25587422 1.5223215 4.107354 -0.42226624 -0.41887888 -0.43055397 -0.6870765 2.2833056 -1.6909957 0.4019806 -2.1318247 2.486985 -0.2044244 -1.2299358 2.2947423 -3.2821105 -0.72758275 0.55809695 -1.5230385 2.5746558 0.07966263 0.4773186 1.988576 1.4076133 0.9774766 0.91166735 0.64385664 -0.33206156 1.4077176 -0.86682284 -3.0548584 1.9596137 2.8634684 -2.7240496 -2.2700777 1.1071435 -1.8969632 -0.0036263329 0.69400185 -2.00587 0.63321835 -3.036481 -2.6427505 -3.861327 2.3738635 0.32203642 1.3491665 0.36500192 0.69101954 -2.4105742 -2.5096233 -1.2533337 -0.1081917 -0.649387 1.5127093 0.29544947 -2.250175 -2.0776432 0.35954213 0.7018087 3.3511639 -2.4723825 -4.5180225 -1.9480011 2.8913922 1.2062606 -0.28785792 -1.6710058 2.0993915 1.0799686 -0.7231909 0.3297466 -2.840927 1.1997766 1.5164382 -0.6764686 -2.564487 -0.15631847 0.60576725 -0.21810734 1.0234126 -3.0654304 -0.18967041 -0.59548056 -0.017501138 1.8102362 -0.30276754 2.8952594 -0.375531 4.217634 -4.2748528 0.38897538 1.6479213 -0.07448664 1.1018776 2.2709715 0.0029389253 2.334928 -2.5037458 -0.6779929 -2.8023422 -1.2220905 -4.8144836 0.49727705 -2.7708318 -0.37550324 -2.036722 2.964254 -0.87302846
iszero 2.1222157 1.0183877 2.9035616 -1.6050792 0.43695658 0.34647557 1.8621725 -4.6486473 2.4164202 -1.1149387 -0.103206076 -1.2596835 2.1795955 2.8616385 -3.8155408 1.967611 -4.052919 -0.22709031 3.5570807 -0.40839037 -1.4765352 1.2858781 2.476053 1.1712216 4.889207 -4.8958936 3.208492 -3.0691864 3.0549464 3.1336794 -1.8422605 -6.159301 3.6018572 -1.7702188 -2.2709641 -0.086629525 -2.2210453 -0.9887695 4.0757055 -2.085511 -0.6712443 0.73498255 -0.4302392 -5.1382556 -1.1081246 -0.105620265 -1.5733075 0.80359775 -0.40762383 1.8630899 0.27687973 -0.47059226 -1.125154 -1.1217866 0.45105872 0.67261 0.014310372 -2.441139 -1.9164667 -0.72728926 -1.0163553 1.3428713 0.060922693 -0.91556704 0.6871457 2.1159372 -2.0440166 1.2091982 -1.2516413 -3.163207 -0.64184445 0.06684754 1.098827 1.9794443 0.29233727 -0.12006957 -0.5496821 -0.007983027 -2.889386 0.5604689 -2.1406922 0.62933296 1.931695 -2.8631332 -0.9388175 -1.0093125 0.119050406 1.6861811 -1.3690981 -2.040182 0.78969043 0.35342672 -0.7634776 -0.59153754 1.657408 -1.2501886 0.039319653 1.2723597 3.0527742 2.6310077 -1.3309506 1.3815258 -0.30538514 -1.1957781 0.38416287 -1.074112 1.2480875 -0.40637112 1.168339 0.24299197 1.6273297 0.14893965 -0.45760545 -1.7074406 -3.998378 1.3605207 0.033564445 0.9996413 2.360941 0.331052 -1.5838203 -0.14750053 2.0241506 0.15239891 -0.35003358 1.062401 1.5892608 -0.97332627 2.1222665 -1.7683308 0.94550043 -0.108848475 2.499636 1.1805395 -1.7659813 -3.322922 1.0166754 -0.4924553 1.6181079 -1.649337 0.6952599 0.13410765 0.22598779 -0.78514147 0.00047440288 0.86414033 -1.083986 1.6639588 -1.1646311 0.97191703 2.8755395 -0.3366103 0.8438919 0.23235345 -0.1401944 -0.3483729 0.81911427 1.0792352 -1.092239 0.6373151 -1.0514197 -0.1409716 1.7368894 -1.2222326 0.06840782 -2.0206637 0.7549483 0.65430564 -0.02471612 1.8343338 1.1368396 -2.2341633 1.3305562 -1.1790371 -1.917905 2.8461092 -0.8824461 0.55223185 -0.9139661 -0.47975236 -2.228451 0.33715576 -0.4266688 0.03338196 -1.96055 1.3482014 -1.5626117 1.5839977 -0.48693097 1.3039713 1.7914399 -0.9829091 -0.0032432033 -2.1385152 -0.042514525 -1.8998593 -0.44436306 0.08710228 -0.11198217 -0.7097047 -0.26590565 -1.6014243 0.66173315 0.3556998 -2.7264798 0.99469954 3.1775036 -1.0933006 -0.35465518 -0.38496658 1.9753066 -0.9942481 2.831662 2.5620606 2.3947206 0.9778795 -1.079634 -1.521274 -0.38615185 1.6081634 2.178677 -1.0433189 2.2768538 -2.6477497 -2.5528011 1.5758774 1.6880469 -4.1892095 -1.3915718 1.5473601 -2.6803722 0.8211426 -2.4725752 2.3029497 -2.811126 0.18323632 -1.4600248 2.9863546 0.047463268 -3.6961987 0.15779778 1.2392503 -2.8281882 3.3150992 -1.0187917 2.5299408 -1.393491 -2.7906787 -0.17232919 1.0570531 1.0954665 0.3604959 -2.1973317 -0.7281204 -0.48998317 0.64445466 -4.272987 0.8848112 1.9627489 1.0784968 -2.4330194 -1.4042175 -2.0984223 0.96341544 -0.41374236 -0.2732279 2.0321138 2.9400969 2.3169136 0.7139976 -0.24397519 -0.7934691 -0.4397814 0.902858 -0.5246677 3.3235683 -2.9126115 0.5541678 0.3783482 -0.6742214 -2.0577576 -0.981125 2.437055 3.161285 0.20840178 0.5605134 -1.9027119 0.8312447 0.73263896 -2.837093 2.5841882 -2.2627544 -0.0075736064 0.5127533 1.9365833 2.068124 1.1073054 -0.6963674 -1.9406942 -5.461259
sub -5.5468144 -0.5056984 3.1116943 -4.000591 -1.7595611 0.25522026 -3.1790578 -0.7848961 -4.2935615 -0.21826445 -2.5660346 -5.472297 -3.7186112 2.5070987 -1.9909571 1.7041446 -0.035430152 -6.1898885 -1.3636289 0.19054377 -3.3659918 -2.395909 -1.4945391 0.7943024 -0.2772698 -0.05146497 2.0330915 -4.025683 -1.4841292 1.1529626 5.409012 -3.7630816 1.5552093 -0.021960359 0.50148356 -2.6255634 -0.22278306 1.2189767 1.5930156 -1.3411856 -0.8205549 -3.4186502 1.2395579 -1.4726783 0.8700962 -3.3159757 0.27254996 -2.1960578 0.8560896 2.1770914 1.6758488 1.3608664 1.56287 0.18476921 -0.5527623 -0.75027734 1.7920132 2.9476752 3.0271547 4.404267 0.32003507 4.8422055 0.05633239 -0.6628582 -0.44279692 3.513256 -0.5562629 -0.20639259 0.6293333 -0.037776295 -1.2027867 1.0361742 -2.9265418 5.578637 0.36492357 2.5534606 4.13463 -1.2722096 -0.20593478 3.5358524 0.097599685 -0.938436 -0.96227044 -1.2762911 -0.83772606 1.4041345 -0.48539323 1.2229387 -0.013503012 2.1739843 1.4939669 -3.885896 -2.6550064 1.2967658 2.107242 1.1715472 -1.6678894 2.3517013 2.9350996 3.101013 2.908006 -0.8422211 -0.43378067 0.77369314 1.5016934 -0.34797484 -1.7096516 2.4211354 -1.1141447 -0.7311446 -0.0920906 2.033251 -0.11528683 -0.52231866 -4.1839614 -1.2990838 0.68890303 0.62803525 0.8786186 -0.31820253 -0.0063458597 -3.0212455 1.3659345 -0.86039805 -2.5298753 -2.595483 0.115134366 2.9466755 -0.52204627 -0.3377949 -0.68028533 -2.5422685 1.238677 2.2757404 0.9210529 0.13893211 0.512059 2.2301567 -0.55560195 1.4156055 1.0574158 1.9807656 -0.5775689 -1.730818 0.31687662 -3.6009023 -1.633168 0.9453476 0.025018476 -1.2256547 -1.180265 -2.3237565 -0.8291948 -0.5400506 -1.4164273 0.43485022 -1.5372111 1.7234787 -0.46110016 1.2049086 0.37649998 0.99572766 0.029764522 2.4359274 2.2067945 0.88841784 -0.29665902 -2.2443051 -1.7138476 -0.046126615 -1.667034 0.33877635 1.2849333 1.4722033 -0.43505687 -0.81081605 -1.9524544 0.4467958 1.1996218 2.6566176 -0.7071584 -2.1132348 -3.214454 0.7712226 -2.2614868 -2.0291638 0.7828591 -0.99695057 0.7429008 0.28837112 -2.1397352 -0.92815465 4.6354523 1.9626992 -1.6723677 -3.4774106 1.3457744 -0.26686284 4.4957275 -0.74763167 0.043970514 0.77863485 0.501193 -1.6399484 -0.6966245 2.4357646 1.5599226 0.8477182 -0.38255602 -0.27167612 0.8078514 -1.3779572 0.08490147 1.586226 1.9687212 -1.9102498 -0.4189078 -1.9486462 -0.5113095 0.64077264 -0.7415626 -3.5201895 2.1735575 1.5474689 -2.1791701 0.23707466 -0.43892497 -0.47841334 0.07595942 0.9115569 -0.6588828 -1.14526 -2.035362 -0.8124869 -2.4949033 1.7608622 -2.1408334 1.2190725 3.3942075 -1.3490083 0.07759818 -0.9401948 1.1157538 1.7728151 -0.36838824 -0.6244655 -1.2838066 -0.25276062 0.6293117 0.9652963 -2.3129117 -0.3305697 3.1608326 -0.38952515 -3.130614 1.451805 0.41086948 3.6694186 1.0336426 0.1941694 0.3626171 -0.9231496 1.0388595 -1.9024984 0.11998001 -0.20797539 1.1875819 1.690975 0.58116156 -0.3766188 -1.4503113 1.1813837 -4.0443034 0.48780313 1.2132834 -1.5329958 2.3150172 0.24704434 0.2770837 1.3092005 1.4741694 -1.7689213 -2.2750754 -1.1465244 -2.3438134 3.7435405 0.72634166 -2.107002 -0.8127178 -1.9421293 -1.7119416 0.19996232 0.36957315 -1.2908868 -1.084292 -2.0800896 -2.6830835 -0.606318 -2.452052 1.0089061
sload -3.4090607 -0.2964643 1.5567728 0.115979895 -2.6455643 -0.10804776 -3.6016343 1.863952 2.3878443 2.186227 -0.6154686 3.7672832 1.7518722 -0.7295418 -4.8120756 5.821056 -1.2036395 3.0492532 1.6437471 -2.9315085 4.0310903 -2.1108847 -6.0069366 4.699955 3.6085196 -4.774663 -5.7370462 0.8749372 1.0011675 -5.2001057 -1.4201251 1.5865326 -4.29979 0.79077214 1.3147143 0.6151173 1.6389598 3.184287 -1.3617746 -3.4987104 -2.9881916 -0.5707976 -0.3255642 0.51545906 -2.5218887 -3.9852922 -1.3870811 1.7791339 -2.086334 -1.1930948 -3.6036675 -1.2342222 0.68113947 -0.20224695 0.21584542 -6.1025352 -3.2571423 -0.14665884 -1.4967538 -3.9715242 0.5672688 -1.3638378 0.6236731 -7.439396 2.5894768 0.5528926 3.8573043 -3.931891 -1.3115146 1.8233858 -0.048239414 -0.84932643 4.5867996 -0.7757124 0.77047867 -3.360336 0.89000905 -1.1891433 0.119854026 0.7840301 -3.165759 -1.3128444 -3.0027006 -1.1646863 -0.9100101 -0.6753061 2.430096 -0.6612169 0.33316684 -2.6596692 0.4727609 1.2382178 1.0018722 -2.3290958 3.2230313 -2.8943374 -0.83683515 1.3785769 2.7266035 2.7200053 1.3886782 -1.4328288 -0.57163686 1.6290609 2.058323 2.4687219 -0.512553 1.7454067 -3.4428818 1.719011 2.4457934 -1.9932607 2.7605894 0.38733885 -3.2562656 -1.7521516 1.8912923 0.11265764 -2.8647485 2.2040157 1.8801706 2.6084418 -1.0339447 -1.6008767 -0.8691387 2.9087322 -3.7590964 -3.2145364 0.64696544 1.5289353 3.6239138 -1.711068 1.047721 1.4852643 3.2155366 -1.5187308 -1.8729485 2.336984 -1.971061 -1.0923121 0.3564431 0.47490424 -1.3333632 1.1838585 0.032693144 1.7989401 -0.5334617 -0.39495066 1.5512286 -1.5799834 -0.8007542 0.123981 -1.8669556 0.17034572 1.5301937 -3.8165753 2.4647496 -1.0909798 -3.1016204 -1.6127723 -1.144666 -1.9161638 1.6207798 -2.273702 -3.9453456 0.37538326 -2.0234427 1.8374674 -0.52219 -0.71393794 0.538072 1.2284887 1.5025176 -0.03260727 0.49600872 -0.86642694 5.054242 -0.11277223 1.218169 -1.0145848 1.3246835 1.4774158 -0.21566463 -2.4858289 -0.9873487 -1.1324272 1.2854773 2.3104615 1.8497345 -3.4977756 1.9460311 -2.4071066 -1.6189543 -0.926859 -0.571807 2.140565 -0.9664009 -0.97898096 -2.0303118 -0.3727329 -2.725898 -0.7423374 -1.7270713 2.8389564 -3.1701639 -2.2307978 1.3682851 1.4706528 2.4567533 1.4789526 -4.306623 1.81996 2.9965272 1.0608495 -0.83142287 1.8363229 1.1139884 1.9817239 -0.71446157 2.3398867 -1.433375 1.0881947 0.8629806 -3.4505072 1.3363335 0.26720327 -3.714937 -1.5417172 1.3809481 1.7364368 0.47196513 -1.1900247 -0.39585042 -2.0264664 1.3713132 0.9129829 0.073439084 -2.246289 0.41662735 2.5820725 0.26726183 1.2365108 2.3503988 0.57208323 -0.043178268 -1.2786332 -0.14845915 0.90339726 -0.59572387 0.9064274 0.4774647 0.7928727 -0.14787352 -0.37460732 0.5818562 -2.8504426 -0.8823617 -2.0586157 -1.548426 -0.41908282 2.5699933 -0.052128904 0.48730165 1.0381885 4.343417 0.5840459 2.54503 1.1910121 -0.2367979 1.7560321 -0.0007561437 -1.0571883 -1.4082685 3.0110614 0.19171663 3.2090032 -0.48811787 0.045746796 -0.17203562 4.0923834 -1.0572742 1.9562569 -2.1539526 -2.6347294 -0.27251092 -0.6041919 0.7891754 -1.1521132 1.1099669 1.2691724 -1.1100804 -3.872461 -3.8498652 2.5917563 -0.012636626 3.0380552 -1.8816036 -1.1653111 2.396257 -0.17503169
revert 3.225003 -2.2041054 -0.6915366 -3.59419 2.9335074 1.2990565 0.9699392 -6.67378 0.39978406 -2.1441429 0.002507813 -3.317905 1.7402107 2.9590611 -1.8669841 0.097993724 -1.1389972 2.3001432 0.28795463 2.3852615 0.83891904 2.3679366 1.116343 -2.9211857 1.8838288 -3.0810122 3.0261097 -1.3106141 -2.4343333 2.873623 -1.6636206 -1.3665044 4.783099 -3.0182695 -3.9804075 -2.1679363 -0.29997495 -3.5497556 3.2141023 -2.9804366 -1.7620308 1.0329692 0.16193883 -0.75737506 2.0134134 0.52830696 -2.4399188 1.1548519 1.3851836 4.2460465 1.0989026 -1.4808996 0.44344264 -1.5477271 -0.03894833 3.1999838 0.770386 -3.7111952 0.76291144 -0.80993 -0.5959339 0.35809058 -2.6505775 2.9578636 -0.5912388 3.2349153 -2.0686908 4.905904 2.7365546 -1.6124251 -2.116822 0.22903435 -2.3205135 2.1192787 0.32783607 2.6616476 -0.70716363 0.84972274 -2.3419333 1.0991366 -2.8592384 -1.5788062 3.0921702 0.6178757 -0.6289261 -0.86280155 -1.831582 0.62871164 -2.4302528 0.7145714 1.0495915 -1.2328926 0.68029976 -1.0448927 1.6508787 1.6070359 -0.4003946 1.9276798 5.1357718 1.2741544 1.0216639 -0.7218222 -2.7063005 -0.24596822 3.6208212 -0.9170581 -0.6763129 2.554107 2.920206 -0.32107252 1.3243055 -0.14884636 -1.389108 0.4146339 -4.4848194 5.0537987 0.7045498 2.2904954 2.02229 -1.4971215 -1.6883001 -0.44709232 -2.839914 -2.7258337 -0.19292699 -0.81468135 0.6542208 0.35257807 2.942713 -3.7045746 -0.8086644 -2.115628 0.1887494 1.343133 -6.5884814 -3.3124635 1.0245035 -0.64401054 -0.7175248 -1.6208029 1.9070451 4.4016585 0.22970489 -1.1945195 0.73012537 -0.8279427 -2.0110219 0.6761533 0.9330621 0.590933 2.015612 -2.43838 0.22366586 1.3490385 2.9168894 -1.2007583 1.4737393 0.7631836 -1.7989528 2.3688104 -0.90514916 -1.8725759 3.738877 0.054617144 0.27995726 -2.7426121 1.6611967 -0.27946374 -1.7632914 2.5177429 1.3283368 -2.4431245 -1.9824772 0.7296082 -1.2997466 1.8439229 -0.5847483 -1.5704836 -1.9512058 -0.24613814 -2.9078941 1.0779583 -1.3825736 -0.39188302 -2.3540597 1.7117535 -2.779182 1.3387082 0.023398928 1.1021385 0.5813021 -2.566484 0.7157985 -3.2528837 -1.5755265 -3.2511456 1.7128859 2.316738 -0.6307751 -1.8980113 1.3640032 0.81580627 0.016533185 -5.2433987 -2.4683783 0.1911089 1.4021736 -0.5343912 0.2695919 -0.6177093 2.3610792 -0.7460779 -0.1791228 2.4445999 0.7108233 -0.38959676 1.0452025 -0.9963561 0.70072854 -0.72431964 0.7664543 -2.249184 1.7352648 1.5320584 1.9735142 -5.665912 2.99002 -2.7077904 -3.4398534 -2.6532989 -1.2738894 0.83605194 -0.98558134 0.9889146 -4.8798804 -1.3820022 2.382827 2.0846856 0.35782447 -0.06862362 2.074209 0.085887626 -2.7856827 4.038711 -0.31520146 -2.136481 0.0041980837 -3.9933333 -0.38959894 0.48228374 0.9213107 -0.6961353 -4.0475755 -4.4942856 0.27250898 -1.2918679 -6.0024295 -0.6354912 2.179088 -1.0902201 -1.5405322 -1.775651 1.4730976 -1.564917 -1.5468187 -0.35307783 -0.89717764 2.8425257 0.8273656 4.149441 0.41862622 -1.0441815 -1.3286157 0.14966023 -2.1935616 1.2446404 -1.3681482 -2.3334055 -1.1669588 0.39207336 -2.438631 -1.1626757 2.810605 0.49994332 -0.35375413 2.3828428 2.6549997 1.4417452 0.41314438 -1.0953058 -1.0330117 0.9029466 1.9900763 1.1690003 -0.4464421 -2.4843397 2.0977356 -0.35344678 0.24036796 -4.3273096
shl -1.2945142 -3.5132418 -2.3131144 -3.4864593 -0.4940772 1.8589156 -7.1119113 4.6075797 2.9684312 2.8307827 -3.161321 6.3867083 0.93135226 2.9779782 -3.799377 3.2095964 3.556592 0.23015738 2.4427004 0.09671548 -0.08388317 1.3900673 -6.6182895 -0.3604932 -4.5528316 2.6721764 1.4368501 0.6114836 -6.624645 -2.2713661 1.2909236 0.29196432 -4.865096 0.3439415 1.1751789 -1.4361233 4.3298545 1.0932904 2.3483586 -1.9525452 -2.9191227 1.6942941 0.9256457 1.348179 1.9261036 2.4335024 -3.10576 2.5876899 -4.7755737 -1.8632205 -0.3026652 -2.9856977 -2.7945004 1.6281015 0.33031854 -3.79358 2.4012702 -1.0546315 0.9880248 3.9501703 -1.1677673 -3.3932416 4.4056063 -7.9185624 0.79334986 -6.5690417 4.73944 -6.376291 -3.4871202 6.51522 -0.7375804 -0.7426853 -6.2226205 1.0814465 -4.0986423 -2.2675545 0.13704056 -0.23726441 -0.26811334 -0.5963454 3.8245058 5.232607 -2.7673757 -0.7773737 1.373316 0.078449555 -0.4889946 -1.6676536 -0.7356097 -2.696104 -2.0756822 1.194855 3.9911513 -1.2346653 0.18352616 -0.86603546 1.5911957 1.8146899 -0.55909604 0.19277707 4.839157 2.135742 -2.5549374 -1.0234065 -1.4215418 2.9011724 -0.43218273 -0.6571067 -2.8250139 0.42069677 -0.35101774 -1.7918546 5.1358194 5.1226764 0.38882908 1.3263351 0.06119178 -0.09391081 3.7524328 -0.7094015 2.2838972 -1.3311211 -3.7309554 -2.3919704 -0.30171934 -2.4823575 -1.9816608 0.037772037 0.103963494 1.2690467 0.59808016 0.43324482 -2.5918531 1.1423575 2.1570597 1.2115018 -1.0748341 1.3007493 -5.4562097 2.543163 1.5920949 -0.6514227 -2.3753734 1.9220887 -0.33348474 1.9467969 -0.059025556 -2.276487 5.374725 1.2788761 -2.7527936 -1.8965657 -1.7017668 0.36422867 1.1815221 -2.0308115 0.49352998 4.7571807 2.713516 1.1102518 -0.570911 2.1875548 0.8678644 2.5122204 -4.921509 -2.1299016 -0.41823143 2.4198036 -6.888394 -3.0613692 -3.7265584 -2.8101997 -3.7403603 2.0627823 0.7477681 1.4125074 2.3082414 -1.7639122 -0.44937283 -0.7467899 2.5617445 -0.8740546 -0.013350524 -3.8225665 2.4389534 -0.16328202 -1.7619147 -1.548563 1.4223849 -2.1755624 4.660475 2.7995522 3.6993334 -0.310907 -2.3428037 -1.8070971 -1.3649397 0.43347615 -5.5184484 -0.9800375 2.7679648 4.642212 -8.2910795 -2.2553391 1.9985867 -2.451416 -4.95715 -3.3716927 -5.3147473 -2.1799543 0.32064372 1.7511733 1.4778537 -1.0094162 -3.0989673 1.3331064 2.9835975 4.918144 1.414777 3.466415 -3.4716468 1.030047 1.7205567 4.760115 -0.03635318 -4.145368 -0.36194494 1.1185114 -0.68374896 1.3317331 -2.591227 0.99375606 7.0139856 -3.5740767 2.3081563 -4.023525 -0.64459753 -7.7965617 -0.28963494 2.4006019 0.1390525 0.10666932 -3.5817745 -0.6496747 1.6681951 -1.4679214 8.159494 -2.8090172 -0.6288881 -4.523305 -0.33457246 -0.3588802 -5.713402 -0.09656353 1.1362473 -4.4674025 -2.2938347 3.1723542 -2.6190886 -1.1354709 2.4120853 0.29343095 0.9360426 2.0707693 3.5945978 -0.5302135 -0.23140842 -0.60181916 1.3346301 -1.4401356 1.6754133 1.7081617 -2.114012 1.2839632 0.84166384 -5.2681437 5.643549 -3.5915642 -4.2737937 1.4876794 2.7999969 1.1758486 1.3104137 -4.9273787 -2.0472317 4.367328 2.8611794 1.0712507 -2.6898901 -0.58145016 -1.5506554 -1.7414608 -2.2693822 -2.4707546 -3.5747259 -3.2050662 -2.0580926 5.984198 2.4143832 6.1855574
eq 1.9751506 -1.4997874 1.6857667 -0.22905418 2.263368 3.7140043 3.824628 4.5195146 -0.7601074 -8.512945 -7.439888 -0.89305913 2.6469858 7.541219 2.1552093 4.232474 9.014821 -3.0495982 -3.3999782 0.4894522 0.396516 2.2985024 4.5951457 3.367761 -1.3540052 -7.736384 -2.5434723 5.286909 -5.98758 -2.7032 0.97690934 11.469907 5.697288 -5.268815 -4.0892744 -0.9609667 4.651163 -0.96364623 2.1962125 -1.2714161 0.006047028 -2.0832229 -3.1642346 2.6742349 -3.2465782 -0.8506589 -6.178886 -5.670344 -2.329759 1.6430463 0.63422513 -3.0074687 -2.7816346 0.21305566 -0.9587246 1.9270955 0.012835479 -5.9452353 -2.6054897 2.0215273 -2.102852 2.4705877 1.4353544 0.6409783 -1.2305111 -0.4476509 2.8500693 -1.1650796 -0.6670236 -0.22360113 -5.0969024 0.8707931 -0.97139955 -2.4965563 0.9042895 3.893208 -8.226658 -1.9639761 -0.33135056 3.0739965 -2.2978885 -4.6617303 3.896296 0.1405905 -0.18924285 -1.4991782 -1.8693373 -3.1514213 11.346322 3.0327325 -3.8081188 -0.9271004 -0.4548983 3.884974 -0.6146123 -1.3566344 -3.7314942 5.6554112 -0.69632787 0.8377429 -2.960565 1.0208405 2.2243457 3.107596 2.0592844 1.0238373 -4.1542697 1.6217456 5.6190248 0.28072506 -1.0593917 4.7659564 -6.84071 -0.67635757 4.1421027 3.6829512 0.5060178 -2.4985254 -2.7605894 -0.73740435 -1.8938385 3.0178657 0.4073226 2.74287 -3.9834146 -2.889115 -1.9078664 1.1583109 -1.8074043 2.7721286 1.5831964 -1.5802748 -4.113719 5.9862103 2.052252 1.8174896 -1.0921861 1.150761 1.1541502 -2.4715712 0.16108267 0.6824786 -0.7499983 3.0751102 7.1132603 5.08895 1.0560461 -0.91507226 2.0533803 1.3559992 0.90518856 -7.3909574 2.071547 -0.46783403 3.440869 -1.9703478 0.655279 2.4052105 2.9119 -4.095935 4.8569345 -1.0822295 6.6771736 4.118176 -2.674399 -1.6056668 1.9007651 5.8116455 1.251158 -0.653924 4.3206024 -2.4720318 0.78891915 -5.5914955 1.5125002 3.231546 5.5107293 -2.5826058 1.2956579 -1.9233841 -2.7173884 1.4129933 0.31721267 -3.4771898 -1.3521359 2.4787698 -2.5559692 -3.1489558 1.1024315 -5.2439475 2.863603 -2.2450283 3.4286904 0.7052088 0.0028929785 1.6189932 1.6862676 -0.07840145 1.3772762 0.43061128 -4.1439734 -4.134487 -0.9548309 -4.75071 -3.3517044 2.512567 -7.1863017 1.5619999 -4.1493177 -0.80388397 0.4889866 -2.5532792 0.28597677 -0.88341045 -4.2629714 4.3913803 -2.2302027 4.18392 2.626167 4.940295 -3.613461 3.3710167 -6.001036 -1.4951664 2.234049 -4.722337 -3.447443 2.6511302 0.39923128 3.6794071 -2.8443272 0.47299075 2.3497992 -1.8487579 -0.8060772 -1.5153847 -1.8061633 -4.9844604 2.0468016 0.08773359 -0.043895118 1.9165761 -0.4297139 0.23020107 0.30308488 -0.39578977 -1.9250823 -2.4062808 2.0029614 -1.7219058 0.33539805 -1.2196786 -4.210383 4.3370194 -2.122006 -5.7795296 -3.415593 -7.2135105 0.87816405 -5.003327 -2.0749497 -2.622838 2.3557277 0.6970176 2.8403025 -4.296181 -2.7790897 -0.36230442 3.602701 5.200536 -4.147557 -0.40072033 3.5043404 6.6320925 -4.7224436 0.6888589 1.4628451 -6.323416 -0.13018024 -4.7073092 -3.7506444 4.932106 2.446251 -2.5532513 0.14060004 3.1040978 -4.180415 8.474179 6.7918205 -1.693903 4.945201 4.794264 -1.5445933 1.9903215 2.2091815 1.220552 -0.3206169 -3.6710684 -1.8774625 8.711553
sha3 0.08124517 -3.4444072 0.043069903 0.33193025 -1.5567383 1.2337421 0.8110842 10.765071 0.6139831 2.8800905 0.6709488 6.231441 0.83433235 -2.9930663 -0.89434665 1.5267001 1.7193515 2.5648544 -5.0760407 -9.661041 4.5990915 3.1802387 -8.2002735 3.1522365 1.5072886 -0.44404393 -1.7062358 -1.0997813 1.2183731 -3.5707002 -1.3666759 0.8106448 -5.866012 -1.3081437 0.8926012 -3.4528427 2.239163 1.0272143 -1.7163286 -6.0961943 -4.683339 0.43976125 -0.1610286 0.95262516 -4.248157 -3.951975 -3.6000497 3.437816 -1.1939573 -1.5067492 -5.2021394 -2.1711397 1.6143556 -0.4756747 -3.2827272 -4.0090327 -1.9604005 -1.685938 0.06362575 -2.540481 -2.5975268 -1.9731562 -0.038257957 -8.340418 1.8544098 -1.5220492 -3.2008667 -3.0572808 -0.45064923 1.1389877 -2.794084 -4.090656 3.8460844 1.1385273 -0.9541944 -1.2396868 2.4965866 -2.3396585 -0.44591194 1.5002539 -1.4734905 5.1232514 -7.956264 -2.3611348 -1.5714729 2.412445 -1.8287082 -3.0501966 -0.13577807 -1.3956506 1.7665559 2.914701 0.5948126 -0.22080809 4.711588 -2.027178 -1.4257426 1.910869 -1.9458696 1.8460447 1.4018177 -2.5653079 1.8822762 0.122001104 -1.649081 1.4176692 1.7404011 -0.47626343 -3.8902943 0.9544663 0.7952197 -0.5255643 2.0724497 5.778616 -0.9528809 -1.5403328 1.4714313 -0.9935606 -4.1557407 -1.0424205 1.4578941 1.5538288 -3.1897767 -5.597001 0.82663435 2.8624196 -3.906367 -2.618041 -0.6817344 -1.0074891 3.268198 1.3345416 0.9300774 -1.1415913 4.8422227 -1.0825144 -3.1511414 -0.7773805 -3.4896197 1.4898385 -1.4450067 -2.0421138 -1.4448407 2.6374023 -1.730262 0.5041217 -1.4968693 1.8559105 -0.0878295 1.5447605 -3.0217698 0.10286155 -1.3774663 -0.7366309 0.25461245 0.26213655 2.2282133 -1.6885421 -1.1645702 -0.538283 1.2078793 -3.283114 -2.359334 -3.5051966 -3.045127 -0.89511514 -3.1756222 6.211096 -2.824661 -4.7717075 -1.6110884 0.013226934 -2.117467 1.1042513 1.6346157 -1.204837 5.484611 -2.0756714 -2.0332494 -0.8564503 4.271653 -0.11129102 1.5879128 1.2405965 5.184916 -3.8778472 4.038414 3.4988163 1.5141087 -3.0435247 3.0984058 -4.3222837 -1.2928603 -1.7514067 -0.6494476 -1.9867102 1.5860687 -2.25338 -0.3632892 0.48981488 -1.2960671 1.6344525 -3.3450437 3.0053132 -0.612639 -3.0267365 1.0942075 0.28780064 0.13298774 -1.592075 0.33973002 -2.0219152 -0.062141646 1.457587 0.28852585 -0.15802638 2.4126935 0.56591094 -3.6903722 -2.9369516 -3.1930845 1.832006 4.1505685 -1.687823 4.704641 1.8629017 -5.8830166 -1.2876056 4.1979322 2.9448812 4.4885354 3.193688 -3.7524168 -4.2329507 1.647979 1.8879839 4.7012224 -0.68575895 -3.2701793 5.313344 0.7754122 1.5550711 5.590594 -1.1184608 -0.058840223 -0.37925255 -3.13337 2.7313683 -4.9086294 -0.18706046 2.1498039 2.278929 5.4950714 1.5600985 -0.8884523 0.8881454 -2.1128109 -2.6734273 -0.80737936 1.5013957 0.5660306 5.189627 -1.5758243 1.4465674 6.5724764 5.640394 2.9024787 4.0328555 0.4572548 -1.2473469 0.7818953 -1.1498873 1.0468094 -0.5813415 1.6092446 0.5220094 -2.3591022 1.7086143 -0.9151301 8.384786 4.234019 0.04949602 -2.474804 -2.7359974 0.87717915 0.7140613 -4.3014164 -2.4179215 2.7128952 7.0782385 -1.6277449 -3.4085336 -2.1279628 -0.2818501 0.85870427 -1.9954677 -2.8298955 2.991267 3.4823973 -1.9236574
lt 3.8751853 1.9616606 -5.339152 3.2411442 2.4273276 -1.7991444 2.669351 2.5791962 6.5764937 2.1948695 0.96047324 2.2254415 2.5265708 -0.32864493 3.0648248 2.3223372 -0.25761688 1.5886385 -7.0509663 1.3837752 -7.193313 6.6216974 -1.1626196 3.020123 -4.0758424 -1.4646859 1.3282996 -2.847241 3.6789587 2.6747062 3.568311 0.5404604 1.5510314 2.685394 -0.4380027 0.5152514 -3.3234458 0.71371174 1.7057079 6.7319922 -0.19901058 6.0352535 -0.3272495 2.468629 1.9243515 0.77780753 2.6239903 -0.9094219 -0.91716117 -3.838118 0.39389476 2.6345015 -0.055121742 0.24423945 0.7959907 1.2125417 3.3580601 4.4066343 -1.2353582 0.776651 0.58992314 -2.923925 0.46831444 3.432953 2.760823 -3.6888762 4.3803062 0.4263508 1.526627 0.42355567 0.4775163 -0.31670514 2.6629462 -0.20047094 2.2573287 1.0564231 0.95844007 -2.0166872 1.5045997 -4.3857317 3.8504374 4.3391 -1.3694189 0.759831 0.8118115 2.7323022 -1.0481278 -0.42234355 -0.62183243 3.0473022 1.5794849 2.130912 -0.22504641 2.1390722 0.8599943 3.2577252 1.5014024 -6.337673 -3.6547146 0.5131894 0.41330576 2.2555876 2.6510212 -1.4136673 -3.31636 1.4661326 0.30084985 -1.4938337 -1.2439501 0.820359 -0.79723066 1.470546 -4.16854 -2.269167 3.647632 -0.7459671 -3.8069818 1.1660384 4.745892 -0.6015113 -1.9083108 -2.0926583 2.22702 1.3564233 -1.5264275 0.94451106 4.766496 -1.8481611 -0.92900926 2.348382 -0.9799505 1.0618912 3.1614082 -2.2438998 -1.622259 1.9863923 -0.24349606 -0.024862217 1.0611699 -0.7609063 0.3707195 -4.1184545 1.5358113 0.09237424 -4.7204576 -0.66755927 2.570661 -1.4085125 -4.928453 -0.72217 -0.90904987 1.4570246 0.37249723 0.23995377 -2.598022 0.04049052 0.8835822 -0.39451408 2.6956356 1.0245224 3.912631 1.7531666 -1.1716772 1.998411 3.969871 2.5251286 -3.0651338 0.011308368 3.0637507 -0.6603332 -1.3396896 0.83523744 -3.496257 -0.9702759 0.33415258 0.0051259873 -2.4241061 -2.151295 -2.022744 2.058614 1.9960951 -1.3817965 6.582843 1.9314561 -0.38155842 1.7089839 2.6389253 -2.1580698 1.7940055 -0.25688675 0.016818669 1.3068591 1.9005066 1.1812453 -1.8882353 1.1548092 -0.011647993 -0.95782375 0.77991635 -1.0287697 0.2616441 -6.266883 3.170754 3.6824725 -0.68771774 3.3419173 1.502993 -0.52531314 -2.6209767 1.7068387 2.304829 -0.7330352 2.9097192 0.5553938 0.12260688 -0.27867395 -0.43986076 -2.7247846 1.1099008 0.654938 1.396072 2.9133377 -4.6075525 -5.0819783 0.8405669 4.1334286 2.059401 2.417037 -0.620165 2.6980417 4.2354574 -1.3578064 0.27849343 3.107016 0.8127604 -4.875608 -6.3330097 -0.6424831 -3.1339757 -6.0169897 2.3065145 5.450133 -3.088391 0.016271504 1.8402103 -0.10155207 -0.59705806 -2.4940689 1.5135021 1.8744197 -0.015610636 -1.6523783 -3.5366495 5.2392826 -1.008284 5.0867844 3.7054355 5.3899865 3.906189 1.0756159 -1.5725327 0.5875893 -3.7659492 6.0354905 -3.0954778 -5.3017225 -1.2115501 -6.3751283 -3.3982584 -5.2054768 2.0793939 0.1792597 1.703203 1.1250482 4.7786064 1.5919615 5.283083 0.22688542 -1.7427866 -2.8081925 2.0774372 -0.9988626 0.40835878 0.44479352 -0.70611566 -2.02061 -3.529493 2.6994097 1.5221748 1.0256895 0.9413523 2.5485327 0.6735341 -0.075603224 3.8299901 2.8507447 3.9048452 -3.7025256 -7.4162164 4.6450715
sstore -6.7344213 -1.6266108 -0.9817296 -1.0533515 -3.389539 0.7762146 -4.705587 2.8568096 1.4572769 5.0615697 -2.0477638 1.0260557 -4.8332825 -2.4302328 -1.5121496 2.888251 1.7847949 -5.070261 -0.034999847 -0.597239 4.764296 -0.35818034 -7.2003484 3.9069347 2.7418542 0.28457955 -7.3776283 -1.9530069 -3.484708 -10.06639 0.26952899 -3.3169081 -9.243008 1.4275049 0.8323276 1.3082452 1.3735695 5.638626 -2.0355241 -4.1089168 -0.42534313 -0.9448693 -0.2640575 0.94101125 -1.0613863 -0.8790657 -0.8405428 0.26252466 -1.980786 0.7923252 -0.1135651 -2.6532161 1.8559262 1.6018544 -0.7047161 -6.936248 -4.0491705 4.8960123 2.0137768 -2.0233867 1.5282115 1.3810691 2.1126971 -8.819179 -1.4475193 -0.8234092 3.4165673 -5.38271 -0.9240872 -0.2235557 -0.18231894 0.8780606 1.7298054 0.14386514 -0.0352368 -2.415977 4.200556 0.25794527 0.68096465 2.1980603 -3.062869 -1.361096 -4.293171 1.350222 -0.4329194 3.970496 -1.455507 0.3666314 5.7849255 -1.0058569 -1.461933 2.6941195 0.8309281 -0.5985377 -2.3840334 -3.0987437 -0.9720809 0.7862666 1.9627961 2.1944184 -1.157547 -1.7982216 -0.7428322 2.1113822 -0.32904673 4.139693 0.45401692 3.3687363 -0.8817596 2.0575445 -3.1985176 -1.0358231 2.5578008 -0.2129638 -1.0043707 -1.3863149 1.9670589 -1.0199645 -0.82589644 2.305285 5.220628 -0.6506965 -0.58187616 -1.6354293 -0.79207045 -0.9673727 -3.4361537 -0.57114744 -1.3809278 -2.6281598 1.1848612 -1.7098465 -1.0199658 0.40811023 1.3936417 0.38950825 -2.1782153 2.4307065 -0.60640067 -3.7720256 -1.469924 -3.4736378 -2.8526285 0.41115093 -2.4575462 -2.187026 3.45892 -3.7180803 -1.6513261 -1.363771 -6.9689436 -1.6515645 0.52254546 1.0775214 -1.1420565 0.5504879 3.022169 1.0796682 -0.103410035 -3.7972791 0.59861994 -0.5407745 0.37594163 -2.6156425 -0.96927345 -1.9088382 -4.103525 0.44916952 -1.8764112 -2.041215 -1.9989104 1.9859289 -1.329648 -0.0275522 1.9771965 -0.3775843 2.2481632 -0.15197575 -1.7053338 -0.19789472 2.18449 -0.98114055 2.517792 0.20492455 2.508986 -1.54497 4.089523 1.437093 -1.1583741 -2.3204677 2.482219 -3.9855208 0.20571102 -2.1068223 0.3920069 -0.60842466 4.0164924 -1.6804569 -1.8240552 0.28366274 -0.28223532 -1.3111268 -3.1530964 3.584829 1.4582282 -0.95373034 -0.8253486 1.4082762 0.97233665 -1.7672646 -3.6091533 2.2237546 -0.0729693 -0.7508044 -1.9579892 -1.4178122 1.8155456 1.8696445 1.8381124 -3.6101236 1.4170645 3.573756 2.7030902 -2.0758462 2.983006 3.5393145 -4.799647 1.6853051 3.888963 -0.5830345 1.4065667 2.2476006 -0.64971626 -4.8810353 1.6803929 3.6323297 1.9976994 -3.3812919 -1.0404539 1.0433292 3.8236392 2.0348134 1.3166276 -2.8678243 -1.7299131 -2.7897356 -2.3977633 1.3508614 0.20970602 -2.402075 -0.13675098 -4.3317103 4.9200487 3.4143648 1.3393748 -1.5600245 1.4519101 3.839669 -0.93190515 1.9816049 0.78364056 4.313308 -2.390877 1.1800807 7.544863 2.459637 3.6434262 0.49193376 -3.9819837 -0.63723576 -3.772702 -0.27300426 -0.31284592 0.4456161 2.9695072 -0.008546701 0.025717223 3.0365286 0.28923208 5.1691203 1.0726463 3.7716036 -4.888212 -6.911351 -2.241519 -2.244841 3.3750532 -2.5438957 2.24751 2.2310987 -1.7358258 -1.3976338 -2.6014938 0.6892897 -0.16820148 1.6938987 -5.772035 1.3669792 2.8715298 3.1419935
mul 0.77676845 5.005744 -0.34893984 2.272612 4.381275 5.0472364 0.52258414 -1.4048721 5.8689065 6.1001415 0.35419685 0.070832714 2.0731823 -4.7643385 -0.5606614 -0.6419943 -7.9511156 4.353358 2.043219 0.369496 -1.8737215 -1.4446982 -4.0546503 6.4040675 5.799474 -4.0069766 -1.2257107 -2.1814797 6.6150517 -4.2544823 0.17418186 -2.140079 -5.050398 2.0828855 -1.5677848 3.7846217 -0.75741595 3.0565817 2.1790597 1.7068927 1.9035197 0.53429484 -1.4406148 -3.017651 0.2881675 5.496792 -0.24535786 1.5815172 -0.44992465 0.5091317 -0.43805552 0.10295313 -0.80253065 2.2906554 1.608956 -1.9043084 -0.30827564 0.29959768 -3.1440248 -5.984219 0.89176095 -4.1022253 -2.5206044 -1.5263947 -2.8173263 -2.0446596 4.348684 -1.0114983 0.5316665 -8.048092 5.0135527 2.306094 1.8265209 -2.8384404 2.9639351 -3.9529524 7.85798e-05 2.9099748 -0.97020125 -2.8916976 -1.1324123 4.3510737 1.1331915 2.1500568 0.27086198 -3.902606 2.8591108 3.8135161 -2.0723763 -3.2312207 -2.1829603 5.5842967 0.6727809 -1.0478855 -2.9064536 -3.1231291 -0.3526098 -5.0333257 3.4472263 -2.444756 -3.1342795 0.8156907 0.09449089 0.81244725 0.060356442 2.816178 3.2843454 -0.7896797 -1.7059678 0.26762468 -0.4796248 -4.357456 -0.11343804 -3.7963564 -1.2304116 -0.1050179 1.1442457 2.621826 2.5678184 1.8770447 -1.421201 0.27035615 0.8771609 2.7808216 1.2594857 -0.23776415 -0.14031528 -3.1135368 2.0388227 3.5292215 0.8250049 0.96867615 2.667124 1.8454106 1.16183 -2.962849 0.87681407 -0.77899987 6.4934206 -5.93042 -2.484695 -2.0825531 0.063477844 -0.8834367 -1.5799314 4.0702295 6.2192545 -0.64980954 -3.5829816 0.590216 0.26810592 -0.0067994506 2.5310643 6.5508943 -2.3961406 0.96882325 3.122106 -1.7510089 0.8320102 -1.3082689 1.1573509 1.9366965 -1.3803297 0.9578625 0.46003374 2.5105941 -4.9270034 0.11002878 6.675891 0.14306316 0.9719681 -0.82359767 -0.93713593 -0.29629603 1.6822481 -3.845038 0.7845218 0.7677889 -0.81274855 0.8525326 1.468335 0.6200347 3.874566 -0.13708402 1.8333843 0.82009846 2.7192152 2.3873644 -2.8518915 0.15797743 -3.5959735 0.03729813 -1.3136952 -0.26293153 -1.9730312 5.7485514 -0.24323513 -1.619313 -2.3134701 -2.3385966 -3.1852598 -8.405935 5.52085 4.9383516 -1.1729137 -0.4437591 2.1363294 -0.76256335 2.4466288 0.36326632 0.035484895 2.1476269 4.7165914 1.2879831 -0.1406074 0.558645 0.9830456 -0.33001918 -1.4885931 0.63655543 3.5448785 3.661006 0.5591411 -9.660863 0.9064542 4.850299 1.819184 -3.0368865 1.0220381 2.0193007 5.9655 0.09029704 -6.0243897 2.8905327 -3.5534475 -1.5352858 -2.635172 1.4122323 -4.212847 -5.1329446 -0.34979874 1.4918696 -3.2639103 2.2741802 -0.4520337 -0.30570647 -3.2425213 -4.056171 -2.5180497 5.203286 2.124391 -0.032767702 -4.3105106 0.13574405 1.0873932 0.49252546 -0.89299047 -2.6341896 -1.6131556 5.31777 0.053699628 -0.1600334 -7.492635 1.6321213 0.53296965 -0.53631496 1.5679528 -4.723545 -0.103028625 -1.0762901 2.8623679 0.65588355 -1.5526049 0.90153563 3.3052194 4.3202186 -1.1566966 3.2843459 -0.60738933 -2.018598 6.189999 -4.9339976 0.2759206 5.001793 0.17268854 -6.8865643 0.13223755 -5.1549335 2.1342256 -0.79569983 2.698513 -4.090791 -5.932695 -1.7930484 8.818353 2.5070856 2.7140214 -2.3361275 -3.225785 -4.286127
calldataload 7.1945214 5.121617 4.223955 -1.4328289 1.9947726 -2.775325 4.551287 -8.757635 -1.8195167 -4.21547 0.49098343 -5.4173856 0.87617964 1.7681644 3.2497582 -2.662578 -8.436706 2.0833108 0.9049352 -2.5403697 -3.1977527 -0.40214625 8.930664 -1.9037039 -1.9654855 -2.7446663 6.4464345 -3.272293 5.1238985 14.287281 -1.8876305 -3.5409358 7.3450484 -1.6891702 -0.57149744 -3.7648609 -6.2296863 -3.6169317 7.122093 3.5306885 2.8948033 1.7070222 1.0214578 -6.725824 1.3544886 0.6206374 4.2104177 -3.3633142 4.295987 1.9991057 1.281815 1.2817055 1.1531178 -5.8471746 1.1936668 7.43602 3.963953 -1.3428309 1.7635216 1.061733 0.6954823 2.673146 -3.959145 12.192704 -0.8468619 5.4752803 -5.9720917 9.158177 2.8643496 -2.5902586 -1.6195513 -5.0507474 0.45854625 2.5010233 1.6741135 4.6322308 -0.34798914 -0.7454081 -1.1841065 -1.0009067 0.551011 -1.109789 5.381905 -1.8830764 -3.464197 -2.8297822 0.18798503 1.7087979 -2.2826877 0.83133495 1.2249119 -3.3065932 -0.07937609 2.4746993 0.26760715 1.4739693 -0.32843322 -1.4457587 -0.6300458 0.6203457 -0.085961156 -0.56688666 -0.7288365 -0.058182925 -5.339369 -4.4157457 1.8502779 -2.8248599 0.5816645 -4.7060847 2.7310011 0.11525252 -1.7815917 0.77523595 -1.6890656 3.1946917 -1.0821494 -1.4774812 0.36047924 -0.94534737 -0.801099 -0.5166508 -0.007284583 -0.9011967 1.5519031 0.56255656 1.5100735 0.85459304 2.5268648 -1.3451198 -1.2794797 0.110214114 3.23283 -2.90217 -4.9356647 -0.9100514 2.6010523 -1.5818774 3.01306 -0.06864162 1.1539177 -2.010747 2.7513978 -0.46602845 1.5468059 -3.1310902 -4.0411706 4.02499 -1.2190262 0.03405022 6.842427 1.068504 1.0271834 -1.5871487 -2.7396638 0.95648754 -2.3701317 -2.7956793 1.9819388 1.5100834 1.4940232 1.3965056 -1.4085064 3.2302604 6.106038 1.6053399 6.226439 -3.2723856 1.2595766 4.6920786 4.2515335 -2.5722685 1.01125 -1.1144375 -1.1834592 4.901288 -3.2796023 -1.3800931 -3.6491122 2.8204508 -1.7830825 -0.8682363 0.2815399 5.648281 0.8458798 -0.50082165 -0.86172795 -0.35332665 -0.48969764 1.4609706 3.663279 2.1188338 0.7314996 2.4511352 -2.0108511 -0.05027419 -0.9171552 -1.0615039 1.4954488 -0.66307646 3.0881777 -2.5437882 3.6757798 -3.6113794 -0.44765547 0.5502247 4.562919 -0.89654654 0.17107427 0.4316352 5.576445 -4.2180448 -0.8099252 1.2765887 1.5598617 -3.2417874 -1.9312708 -4.1868167 0.5864852 -3.9244585 1.6076218 -2.3722217 1.6086439 -0.9690381 -1.5230266 0.4630745 2.039839 -4.606667 -2.5966551 0.4199949 -3.7468748 0.80783767 -3.1336715 4.2168107 -5.5562844 -0.29717818 -0.29596657 8.38098 0.06974365 -3.3117936 -1.1946013 -2.1313684 -1.1435404 1.0669907 -3.087908 3.9974606 -1.6422458 -1.6394032 -0.8343375 -0.18591052 0.7171465 -1.1557118 -3.279409 -1.977158 -2.1838496 2.9796576 -5.684628 -1.2816538 3.98191 -0.21650037 -6.4867034 -1.429901 0.34639004 1.1833583 -7.028997 0.87703156 -3.3583474 2.5747898 5.6952214 4.315624 1.8960911 -0.19398463 3.2528143 -0.41807765 -0.87204057 2.8174744 1.5952566 -0.92573655 2.1143975 -3.7772634 -1.6926327 -3.5183523 6.234622 8.272589 1.7756152 1.083803 1.3362702 0.17745434 0.5531236 -0.7878826 3.0664098 3.1495543 2.9615786 -2.293851 0.11923436 -0.3290885 8.57205 -0.22318493 -4.6063576 -5.505537
gt 3.5657077 4.3931036 0.11680476 4.1940966 9.591745 1.7713748 3.3147597 -3.8986976 2.7552018 -1.7352464 -3.984919 -2.8716857 4.0265756 6.1646442 0.11796756 -4.26241 -1.1198373 1.265243 -2.6300435 1.356594 -1.752548 6.254964 2.830958 1.6000754 2.6341712 -6.092634 -5.471882 0.05164826 0.40426412 -1.9975767 -3.8551304 8.706696 1.9782472 1.0275855 0.6760384 4.47835 1.5278052 -0.30115277 -0.4026721 5.504982 4.8490634 2.5505385 -2.0056024 0.31839353 1.4633157 2.4356992 4.335254 -1.9759983 -1.8962802 -2.552599 0.6959016 -0.8875001 -1.7563877 0.715052 -2.5573478 1.5394052 0.14568534 2.7337472 0.29081 0.21325174 -1.8130823 -0.9330738 1.314971 3.424886 -0.6281156 -3.926527 6.511642 -1.7741363 -1.0971849 -1.3747932 -0.025931498 0.38878217 -0.5297479 -3.98216 0.864528 0.10946439 -3.1041758 0.40215987 2.542404 -3.8042145 0.33843932 -3.3302472 3.7701933 1.4369127 1.9812126 0.10259875 1.7731737 -2.5936418 2.4603329 -2.5297406 -2.57653 2.311129 3.3426313 1.0739856 -4.436355 -3.453305 -2.2897367 -2.901035 1.4185389 0.7942235 -6.2495017 1.2028408 2.2800465 1.8827679 -3.2537029 2.6278005 2.0759609 -1.9530827 2.278889 1.8216236 0.5171714 -2.539253 -2.5464346 -2.6210532 4.124521 3.4665375 -0.07690818 -2.062021 2.922969 -1.7472905 -0.31482095 1.9381874 1.2514969 3.3314388 0.5573462 -1.78837 -0.082064696 -1.5193149 -0.8112826 2.4513335 1.6406629 1.2772764 0.0598028 -0.41946822 0.4829406 2.5831802 0.7729292 0.6327753 3.073747 -5.2662215 0.0269138 -5.259424 -0.07151829 1.9294633 1.2937547 2.2264562 6.508763 -2.6528354 -1.665906 1.2626184 -1.0207756 -1.0388114 2.6713748 2.6855514 -0.42494884 -0.5805751 1.625505 -0.7211717 2.1637936 -3.9730163 3.9360812 1.4425588 1.1785741 2.139328 0.22993556 -0.9477564 -2.9648347 4.011309 3.701538 -0.18142605 -0.14412098 0.76906157 -0.9050769 -2.6046777 -0.16339189 1.4296377 1.9009596 -1.495986 -3.3625147 0.67443484 1.7027119 -0.18994044 3.9730203 -0.49959528 3.7358375 1.5600914 0.6179139 -1.698614 -1.0035377 -2.678496 1.9425762 1.6283983 0.18247493 -1.5601144 -2.3082771 4.601164 3.404956 -0.6472514 -2.941776 -1.4005706 -0.4235345 -6.2866697 1.2599221 1.9859669 4.078883 -0.96068865 1.4422271 0.9394319 -0.18465923 1.402862 -2.4140117 2.3063934 2.4356787 -2.571205 -4.7111983 -1.1421809 -0.8287618 2.410568 1.4146869 1.0065273 0.07545141 5.9827795 -3.076645 -8.19099 3.364516 3.00222 -1.973635 -0.0069084456 0.61364573 0.88556874 -4.6383624 0.45791265 1.6066273 -0.78226584 -0.03475057 -2.332788 -3.3764973 -3.72436 -2.3769894 -3.7693832 1.751555 2.9437156 0.08752022 -0.6284694 2.8567135 -3.4891038 -0.6899273 -3.4974058 2.6323032 -1.9659702 1.1986934 -6.1554537 -5.80425 9.014818 -1.1178119 -1.9051516 -0.73025936 -4.111802 -1.6180466 -0.03837268 3.0099185 -0.30714506 -2.0121567 2.8002543 -1.770528 -3.09664 -2.0117714 -2.444438 0.140629 2.5731318 0.9944731 -0.0014202682 3.8278928 2.5160136 3.8112113 0.6144973 2.348633 1.4609008 -0.36305502 -3.1413324 -2.104713 3.1217144 -2.0181072 -0.27840084 1.5763991 -1.4701064 2.9847162 2.4012632 3.884503 -1.3523383 0.37312612 5.3625937 -4.3799767 2.2286475 3.378135 5.1720686 3.490981 -0.6020491 -8.215993 6.6100664
callvalue 6.1095123 0.55913085 4.292949 1.7414528 -2.0142083 -7.387018 -0.8288601 0.33797115 -1.6462116 -2.849715 -0.9940721 -2.846647 -2.413561 4.6914244 3.6557288 -2.3748238 -0.26305598 -3.641471 0.9849481 -6.705565 -1.134843 0.2882844 9.044993 0.34942138 -1.0936037 -2.7060254 1.2743386 3.3778121 6.9926744 10.873865 2.653421 2.1425781 3.8705842 3.1503296 -0.6417015 5.388778 -3.1528454 -2.9234176 -3.4410083 6.936346 -2.54032 3.815543 2.4862893 2.9951315 -6.1052775 -3.6066594 -2.1405394 -1.0282549 3.7495735 -3.3235493 -1.8882955 2.8246775 -2.9974551 -0.32429764 -0.4466981 4.143576 4.452763 0.58783275 1.9749795 2.6306124 -1.6247305 4.4353027 5.981536 6.72935 5.229733 6.6567264 4.604709 4.2995024 -3.063708 5.22885 -0.9486795 -1.6745759 7.664421 3.6847537 4.490487 0.3977791 -1.6223927 -6.22338 3.073087 1.361857 5.972679 -4.481718 -0.0599546 -4.6826177 -0.80341077 8.041173 0.19380435 2.4233449 3.4118571 3.7692428 3.9093208 -4.6232166 -2.2027104 3.3363473 4.451726 1.3586943 -0.21330878 1.5465014 -2.658757 4.6729774 3.1931982 -1.2967026 3.409837 -0.15550514 -3.94407 0.9689564 -1.7676778 -1.3431394 -1.4776312 -3.5318437 0.9210904 2.7819798 0.6987758 -2.0384183 2.2954228 -1.7720132 -6.1799884 -1.9436959 6.88661 3.999134 1.9890895 -0.86203533 5.4573884 -0.7080034 -3.2457418 2.2121785 2.8482678 0.9546523 -1.2958293 2.7675378 0.23650205 1.9005158 2.3673747 1.055134 0.15953705 4.626333 -0.4115279 2.7910018 1.6192282 1.0314766 -1.1692172 0.842823 3.386438 0.49716714 -3.0680478 -3.0340374 -1.230061 2.6832285 -4.637242 1.7624199 3.602679 3.0573673 2.270027 -3.0206134 -1.9697325 -0.2405339 1.545587 -4.0266337 -0.26266018 -0.8480899 0.9245562 -1.4474893 2.2380488 0.6450642 1.5479012 3.6415362 -0.0018121429 1.205664 0.6331977 0.74067134 1.8049486 2.1312356 3.0238454 -1.0338037 2.600067 -1.3664957 -1.2220639 1.5359253 1.5196898 -1.6685486 1.3055755 -1.8267325 2.4007208 4.6950903 -3.6105487 -0.93379486 2.8345637 0.7723318 0.8912823 -1.453067 1.7409341 -1.0126209 2.376518 4.1678853 2.169343 -2.5403762 -1.9466312 2.0050075 5.29736 3.880575 -1.0286355 -2.2989984 5.626571 0.8941088 2.4929307 3.9266045 4.4143524 3.949581 -1.2851233 4.2834053 1.4975315 -3.0779526 -6.599394 1.9214631 2.69897 -0.6697068 -3.9167717 -3.3357244 2.955643 -1.4505832 -4.1857285 -1.2461568 -3.9632196 -4.076655 2.0879493 -4.779273 -5.1549435 3.963035 -1.2387571 3.2925797 -0.30319634 -0.66458696 3.6232958 5.046422 1.490045 -0.4902807 -3.795902 2.3429933 4.63289 4.8924017 -1.4483482 1.2644634 1.8627713 0.43774644 0.7811131 1.0723189 -3.003501 1.0573679 4.0232563 -3.1995556 -1.8876064 -0.3661806 4.825174 2.8561575 -5.0094824 2.710785 -1.816991 3.0394895 2.8842921 -3.336943 -5.4919295 -2.7167675 4.8245173 0.8735804 -9.479691 -7.1048136 -1.6380514 -0.22535992 -4.621245 0.09915924 -1.6246145 -0.08738244 6.5915203 4.463922 -3.0820196 -1.3200507 3.3538985 -4.948897 0.977997 -0.5312264 -6.906682 4.2247367 -2.4104204 0.39189705 0.9295109 7.4774404 -1.1716738 8.709228 0.6610194 -1.0035322 0.8605332 0.3337826 1.3475693 5.333527 -5.3340607 2.448536 -0.010355262 -1.9509925 -1.5425928 2.8248668
div 5.0661597 -3.4761672 -1.7448069 2.5094464 -3.3112874 -0.63873315 -2.5394692 5.7696157 3.6731946 2.3313196 2.997177 0.887885 3.9727745 -2.1143608 1.904649 4.4695525 1.3311441 -1.9728336 -3.849855 -0.9643144 3.458357 1.387191 -4.205504 4.6967983 5.706193 -0.61392385 -5.6791863 4.997167 3.299416 -6.719741 -0.07042878 2.4022672 2.4584277 -0.19555974 -1.4695828 -2.8092906 -3.7679257 3.1702683 0.6842318 -3.1927092 -2.94156 3.327621 0.98256075 3.291481 -2.2529533 -2.1836426 2.597796 0.4725297 0.36426163 -4.3818727 -4.384973 1.1078182 1.6820048 0.3315091 2.7956867 -0.4722172 -0.018563075 -1.1279048 -1.6451008 -5.4455543 -2.118504 -1.6776774 -2.4178493 6.3381433 2.8636456 3.4410033 1.0585625 -1.9506286 -0.4086902 -2.6045303 -0.2973323 -0.47688505 -0.7975567 -0.87920034 2.3076813 2.8182921 1.5427532 1.2400236 -1.2086667 0.81073606 -2.7499762 1.7508374 -1.2213125 1.0949967 1.7159734 -0.9528406 0.89878744 -0.5928396 -0.96981746 1.7773863 -0.5815369 3.2621129 -1.7004114 -1.4213854 3.3316474 -0.8115533 -1.941457 -1.0749433 2.435807 -2.3454554 0.15601882 -0.9272126 4.2475796 1.2413548 1.8331316 -1.4418887 1.2850653 1.1267194 0.91840976 1.2501853 -1.2243935 0.56254923 -6.5850577 -0.57068765 3.0313902 -1.1583622 0.44118127 3.3842196 -6.2483873 -4.253221 -2.9100952 0.97009844 -1.3381168 -2.0959632 -1.0056533 3.4190233 -0.043117173 -0.6332069 -4.2108397 2.7923517 0.9729931 1.3406111 -1.2207621 2.8828852 3.3153393 0.65223026 -0.5445365 -1.3305337 1.3391148 -0.72980106 -0.88985026 0.18914975 -0.36834845 -0.071750276 0.86199504 2.7008111 0.8422271 4.8656187 -4.9128537 0.962547 -0.11640974 -3.3157723 0.48120686 0.80028945 4.8851933 2.2485206 0.27387053 -4.6116858 -0.0048789503 0.5979803 5.129294 -4.801445 -1.8116735 -1.0078484 -1.7403336 5.2270756 -3.6837637 6.5694523 6.245513 -2.0437896 1.3267766 2.7226205 -1.7754602 2.2666225 1.0518395 -1.9191988 3.5446935 -2.5289335 0.6378505 -2.1582463 -0.33992794 0.7116186 0.33968347 1.8148918 -1.4795948 1.6996394 1.9568695 1.3476591 -0.2820287 -1.0913838 -1.3899957 -1.6477014 -0.96036553 -4.337396 -0.3576983 -0.60987365 -0.8380386 -1.2126068 3.5226936 -2.3991892 -2.0019798 -5.0024056 5.9026785 2.7560687 -2.4817648 0.6707267 4.86804 3.5127804 0.67003006 2.5975847 2.0674386 -0.43353814 2.3658338 4.453775 3.4275331 -1.9309334 -0.031015327 -1.2720389 -2.475634 1.4534137 -1.4786104 0.9139823 -2.9785156 -2.1718512 5.727941 1.5203503 -1.6296079 1.8832209 0.3927601 2.4422107 6.168944 -4.4202185 -5.7793584 -1.1869032 0.86725944 0.5597733 -0.8027549 1.1519638 -3.8024116 -2.710043 3.8615866 4.1439576 2.3692915 5.256808 1.2022617 -2.5413468 -4.750147 -0.85911554 -0.957124 7.2869987 1.8608392 0.012892197 -0.40920952 3.7453377 -2.6707268 2.538731 -1.3872775 -4.155472 2.688397 1.7557294 -0.40390164 2.204995 -3.814646 2.1567523 4.781914 -1.6979636 0.071625344 -1.4836808 -3.9701514 -0.11208635 -0.7253475 3.0767305 -0.10480409 2.8145466 1.1520711 5.9933963 -0.8930055 2.7050958 0.11316658 2.2770367 2.7031791 0.7259105 2.6562104 0.24266934 3.203328 -2.6804981 -4.6097007 -1.4266791 7.320173 5.3079724 -4.4880333 2.7607658 -1.9019933 1.3756362 2.8540628 2.2720807 0.25755653 -2.8636112 -4.9327474 -0.7825688
exp 1.5637505 2.0174088 -2.3277907 3.2504764 -7.1815896 4.0065656 2.6585681 -1.6308217 2.1490412 -3.4822254 -2.6510894 7.0129957 2.7435012 -7.370925 -1.0751104 5.8976097 2.4167094 0.44572905 0.77976906 0.7317567 2.9877002 -5.2505484 2.455209 7.547123 0.8267347 -4.4052815 -6.1448736 -2.0319242 10.117738 -3.9582767 0.32839355 -6.5707936 -2.2991295 -3.1712894 -2.0346143 6.2359514 -3.9407253 4.653849 -1.4654168 0.9607276 -8.04161 1.1556561 0.44026616 0.5993378 -3.7202034 2.0989444 -2.7147813 2.701438 0.7968053 0.63252825 -4.8556895 -0.889922 0.9004389 1.3526006 -0.59604996 0.019684741 -0.54723054 -3.956557 -0.5784734 -9.086099 -2.5464175 0.21918812 -2.8996642 -4.327191 0.40574598 2.538918 -2.8564634 -3.0084488 -0.7518973 -6.4481244 1.5216581 1.2432445 0.52203196 -4.6092916 3.1729872 -0.8194726 -2.1180544 2.0908904 -1.7114505 4.715833 -4.888692 -1.6094911 0.90424216 -1.0885596 1.7447191 3.3650355 -2.1847343 3.0963159 4.96015 0.14392959 -0.1608281 3.772671 -2.953667 0.9199368 0.47324505 -1.7816072 1.3518914 2.0302324 5.4039164 -3.4111576 -5.6564507 -1.5169368 4.5129843 -2.5639868 3.8289895 4.125576 1.0934744 2.0831625 3.3171778 2.1464074 -0.41269484 1.2303675 -0.5905184 -3.420344 -2.1646507 0.025720485 0.7625045 1.6799362 1.4631963 -0.7596028 -3.2377858 6.974523 3.737156 1.5495683 0.61025625 3.007316 0.23619124 -0.7214249 0.42947733 -1.3499684 1.962697 2.9557238 2.6403272 4.212914 3.2013996 -3.3566804 1.997437 -0.4469193 2.0713477 -2.0877147 -3.6653073 -2.7630556 -0.85444874 -1.218903 -0.69361097 3.9817932 3.2544816 2.601915 -4.8843627 3.3490958 0.2910139 -3.1605392 3.8070843 0.6278814 0.6738518 3.6556582 2.1760464 -1.3662038 -1.5816288 -1.3740449 -0.018887911 0.09851674 0.54764897 -10.115409 -3.2885032 0.9390643 -0.85798174 -1.4081491 4.436974 0.9258735 2.6734006 0.85846776 2.4179983 0.8432466 2.6061885 -2.029815 4.4564414 0.8654064 3.7213752 -4.841981 0.4470449 0.8328012 0.37224495 -0.22664377 -1.6257129 -0.53591496 3.3590555 4.777948 -3.2691495 1.1507285 -1.933063 -6.0931544 -7.242751 -3.0834913 5.912695 2.6822858 -1.675333 -0.6521741 -1.3203393 2.7368567 -0.8645135 -5.6022716 4.7513022 3.5447583 -4.001689 0.50453883 2.2157066 2.2148714 3.827332 0.9256078 -0.4807586 0.83267933 0.5897195 3.9810283 2.144069 5.546513 -0.23755577 0.17927627 -3.565714 3.6326132 4.202673 1.8908886 2.5153449 -5.520787 -1.703597 -2.9778576 -1.2258675 3.0035603 0.964323 -1.0354929 4.4746437 1.4420313 -7.030881 4.379432 -2.7483473 7.109312 2.283321 3.5016425 -0.007650036 1.558045 0.87385195 3.9231155 -4.18898 1.1510092 -3.0422528 -1.17697 -8.155189 0.11139918 1.4899697 -0.9221726 4.046269 4.646741 6.746915 2.0783513 0.42957643 0.13999893 2.5081177 -1.7562977 3.0883532 4.438399 0.23326017 -2.0020876 -5.1121674 -0.53192323 3.2447045 -2.231701 0.87686193 -1.71895 -5.904264 -1.3286122 -0.2464745 -2.186907 1.2186267 -1.3214533 -4.5650725 2.5951443 -7.976978 5.4532914 2.5224643 -2.8552234 1.6606889 -0.19470991 -2.0370164 -3.336455 -1.0268866 -4.524983 -3.0023663 0.11840277 3.2762332 -1.4056344 4.4919353 -9.620084 -2.1787124 4.909018 2.6309524 6.403603 -1.0624483 -3.6805072 2.8696187 -5.8610587
not -4.573284 -2.5316317 2.9218438 -11.334003 4.239079 -0.61681336 -4.6116433 0.39110216 -0.18841864 8.513936 -2.014692 -7.967512 -7.668317 -2.4040802 0.10285071 -1.3262395 0.8000131 -1.2625209 8.045999 2.63686 4.787652 0.2782778 -6.4405656 1.834836 5.517987 -6.72633 -9.014193 4.919005 -6.4603376 -8.40837 -0.35354224 -1.6159425 -5.501614 2.5217001 -2.3364356 -1.580047 -1.1151149 5.3887954 3.2342288 1.897534 4.3710403 -2.9974074 -0.39709392 -3.3941915 3.2296276 1.8839846 -0.070447445 -2.8221447 -0.43906105 0.08655731 3.0280335 -1.9864135 0.24526617 -2.5953906 3.320565 -2.1357841 -4.466757 3.0758948 2.5291579 -4.515381 5.2560067 0.8326874 -3.7195399 -0.36934122 -3.9720566 1.9734871 3.4816496 -2.0052202 4.623579 -1.1447488 0.5341733 0.3702731 -1.0478206 -3.7759573 4.775487 -3.4729528 4.2414813 1.7668378 -0.08721893 1.1998211 0.16557518 -3.9062445 -0.6150646 3.9591475 1.3718315 -0.9399081 -2.304159 1.3119707 4.043042 1.0944929 -1.5466073 0.771038 -1.6367937 -1.3675425 -7.0536785 1.3594431 3.4879649 1.3305609 -2.341862 -1.2751842 -0.91625565 0.9342111 -1.9036667 2.9174232 -5.331397 2.8481276 1.455818 0.37152338 -2.6014965 0.83318895 -5.0986423 -4.3474846 4.1855597 -3.7968426 1.1273665 -2.3178318 3.854326 -0.21835719 -2.1191237 3.047382 5.599321 -0.44427148 -1.6302549 2.5540638 -1.9976287 -2.4179933 -0.37074324 0.27108938 -1.0733889 -2.3450804 -2.863283 -2.444024 -1.6403764 -0.2826708 -5.6567364 2.7410595 -2.2504659 -2.3282292 4.5020046 -4.9863787 -0.19452067 -2.5211973 0.6587245 -1.7915426 0.3133923 -1.3431697 2.0245173 -2.9775577 0.17308345 -0.83273304 -2.9130394 -0.01879671 -1.8749704 1.0465618 -1.5155596 -0.4542748 2.4559796 -0.3661846 4.0195565 -2.2978609 -3.5149863 0.24999008 2.5464296 2.3076162 -0.5588094 -0.96069735 1.0077502 -6.0523677 -1.763976 4.8411627 1.5698086 -3.1634033 1.912159 -3.2874918 -1.5776337 3.8290496 -0.81199116 -2.1686287 -2.1072161 2.134675 -2.7937415 -0.3924314 -0.3284295 -0.56814456 1.7104962 0.17146021 1.6575414 -0.43882695 1.4708707 0.32624692 1.8767189 0.5869871 1.6583107 0.24388885 -0.078007415 -1.1949104 -2.4372823 0.18017031 -0.4410333 1.2075284 -0.809647 -5.8708916 -1.138096 0.43075794 -0.05861253 -2.6796956 -1.2857643 2.352493 0.8359984 -1.6966887 -1.512368 -0.6902924 -0.8090168 -1.923844 -2.2357929 0.14903566 2.500529 1.4640788 1.297017 -4.9318423 2.4358983 -0.22831541 -0.23310953 -1.720357 2.1750693 1.4950365 -2.1555927 -0.25667465 0.9797591 -1.4919093 -1.3418415 2.0763352 -6.2363896 -5.5878053 -3.527337 2.7826486 0.30013767 1.7005454 -2.3655493 -1.9967393 1.0989597 0.3772548 -2.8559997 -2.8663251 -6.2942295 -0.11459375 -4.0841665 0.7881572 -2.3998673 -2.1210144 1.0979788 -3.2275355 0.86656594 -2.1756597 1.0255632 0.037828676 0.72488856 -1.7766353 0.42906177 0.7793273 -2.7297456 -0.65965974 -0.94340575 -0.1595459 2.9577444 1.0855023 -1.4092244 -0.70690465 0.16974053 3.588918 -0.8000231 1.0829928 1.01802 -1.6708404 0.27394077 0.5054686 1.0985266 -2.1485713 0.21986759 3.6199558 0.92853874 -2.2525678 5.4237947 -1.8178746 -5.709829 -4.483334 2.0903006 -2.1839378 0.7553355 3.410218 2.0241058 -1.2492083 4.2553277 -4.001264 -0.31669345 -2.463303 3.699175 -1.0689055 6.695739 -2.2130053
returndatasize 1.0151529 -4.6384363 -2.0911055 3.20475 -2.4039001 9.671887 -0.0017078688 -2.5973947 -4.749955 -5.5586877 6.6949987 -0.5260863 3.854545 9.73969 5.447497 -3.2593777 -1.4387602 -2.0469007 5.2877746 2.268985 -0.113337085 -1.1604162 -0.62711304 0.3212455 9.073438 9.121226 7.0925527 1.1836472 -3.6342826 -3.7771635 -5.1951375 2.3908546 5.392215 0.6799946 -0.4358256 0.5529889 -8.648911 -6.3585024 -7.584494 -1.3318808 2.2401278 2.7494917 -3.8982832 2.1919875 0.23794597 4.3562756 0.782055 1.5048703 2.098462 3.3412895 -3.7471766 4.113099 0.52632713 5.5936575 -7.574813 4.7515674 2.582052 -4.158797 -4.160583 3.234146 -5.593415 4.7423387 7.7232637 -7.3925953 4.3276043 -6.545916 -5.926556 -5.2762303 -6.760933 -5.9172034 3.017366 7.70201 -3.3885226 6.0721393 -8.588028 3.6371057 -2.4908524 3.4502919 -0.7084516 2.7675245 -2.402349 2.3498836 3.674568 -3.3015685 -0.48133823 -3.511038 4.892819 4.110664 -6.748883 -3.2799716 2.8536067 0.50404215 -3.7097685 -3.448657 -3.1050265 -0.8523165 3.7087886 1.8091011 0.5506774 -0.57829046 -6.981182 -0.9279833 1.7926579 -8.335113 4.3029943 -8.475947 1.3076864 -0.055985704 4.0192313 2.4000318 -2.3427112 4.3485184 -0.9279626 4.3680916 -0.42474884 -0.21220194 -1.5018066 5.934101 3.4339473 -1.2755966 -3.4039767 -1.5523823 4.832232 4.9994664 4.3364506 -5.480115 4.6967444 1.9699901 -3.1439579 -0.42687553 -1.708239 4.857752 -1.6320559 -2.664651 3.8271582 -0.3730348 2.3527987 -4.4693456 -3.5363743 -1.7081988 -2.3549798 1.7149978 -0.50177264 -3.854319 0.90502536 4.8936033 2.677618 3.1360347 -2.3889735 3.6451771 -1.2126325 -0.006516853 1.6301224 1.333688 -0.8760951 3.8594444 -4.0425215 6.836551 -0.9332303 0.4733666 1.0669287 4.456307 1.6666628 -3.4655929 0.45086944 -2.6169739 -0.31427065 3.5025222 1.3178065 -3.2539513 -4.3472075 -1.4942973 -3.069248 0.45773134 -3.1384242 -7.054545 -5.396484 4.7920613 2.3684218 1.0179852 -2.2899203 1.4884425 -4.6170845 -0.99626315 -2.6776938 6.831701 -6.8131986 3.5605676 -5.031639 9.1106205 -3.9384756 3.9293401 5.5602026 1.9581352 -0.42698246 -3.2898886 -3.5389264 3.7891514 -2.085473 0.7794467 -0.24202013 4.1439834 2.8094687 -0.58798087 3.0766656 1.2768677 2.9090335 -3.7923906 -1.6399074 1.699404 -4.0918255 4.9298835 3.29619 1.1305583 7.430531 0.15942805 -5.6644588 0.19624598 -3.8006163 6.3954163 0.7362449 -2.7833471 0.27378237 -0.50762445 -6.5099406 3.2333558 5.006884 1.9483472 4.673716 5.317645 -2.442438 0.76947933 2.4909215 1.6958413 5.652211 -0.11939163 -3.1471934 -0.10361743 2.930456 -5.8604417 -2.4508245 4.741729 -3.5287251 1.7330189 5.0949697 -3.1730366 0.88214344 1.4981393 2.2127588 4.631919 -3.2992444 2.0524497 2.215988 -2.7442915 -0.91550106 -1.185954 -2.3628128 8.665215 -1.2984087 5.219943 2.672052 -0.28663406 -5.8597636 -6.4223213 1.3013781 -4.6396775 -0.908721 2.5071914 6.064255 -2.3206828 -5.9131517 -5.3819046 -3.7144425 -4.8717 -1.5309451 -0.60390145 -10.460697 5.87322 6.2640986 -5.5621696 -6.3399916 5.072851 -7.037183 -2.3501453 5.6111345 2.8023107 -6.0658755 -5.896322 -1.7088158 -13.583932 -4.9994664 4.4379764 -0.054625917 2.1830876 7.524635 2.4790864 -2.476064 -2.529394 -8.561305 0.76432306
calldatasize 4.6394043 0.9786371 3.720168 0.51012117 -0.013205587 -7.073415 1.1730888 0.037896235 2.5911722 -4.4631357 0.6882702 1.267827 -0.611485 4.354967 4.0081835 -3.4190767 -4.3437576 -1.2518313 8.296255 -5.9695697 -2.0149555 -4.248233 7.7623296 -4.0212603 -3.5831761 3.8008316 5.95449 -0.7620276 6.283124 14.953999 -0.42533422 -5.965237 0.8873079 1.7769728 3.3627272 1.9053203 -1.5878134 -3.3841076 3.1467128 -0.8088064 0.8720824 3.7099068 1.2500951 1.1872544 -7.8914013 2.1278858 -2.3223414 -0.45563623 3.0589721 1.1451132 1.8171663 -3.126245 -1.6665487 0.20297705 3.1865067 1.2767907 3.7444692 -2.0388637 0.67625767 1.2541423 0.6157544 -0.18524107 4.7054634 3.4888792 3.5911973 4.88672 -0.488387 4.6512 -1.2559907 2.172137 1.4301058 -1.83295 6.920708 4.4031043 0.28583246 5.407612 -2.074992 -1.0469959 0.72011775 -1.9543488 2.4865308 2.0733445 4.267549 -1.660438 -6.747415 -0.4955893 2.080789 4.283596 2.050972 0.490502 0.90337193 -2.9460876 4.527127 2.8625553 2.151067 1.6571509 -0.646453 -0.4977206 -3.2192461 1.2427742 5.267041 -1.3571687 -0.7861966 -0.20682944 0.7065799 -2.8035684 -2.339327 -0.20854957 -0.8789783 -5.8226533 2.5726256 0.6698329 -0.68478876 3.2019875 -1.7906353 2.4326615 -5.8533955 0.37201488 4.3595304 1.4969736 -0.6217415 -1.2984064 1.6296967 -2.8093913 -0.32865837 2.5208433 0.43341747 1.8432652 1.2482219 2.7752595 -1.2344146 3.2679586 -0.566043 1.1337044 -0.29405883 0.39614832 2.864967 4.5619144 0.5754878 2.2430856 -0.86985844 1.960946 2.4209187 1.0436791 -1.6203074 -0.70981187 -2.4953659 2.6278424 -1.0242759 -0.103575855 4.216805 1.0488462 2.7179182 -0.10669211 -0.95887786 -0.60829806 -0.77589226 -2.3767178 0.22395661 1.0075753 1.998489 -0.7108213 2.0449138 6.0573254 3.0855286 4.6922874 3.7795057 -1.1011901 0.68338096 0.9745606 2.6860194 -0.37889814 0.14908813 0.8825148 3.6874025 0.33558854 -0.73512286 -0.2910762 1.0089864 -0.28431714 2.119918 -1.1189036 1.3335296 3.4891307 -1.8550662 0.08342016 -0.89215446 -1.9098833 -0.48493353 -1.5346378 1.9902825 3.2777343 1.5823191 3.7471128 -1.4712425 -1.0295874 -2.7407181 1.3466465 -0.72195435 -1.4790478 2.6819947 1.8214458 2.1764214 -4.3467393 0.026610807 1.8670839 0.6878407 -2.5982473 -1.063473 0.40278435 4.2822413 -1.9067061 -2.1107697 1.9559904 0.107032344 0.27856642 -1.7724258 -1.0180331 7.8635583 -1.2212427 -3.114965 -2.5470736 -1.269293 3.0399797 1.4516553 -5.0319295 -2.0711615 1.3231874 -1.3796046 1.9759681 -0.7058065 -0.09698786 8.638961 4.87947 1.0310442 -3.550042 -0.82268703 -1.4162961 2.2753994 2.9732568 -2.084097 -4.2613196 -3.3796918 0.930621 -0.062999554 3.643441 7.8867702 -3.0263112 1.4225389 0.24088109 -2.8671815 -1.3446652 -4.17045 -2.7749605 -1.0087497 0.697941 -5.352521 2.6409218 0.1836762 -3.5100472 -6.3656626 -4.4183726 6.8804917 1.8279823 -10.111169 -1.7116722 -1.0875779 -0.58818996 0.026912756 0.5779237 1.6799252 1.3368543 2.4312537 4.801145 -1.9707104 -0.42192918 7.0828447 -6.875238 -1.7458878 -2.089513 -2.2587273 3.577461 6.2406125 1.7382854 3.4296656 3.6942174 6.9528728 1.4270748 -2.7157087 0.6661258 2.4845362 1.7991937 -0.8252376 -0.4229168 -4.563203 -1.3878654 -0.8900514 2.309433 1.3516251 1.631929
invalid -10.198339 9.014997 7.851459 5.434041 7.2800965 4.21008 2.8297296 -6.879035 0.31022418 -7.2474837 -0.28498134 -3.432721 1.5557617 -7.0968695 -5.782599 -4.5490546 -8.656921 -0.5873692 6.7022195 -2.2656012 -5.9098268 -1.2180893 -4.0229797 -1.7148294 -0.9826179 -0.16862606 -0.8779828 -2.4198334 4.4691167 -1.4135392 5.708456 0.62097174 2.789807 -2.4675834 -7.2625203 1.5316577 2.8789937 1.9953109 2.2742858 -2.6384227 -1.9517331 -4.5084686 -1.488812 1.5219828 -8.830632 -5.0913677 4.7286577 0.40845007 -2.366544 0.1495034 3.0168455 -5.4550195 0.7567052 -2.9015636 -1.6677327 -5.878464 2.0872662 3.9107096 1.3131509 0.35939753 0.8646469 1.6242883 -2.715216 -0.7633358 -0.47477904 -1.2252581 0.8630498 1.7907932 7.1339173 -1.7802899 1.1021652 1.437623 -4.86259 1.1514252 2.0294635 -3.5686667 3.7142289 0.24995372 -5.3475547 3.9531863 1.4857788 -2.1117342 1.8556932 5.174152 3.5670242 -2.3698864 -1.3466411 -0.7603284 -0.49670312 -0.011002977 -1.8712608 1.0013965 0.13791925 -3.82947 0.756709 2.245956 -1.7153907 -2.3304484 1.5652307 3.347711 4.061701 0.81617075 -1.9112015 5.0273952 -0.89475447 -2.4168036 -2.1473737 3.2354248 -4.7469273 1.0115267 -0.45859215 0.787327 -0.83110917 0.40891492 -2.9158888 -0.9500068 5.0407343 0.10780524 -3.9724402 -0.15231705 1.8167586 -1.7427757 -2.5283246 0.4857505 0.38348997 -1.918232 -4.6206737 1.0855484 1.137551 -0.9977572 2.06389 -1.3610996 0.5193117 2.999709 4.7700744 -2.2958894 1.0102373 -1.5929885 0.6736318 -0.1706385 -2.4091337 3.4059095 1.5295514 -2.1575837 3.0324042 0.21758077 1.7369541 2.813371 2.0904558 -0.5129585 -0.87364334 -2.841373 0.37283066 4.9366355 0.2271286 0.6133891 1.0998783 1.1741431 0.59295714 1.2603761 1.8984314 2.5395682 -5.798831 0.8833181 -1.9589065 3.493295 -2.1814165 -1.9959997 1.3947448 -0.32673094 -0.9435091 1.0866097 1.228994 0.351757 1.575502 -1.1398156 -0.94086033 -0.71202576 4.117511 0.9260157 1.4925358 0.24820183 -4.341149 -1.6883126 -2.9513712 3.48001 3.0053737 6.3504524 0.3140496 1.6080189 -4.1106205 2.7234344 -0.53780794 1.73808 -3.0608451 -7.893306 3.8558025 1.7356347 -3.827713 -2.4579587 -0.7270711 1.9909202 6.74097 1.2093807 -0.87732804 -1.6798426 4.4847164 0.74994504 0.8443379 4.6649594 1.3380183 1.1099167 5.997526 1.4324048 -2.1324446 -0.65903264 1.5709745 -6.7889056 -1.0364265 0.61073065 2.634069 -2.1265712 2.4084194 -0.92892605 6.359437 1.1525389 2.5832124 -2.1823237 2.3339343 -0.2005387 2.9604003 2.2885368 -1.5410213 -3.2851486 -3.5189638 0.083058305 1.0467622 0.082497455 -4.493952 -6.004363 5.15627 0.7648464 0.1256459 2.208962 -1.4289587 -0.1338725 -1.1963518 -0.3476624 -5.483476 4.209351 -0.7130798 3.3726225 -0.16605155 -1.3742809 0.3988701 3.5658576 1.6963843 -7.404112 5.6795683 0.77328247 2.5968325 -0.2064168 -1.0447433 -0.49883616 0.2582052 0.014626267 -0.50628155 2.8175035 5.681875 0.2346519 5.856411 -3.7173295 3.2480166 1.4455566 3.6366653 1.1347666 0.7950454 -1.5641443 -2.6117234 4.7134166 1.2889194 -2.5682063 7.310634 5.314039 1.7794505 0.5375656 -1.6864927 -3.82825 2.0272381 2.1123033 8.403136 1.6799115 2.6130996 -1.2293609 4.8443646 0.86812204 9.669726 0.3761531 -1.2767155 -8.180386
caller -1.9420271 -2.7021601 2.5642436 -4.531203 -0.389713 -0.9896708 -1.4080814 4.3346677 -2.17981 -0.8812936 -4.5920753 0.50599116 1.1639872 2.9331923 -5.371597 2.1363301 4.3356357 -4.310514 0.86022085 -0.09055527 3.07301 0.30793867 -5.675553 0.5020453 4.9167976 -2.744279 -7.447359 0.18966556 -3.8494081 -5.8900385 1.9939108 -3.6111474 -2.2365232 -0.35174543 -0.6638602 0.77726 3.7284968 4.0381227 -2.471701 -3.8012645 -2.04405 -3.1418326 1.048465 3.2984464 -2.7650678 -3.3074806 -1.6411574 0.48315454 -2.3555357 -1.2436616 -1.2807453 -3.2203493 -1.635575 0.31002694 -1.3378646 -5.460545 -1.8170561 1.7844241 1.9659308 -0.3197946 -0.4766274 0.7357321 1.3420541 -4.6785936 -0.5674772 1.4085609 2.2200208 -5.005777 -1.160657 1.7713848 -3.2697892 0.5997732 -2.7376435 -0.6397955 1.2573123 -1.6656684 3.715991 -0.009927912 -0.4959479 4.262737 0.095111914 -2.4095654 -4.117979 -0.542569 2.7563076 2.929134 -0.64776 -1.4443127 2.5087926 -0.022134839 -0.6610577 -0.13046627 0.02714571 -3.0404983 1.5778517 0.61289734 -1.6294378 4.1400714 2.529824 3.331934 2.327795 -0.23158497 -0.6790999 0.94117147 1.3969772 2.165474 -2.1128347 2.874566 -0.59414524 4.6917777 0.19811569 -0.7259046 2.3214788 -0.09616968 -2.1708674 -2.7043397 2.9057357 -2.0711677 -2.0246308 -2.2512767 2.4050872 1.509158 -0.06580086 -1.9114059 -2.8785024 0.014614987 -2.139178 0.6709438 -0.9543955 -1.4651786 0.9157339 -2.017604 -0.9769662 3.2207637 4.2183723 -0.46711972 -2.1894627 0.67535996 -2.566041 1.8760512 0.5095945 2.6304955 -2.5292542 0.49442732 1.1459008 0.63860345 -0.88026214 -0.45630255 2.7829533 1.3599422 -4.1923532 -3.1580808 -2.6695886 -1.282119 2.2372048 -0.788024 0.80917996 1.5545624 -2.2175503 0.6970902 -2.381919 -3.2896914 2.7962818 -1.2904822 -4.8168926 -1.181743 -1.6287827 0.71810114 -3.3775403 -1.1428435 -1.8691545 1.1127118 1.8967997 0.83106476 0.62392396 1.0259519 4.121537 -0.85174054 1.5783802 -1.7114422 1.0947847 -0.7730233 -3.810137 -2.844193 -1.367852 -2.4471881 2.0321703 0.92533386 1.5080827 -2.2249157 -1.2148242 -2.1620297 0.032138154 -2.989712 0.5995598 -4.419365 1.5354328 0.73091656 0.48023915 -0.25317594 0.20882082 3.053965 -3.7780545 -0.07098219 -2.4831364 0.515809 -0.084041364 1.1998827 0.40892974 -1.1912327 -2.1213107 1.2877208 0.22729656 0.52967924 -0.7166996 1.976 2.0259297 2.1010354 -0.55413276 1.8233213 -1.7346023 -1.7484841 2.6885977 1.4928501 0.795218 -2.0322604 -3.4285383 0.71759754 -0.6165743 -0.12649097 -1.9109336 0.59721065 0.99813795 -4.1095996 0.28766704 2.4017856 1.4822096 -5.4329205 0.5568275 1.1204726 2.2835243 -0.18361613 2.0325623 0.64006853 0.2675522 -2.4810393 0.78520757 0.86693966 -1.6699164 -2.5783682 -1.2352983 2.1065962 1.1042815 -0.47247782 -0.65816987 -1.2443373 1.2965702 -2.3059711 -0.6865791 -1.9136401 0.93485695 -2.24388 1.1577587 -1.129147 5.3069243 -0.021384127 3.6362925 3.0773518 -2.5602934 1.6497335 -2.0821187 -0.25645012 -1.7209353 1.8100753 -0.88342357 -2.606832 0.79668045 -0.19963796 1.0259496 4.083786 -0.14678964 3.291717 0.16218266 -6.555152 -1.3292906 5.507332 1.1523645 -0.44656074 2.5879805 0.9941418 -1.4111972 -1.1616551 -1.7485318 1.9624428 -1.8344048 -0.49704164 -3.6138318 1.2779243 2.930534 1.4859865
