57 768
push 0.9876012 -0.77878433 2.3072047 1.0276538 2.0643466 0.15476024 -3.4679523 -0.346199 0.16902232 -2.6945453 -1.2851939 1.9522746 -0.72703063 -1.7673941 -0.95009536 -0.30890357 -0.51780283 -3.7552958 1.9869847 5.6485643 1.514901 -2.4353318 -0.80079186 -1.0011476 0.21808858 -0.38184926 -1.0779727 -1.7086544 -1.4628148 -1.1624587 -1.6247303 2.008017 -0.1365689 1.1331235 -0.19485827 1.2924817 1.8007175 -1.7972867 0.21085161 -0.9596611 3.678023 0.7357036 1.7551998 -0.15487097 -2.4174743 0.0485764 -1.9388962 -1.5969032 2.2308345 1.4424202 -0.19759656 1.4895092 -0.70114505 -0.7306009 1.6702023 1.1442654 -1.7868867 -1.051339 0.7711686 3.3422616 -0.9211169 -0.5279445 -0.5069921 -2.0415504 0.43642703 1.6062695 -0.15888637 0.13800745 -2.4179063 -1.0423107 0.024555748 -0.9798295 -1.316805 -1.0706074 1.1953474 -2.272365 -0.87555784 0.47395328 -0.70536846 2.0387285 -3.065328 1.1609286 0.7192198 0.16272219 -1.5770496 1.2316928 0.5867323 -0.8844126 0.041449435 0.9720956 -0.45569307 0.1443681 -0.36083046 1.9386384 1.2599301 1.8066522 -1.7331568 0.814906 -1.4174662 2.2211287 -2.039493 0.7741292 -0.4858725 0.24563897 -0.8972566 -1.1315322 1.801622 -2.647865 -1.5454345 0.2776318 -2.0012584 0.8200402 1.1777495 0.19271585 -1.1597091 -0.31579292 1.1724998 -0.1545002 0.691881 -0.43919098 -0.14599353 -0.52895194 0.3685382 -0.553488 -0.06197579 0.11117377 0.047594942 0.78630185 -0.19691858 0.5712833 -0.54397154 1.6220195 0.16464368 0.26341936 0.5203588 -0.02393443 -0.56288886 0.10375993 -0.122374505 0.5543965 -0.20034279 -1.8101782 -0.5517332 0.56749815 -0.33555895 1.1147531 -0.31455636 -0.029875623 -1.0148314 -1.3110813 -1.3825057 1.6657205 0.44247818 0.52178884 0.2006076 -0.012090122 0.21601172 -1.6046678 0.2644984 -0.5065542 -0.3625203 2.2701283 -0.56994164 -0.25367585 0.75023526 0.6006714 -0.0002439327 -0.06308329 -0.17943712 0.84064454 -1.6805934 1.854864 -0.9135603 0.579979 -0.5159627 -0.22610226 0.18543848 0.25700328 -0.071550645 -0.6375418 -0.26578006 -0.86322516 0.80082715 0.6440048 0.29700515 0.097060286 -0.31763592 -0.028635724 0.24420357 0.10561687 1.3139765 0.26801613 0.6289699 0.46824554 -0.33681342 0.19230792 0.02906549 -0.37765625 -0.93138224 0.19297096 -0.28127065 -0.594014 -0.010968472 -0.9965652 -0.8791559 -0.6223399 0.030789651 -0.65542436 1.7848266 0.029858468 1.8122247 0.5367141 -0.123518854 1.211052 -0.8211338 -0.23667341 -0.74684536 0.58654445 -1.183938 -0.5609451 1.0037311 0.23976317 0.15964797 0.34906796 -0.86569214 0.5269569 0.9514654 1.626378 -1.2442108 -0.64654994 -1.1560775 -0.29532146 -2.5212748 1.0737283 0.66377556 1.4935087 0.80352336 0.24011382 -0.13696438 -0.5728942 0.13869779 -1.2003309 0.6590354 -0.7844129 0.07721529 0.26344287 -0.13536894 0.6254136 -0.768898 0.034109082 -1.4132684 0.5185393 1.3468556 -0.36954907 0.59126836 -0.8224255 0.18044116 -0.009748683 -1.1215489 0.44865867 -1.6686876 0.2043909 -0.7184657 1.1759098 -0.25653526 -1.9966059 1.2921743 -1.1506238 -0.6134753 0.6862288 0.73139036 0.1312684 0.69970727 1.0101467 -0.21408017 -0.17442489 -0.5435566 -0.36406988 -1.1909152 0.6746862 -1.4221218 -0.75457865 -0.4068777 0.8321311 -0.10876251 0.23175769 -2.4043593 1.360628 0.53990364 2.2954571 0.91879636 -1.6288353 -1.4844235 -1.0073557 -2.0357823 0.11864924 1.6584088 -1.6337817 1.2152588 0.9331209 -0.05325503 -0.22634132 0.42979854 1.4047843 0.081391774 1.9489837 0.044459138 0.70722014 -0.40207663 0.6631968 1.1297544 0.8305109 -0.24138677 1.2062697 -0.065382086 0.18426026 -0.590742 0.16632996 -0.49875724 -0.72230333 0.7089349 0.7925448 0.2848523 -0.15479009 -0.8537412 -0.59506875 -1.2753823 -0.28409007 -0.24129094 -1.0207827 -0.15640008 1.4671504 3.1212692 -0.5581787 -0.1884138 -1.0117835 -0.05830491 -0.38958263 -1.2637671 0.8726778 -1.6179032 -1.2954772 -0.581539 0.14928707 -0.93025696 0.41253507 0.27277714 -0.32799095 1.8587525 -0.16000436 -0.4124195 -1.4914804 0.7188229 1.1458118 0.12327993 1.3536378 -1.4043581 0.6492903 1.1682065 0.9141853 -0.5535316 0.8310907 -2.327895 0.9918427 0.2685344 -0.127137 1.7248101 -0.49442166 -0.37173 0.24752107 -0.86809963 1.6163383 -0.25477543 0.08946588 0.39959872 -1.2608368 -1.9365073 -0.910943 -0.9650775 0.19406675 0.039052352 0.30059695 -0.63958406 1.1770283 -0.37253693 -0.2060097 -0.098388195 -0.38298312 -0.45111218 -0.2513497 -0.18005487 1.0467209 0.10750607 1.0683025 0.1568865 0.94265485 0.7150974 1.1742071 0.07030335 -1.0303886 1.0473154 0.33684707 -0.83943194 0.21225956 0.5396302 -0.7365154 0.63741636 0.98408353 -1.7183437 -0.91535115 -0.5728342 0.104921244 -0.24936 -1.13744 -0.7185093 0.074070096 1.0156269 0.28878027 0.99384224 -0.6839964 0.9810216 -1.2080028 -0.26064748 -0.7255913 0.56254965 1.0836205 0.19982187 -0.37360394 0.5626295 -0.5663173 0.00027805896 0.9900837 0.0052289637 -0.5356138 1.069246 -1.8302171 0.43257287 -1.0893654 0.69310135 0.17055646 0.37761074 -0.76169086 0.63317317 -0.14522785 -1.1961287 -2.64807 -0.24666871 -0.039808016 -0.8387221 -0.41159958 0.00729815 0.8362932 0.7242209 0.5065471 -0.8098097 0.07983149 0.68142945 -0.15443456 -0.93593067 -0.5948748 0.051782165 -0.09135656 -0.90541273 0.5483968 0.8699059 -0.91375613 1.6290083 -0.42134842 -0.7926948 0.7410407 -0.23333655 -1.2249651 -0.90085036 -0.9257773 -0.2906079 1.1621288 -1.0041022 -1.433878 0.7939504 0.3007735 -0.87813914 0.14531693 0.40370405 0.40166372 -0.05895568 -0.90741944 -0.011150574 0.25381204 0.07881393 0.9906684 0.15514521 0.0967525 1.5707119 0.39798906 -0.95073974 -0.32324627 -0.15096696 0.5850297 0.017529711 -0.06842888 -0.35898367 0.18317387 -1.1170216 0.46864805 0.5181834 -0.9728793 -0.934316 1.164938 -0.008533997 0.0733265 -0.6895558 0.3577235 -1.0586495 0.3332075 -0.5223233 0.34639665 0.40667355 0.02377694 0.8360555 -0.7487099 0.06358206 -0.6197718 1.3551624 1.3986281 -0.5060933 -1.1290811 0.24564506 -0.33625805 0.63379866 0.24243277 0.33602446 -1.515507 0.33183858 -0.612724 -1.4765867 0.44302595 2.290395 -0.77670145 -1.2631686 -0.19702423 -0.21115772 0.61669594 0.03797224 0.88220954 -0.8975209 0.5858886 0.038552713 -0.35895136 -0.8069476 -0.41792187 -1.1472985 1.5064427 -0.5003782 0.7263522 0.5816294 1.5249823 0.15427577 -1.6737312 -1.0069425 0.550461 -1.0839705 0.73018396 0.48256955 0.2131103 -0.078970514 -0.17474432 1.2102226 0.95317024 0.76191276 -0.08216939 -1.2220663 1.5047576 0.02241616 -0.4052197 -1.2547629 -0.41612124 -1.2711451 0.19303115 -0.03121471 2.4268274 -1.0005581 0.013231056 2.1769912 0.44011998 0.2798232 0.98201334 0.42060435 -0.48855984 -0.3710964 -0.34060752 0.41080028 0.21035905 -0.5561909 -0.33931848 -0.35938743 0.36029324 0.072802566 -0.40654087 1.614816 -0.65872484 0.18847056 0.029582242 -0.13880181 0.7210111 0.6292261 -1.1297925 0.18633446 -0.42043433 0.70948464 1.0069554 -0.26154763 0.41526145 0.7825238 -1.221934 -0.25546 -0.12661065 -0.087837435 0.25137752 0.4232684 0.34195185 0.70090777 -0.49838048 0.45789114 0.14315397 -0.024388656 -0.64300597 0.25898904 -0.1966972 0.86294466 -0.370352 -0.4788285 0.17794329 1.3830966 1.1020006 0.6012612 -0.3260097 0.038819868 -0.43309277 0.2365465 0.6033137 0.9114361 -0.0054261275 0.29665703 1.2167641 1.0040404 0.17407428 -1.4982067 0.6704346 -1.4146435 1.3017135 0.3944905 0.16941871 0.49950513 1.1177983 0.09557423 0.016145809 -0.14040625 0.67425185 1.0569527 -0.12392639 1.2191533 -0.9662638 0.04836727 1.1729434 -1.979664 -0.38023707 0.0502992 -0.6977818 0.069816805 -0.34735698 1.5842332 -0.48514396 -0.6517022 -0.2847371 0.21374507 0.36283034 -0.29413292 -0.5068791 -0.15511304 0.613612 -0.31740314 -1.3731767 -0.1347327 -0.50531167 0.13798048 -0.42088595 0.47377712 -0.1113646 -1.0823685 0.009291106 1.7018172 0.42128432 -0.913903 0.118042 0.4938339 0.79594684 0.14210561 0.08445956 -1.139405 0.36998966 -0.89906555 1.1349616 0.98061436 -0.283058 0.877757 0.71025753 -0.30411217 0.12547292 0.13615106 -0.34858334 -0.32309303 -0.6514362 -1.9364167 -1.0874094 0.3890031 -0.57692176 0.6508468 0.48425627 0.6302224 0.2687935 2.594172 0.8518441 -0.14440395 0.84502494 0.71100783 -0.14804551 0.55476224 0.45057353 -0.5898827 -1.5208205 -1.2988591 0.8136869 -0.20974666 0.040134966 -0.60043687 -0.4843764 0.62857556 -0.89023614 0.15240736 -0.44879186 0.37293392 -0.9733844 -1.2963644 -0.08206391 0.9591376 -0.4080709 -0.47855607 1.2186832 -0.3671759 0.062427964 0.05173577 -2.0447848 -1.3282735 -1.842294 0.55848277 0.28678936 2.8917966 -1.3650889 0.5788655 -0.06608634 0.7666882 0.73675907 -0.24965663 0.025590006 0.2669998 -0.24674045 -0.43851984 -0.1634158
dup 2.8251748 -0.6152492 1.4068379 4.381512 1.1646093 2.008461 1.819302 -0.9049147 -1.7490892 -1.5892509 0.83347493 -1.4131597 1.1750109 -0.73961616 -1.4011874 2.2687027 -1.1230392 -2.6008205 -1.4467789 0.7103178 2.3169527 1.8775768 1.967564 -1.68261 -2.9441764 3.41078 1.5675635 2.675083 -1.1014299 -1.386494 2.8646212 -1.4691101 0.17065834 -0.66208583 -1.2692078 0.17188826 1.2108598 1.3074012 -2.3881652 -0.27582458 1.4469622 -0.2848335 1.0149213 0.5593821 -0.6589335 0.2243674 -0.43056923 -1.5262984 1.514598 0.07576889 -1.7056297 -0.65383804 -1.4505035 -0.15664901 1.4972067 -0.30680516 -0.48417136 -0.48357984 -1.1420227 -0.57217985 0.44526267 0.9150188 0.7136625 1.7634871 -0.4935388 -1.7718846 -1.3697788 -0.852418 -0.65582114 0.49555165 0.20648672 1.1801864 -0.9019865 0.6978275 0.023052178 -0.81576055 1.6091971 0.22489427 1.3778123 -0.7551009 1.5108289 1.592737 1.0968581 -2.2299054 0.9180102 0.28651592 -0.03168084 -0.48669156 -1.1045582 -0.86726356 -2.1650362 -1.4569666 -0.18998095 -1.350203 -0.30856228 -1.9206979 0.4665046 0.2089989 0.009874012 -2.2860916 1.2364537 0.44421244 0.70754117 0.13114741 0.10779815 -1.5363048 -2.1839247 2.0823479 1.0653976 -2.0435164 2.3252811 -0.7520332 -0.011807199 0.22034878 -0.053790193 -0.42942998 0.26755595 0.63383514 -1.5665547 -2.130649 -0.021674443 0.5509734 -0.48086908 1.2424662 0.45261645 0.9243424 -1.1330649 -0.12571906 -0.15667675 1.2339728 -0.61001235 0.8614973 0.54128414 0.50771207 0.12524801 0.48076063 0.84192425 -0.21190658 -0.54294825 -0.5869437 0.56039834 -0.6091696 -0.5334035 0.09625156 0.22581357 -0.45192397 0.5443416 0.65799105 -0.23933388 -0.12143866 0.30906525 0.17660013 1.004096 -1.839394 -0.012820869 0.7897399 -0.2831376 1.5910698 -0.5267629 -1.3546084 0.20746699 -0.20167136 -0.84456736 -0.3000813 -0.34174564 -0.36741507 1.5878279 0.5223441 -1.7144674 -0.8630603 0.30068484 1.0606371 -1.2944695 -1.4957179 0.3785979 -0.6594753 -0.5487365 -0.662359 -0.27561146 1.1277012 -0.54722667 -3.2133155 -0.4660492 -0.61305904 -1.4186379 2.334196 1.0969094 -1.5792545 -0.22139907 -0.59093773 0.8483791 0.33054036 -1.0626062 0.24820733 0.56675434 1.2529026 1.4847753 -0.58667535 -1.8055723 0.28661543 1.5869352 0.09145665 -1.446645 -1.4521805 -0.15852639 1.017161 -0.44597456 1.9197279 1.2174404 -0.174355 -0.08790856 1.0350507 0.29606506 1.1186984 -0.16919436 -0.83154404 0.5607173 -0.9932234 0.12356494 0.3508381 -0.4982452 -1.1234272 0.31681284 -0.5653216 -2.407921 0.86886775 -0.8576092 2.3120298 1.3634148 -0.9237081 -1.1799462 -2.1707377 -3.2929246 -0.34237587 0.047098458 1.9636625 0.12582305 1.1738423 0.29497042 -0.9979656 -0.15938927 -0.7911312 -1.415618 -0.9025077 0.020784937 0.16813791 0.03412921 -0.73093456 -1.8851407 -0.13268687 0.011577137 -0.2211043 -0.087046474 -0.9261841 -1.5889395 0.06877327 0.05484601 -1.8708746 -1.7243965 0.7347452 0.59803194 -1.3055401 0.45340994 -0.47249213 -1.0482867 0.19887505 1.08737 -1.0250074 -0.26505068 -0.3355708 1.4725271 0.14982484 -0.24669991 -1.2772704 -1.2340055 0.454822 0.80159056 -0.08146071 -1.4579864 0.25464192 -0.5835915 0.67362297 -0.8321539 0.14633195 0.0995488 0.3070667 -2.161594 1.7817914 -0.8306192 -0.30293867 0.61500335 1.5245869 0.33286095 -1.1325626 0.70265925 0.9940173 0.7136233 0.303664 0.66434944 -0.46882996 -0.13833287 -0.92367977 -1.4392852 1.5130678 1.5816419 1.3976599 -1.8880758 -0.3863013 0.8487518 -0.27886137 0.7013562 -1.7961944 0.24138954 0.4148755 -1.6893705 2.3478186 0.20551324 0.49593467 -0.7302154 -1.2910677 -0.080005035 0.9629113 1.2128701 0.76004374 0.39001155 -0.5370612 0.29304928 -0.67794734 0.8917924 -1.7298021 0.74617183 -0.10698566 2.5814579 -0.12081957 0.21275322 -0.5678206 -0.78743833 -0.5974569 0.76670414 -0.853223 -0.5563639 -0.065079175 0.4570123 0.19915849 -0.70156324 -0.6707998 -0.31040028 0.07056144 0.68491197 -0.3035761 -1.5313156 -2.0843027 0.9486246 1.3378725 -1.084705 0.5274054 -0.93710065 0.1785124 0.6151723 1.263915 -0.788476 -0.6426794 -1.3858247 -0.2480989 1.4349982 -0.70610565 0.67687124 -1.0919801 -0.6536819 -1.0891382 -0.43464303 0.61364 -0.4869674 -1.7302567 -0.24606076 -0.6444981 -0.9491878 -1.921035 -0.027323768 -1.4190147 0.5733543 1.2809312 -0.24569722 0.2888844 -0.14495161 -0.17171031 0.9995856 1.448702 -0.2341359 0.741343 -0.07128593 1.880629 -0.39463842 0.09926923 -0.3236361 -0.2548607 0.73387784 0.061090533 0.18361545 -0.61466587 0.68653387 0.82150817 -0.53497756 -1.1263572 -0.69588655 -0.6770964 -0.06966896 -0.5766585 0.65430856 -1.2023484 0.48410302 0.36592874 -0.3363024 -0.10351448 0.25105917 0.40742224 0.9562688 -0.83711255 -1.4932197 -0.82403356 -0.87425494 1.2927138 -0.80567694 -1.5566978 -0.018773612 0.46030465 0.12457453 -0.347205 -0.3563441 -0.89538616 0.25033453 0.25511643 0.55218756 0.04358833 -0.3058838 0.95515144 -0.46821398 0.20325842 -0.76385814 1.8019634 -0.33276516 -0.1851484 1.9118395 0.38790694 1.6582298 1.064392 -0.16257961 0.7320426 -3.422742 0.5071493 0.27786976 1.4869763 -0.9227356 1.0658338 -0.8713485 -0.6321955 0.41482633 0.32640335 1.4730047 0.03417189 1.196846 1.1452247 0.19091748 -0.46583402 0.859416 0.45955628 -1.1321629 0.71923727 -0.849381 0.6869811 1.2247814 -0.49722475 -0.76996833 0.73164 -0.63631403 0.68143576 0.22598974 0.43448764 -0.46334225 0.0099838935 -0.6917085 -0.6937433 -1.4993992 0.35000587 -0.095391996 -0.504675 0.04070549 -0.78100497 0.5621201 0.7255885 1.3185104 -1.4372522 -0.57401234 -0.12133353 1.5725152 -0.9704297 -0.19397123 -1.0729209 0.90896404 1.0027198 -0.1994201 -1.0956491 0.81468695 -0.047155276 -0.26553488 0.6302379 -0.4246155 -1.5519712 -0.0056868615 -0.8230941 -2.4777274 -0.6585116 0.2065275 0.6289553 0.4702674 0.034614094 -1.5487068 -0.39173126 0.3512974 1.8320223 -0.53252685 -0.96703357 -0.17907573 0.77285343 0.4254203 0.51662064 -1.0880791 -0.4435277 0.47045934 1.1651716 0.003262502 0.97147167 0.813178 0.20509227 0.24859701 -0.40055162 0.5629989 1.724319 -1.3356752 1.9431934 -0.665746 0.8106854 -1.0260351 0.14495729 -0.66413313 -0.21690895 1.130108 0.18359779 1.020894 1.0616226 -0.009733579 0.54757315 1.4034222 -1.6301862 -0.97313964 -0.008096695 -0.83892673 0.34735942 1.2850896 -0.7434135 -0.52114284 0.35361958 -0.14680928 -0.5059337 0.04668308 -0.17280579 -0.118137605 0.6882903 -0.76999205 0.44616124 -0.5460452 -0.6617374 0.03970572 0.056994118 1.4488218 0.9145545 -0.18881617 0.5105332 -0.8785314 -0.123985745 0.9579636 -1.4163285 -0.998399 -0.45236477 0.72453314 -1.4111353 0.4864077 0.637937 1.3149265 2.1825051 -0.5168941 -0.036290504 -0.35984394 -0.20200951 1.4627614 -2.252274 -0.5814732 1.1983128 -1.316526 1.355863 -0.95634645 -2.0627828 -0.29548374 0.71316934 0.90461665 -0.26809198 -0.3846447 0.46829462 -1.1329187 -1.2482029 1.4562261 0.010449842 -2.6681828 -0.9941257 0.8124752 1.913493 -0.25108132 0.40897462 -0.30304065 0.06940003 -0.069585495 -1.4277189 -0.32675087 -0.4463904 0.58099693 0.29448867 -0.5679432 1.6637695 -0.5106174 0.63998467 1.3278371 0.6369492 -0.18802857 0.4165224 -0.99932086 1.4868419 1.281929 -0.43396464 -1.2635078 0.21143216 -0.33562157 -0.17553642 1.3472277 -1.4788947 -0.1839314 -0.37125543 -0.013989712 -2.139405 -0.14371274 -0.97747046 -1.7054083 -0.16446146 0.08139781 0.29507238 -2.1048114 0.38968858 -3.8595195 -0.69318634 0.92371595 -1.2669431 -0.25481346 -0.35673806 -0.6610301 0.32982063 1.0114315 0.20110166 -0.39660245 -0.576095 -0.44431856 0.60486287 1.2125787 -0.49834105 0.8457788 -1.596139 1.1405861 0.4060705 0.7450943 0.7508514 -0.21698588 0.05055545 -0.71280473 0.3274902 0.4084995 0.4978557 -0.33091316 -0.850362 -0.71728164 -0.5099783 2.0835996 -1.3028159 0.055092286 0.9553754 -0.068299904 -0.16428651 -0.8604974 1.1619502 -0.6654173 0.48356733 -0.59408265 -0.32975435 1.5549809 0.25019938 -1.509667 0.52256185 0.9127485 -0.85152155 0.5525449 -1.4240838 0.7055999 -0.80629766 -0.056723244 0.20385385 0.33837992 1.4566189 0.0591443 -0.7452142 -0.48787892 -0.10002892 1.050143 1.2805967 0.46221346 0.6737788 1.094465 -0.40074572 -0.7165568 -1.0707903 -1.3265762 1.3806626 0.23480798 -0.48856035 0.6207727 1.2304678 0.0014402288 -0.28626126 1.2677257 0.14147994 -0.06958321 -0.20209481 0.018149525 0.78967845 0.001807752 -0.025589954 -1.0336404 -0.0014658414 -1.2070935 -0.4743544 -0.62594634 -0.2679511 1.2683477 -0.050437894 1.0100873 -0.90127194 0.48579133 -1.4353546 -0.16738874 -0.6328855 0.17369686 0.36780152 -0.6513223 0.42803365 1.2165296 -1.0556376 -0.8934457 -0.7482827 -0.15903804 0.37042162 0.04234579 1.7702404
swap 3.2031655 -3.01026 -1.7490257 -0.8802909 2.614678 6.716896 -0.29201785 1.1945293 -2.1617193 1.329148 0.9352496 1.5199672 -0.91149235 0.68722147 -0.71711004 2.242529 -0.92684436 5.233432 0.40896764 -0.60619545 -1.991435 -2.2429972 -1.798303 2.4480133 1.5608096 1.6297497 0.5870026 0.68245465 3.1989992 2.8434887 0.5081313 2.1989446 1.0351906 -1.9462926 -1.7457948 -0.9454647 2.251173 0.6926276 2.4305365 0.500994 2.154094 0.5583116 0.21531942 -0.39749599 -0.5596828 0.24103115 -0.81623393 0.11952013 -1.2645441 0.9462168 -0.14608167 -0.12923934 0.078612834 0.42608342 -0.6223792 0.5926143 -1.3888178 -0.97308767 -0.4542106 3.111579 -0.6049416 1.1460207 -0.13665833 1.7218486 0.19777203 -1.9230759 0.35880786 1.2665666 -0.38167387 -0.2591273 -0.20092233 0.3730321 1.0767316 1.0381145 0.64803356 0.024140777 0.060630016 -0.07378935 1.5233557 1.7941482 -0.5636722 0.13641591 0.99287975 -0.7847443 -1.0773135 0.7212276 0.48567146 1.0888158 -0.17756717 -1.3594306 -2.137602 -1.109421 0.70596325 -0.88274837 0.34128943 -0.76599395 -0.638969 0.18899293 -1.2818484 -1.8488624 -1.2649089 0.6630238 1.1772068 1.6717423 0.4044048 -0.5989553 1.2517185 1.3991392 -0.16341558 -1.6403404 0.8928558 -0.3276646 -0.38950914 -0.94201064 -1.2462075 -0.9112633 0.3431564 0.19776861 -0.9766084 -1.2722231 -0.08419312 -1.345197 -0.26121402 1.0402126 -0.15515077 1.9601964 0.39376068 -0.11932583 1.4409137 0.86865515 -0.31748968 0.3295103 0.3417922 0.53496736 0.16841367 2.086449 1.4832608 -0.16981335 1.5133642 -0.04960662 -0.0945574 -1.7486458 -0.3564809 0.13913096 -0.3623087 -0.06383242 0.88332134 -1.0888133 0.092207015 -1.6022294 -0.22720902 -0.48426223 -0.39466587 -0.7913782 -0.46411693 1.7761586 1.3368908 0.68367803 -1.6344181 -0.88817525 -1.0642836 0.17953968 1.1045697 0.79094976 0.33180478 -1.0583385 -0.786246 0.99602026 -2.710563 2.5905201 0.14366363 -0.19033608 -1.2621304 -2.487227 1.2694397 -0.532203 -0.40011093 0.60353273 -0.2512166 0.18741128 -0.2624889 -1.7539068 0.9837757 -0.8829818 -0.28161097 2.7256565 0.31693652 0.23669551 0.8146656 1.189503 -0.039073028 0.7851897 -1.2834871 1.7025285 0.6362338 0.69704294 0.89904886 0.7352698 -0.76963174 -0.35857326 0.98448545 -0.26991504 0.69665045 1.1621469 0.7701197 1.1624273 -1.0096711 0.012192661 0.8018619 -0.9784432 -0.20095272 -0.43137968 -2.0412667 0.92881954 -1.3305842 1.5757544 -1.0292687 -1.2642078 0.81861067 -0.93066716 -0.88532615 0.79307455 -0.9057741 0.66627187 -0.21096128 -0.4126397 0.5335896 2.2570813 0.30909777 -1.9873736 -0.30407578 -0.36393923 -0.82171696 2.197397 0.325936 -0.23083667 2.1277375 0.26038513 0.18897313 -0.1658426 0.49764547 0.07118053 -1.1845636 -1.4470042 0.1954032 -2.2404609 0.08341503 0.54286855 -0.57384664 0.29826975 0.08476153 1.2941678 0.7370564 -0.94195014 0.0088982675 -1.385046 1.268512 1.8553895 -0.480433 0.7227775 -2.8230379 1.2673059 -1.0072004 -0.65653116 0.681209 -0.8016657 2.0061095 -1.1859083 0.85657465 0.12983751 1.5485163 0.847791 0.46026477 0.7187992 1.7260064 -0.629057 -0.96509004 -0.60100687 -0.6224874 0.7353096 -0.95178753 -1.2820145 -0.41671905 0.17361818 1.0052981 1.2833633 -0.7733205 1.5256443 -0.1378155 -1.0295511 0.31694302 2.6483858 0.65962946 0.60066706 1.2215936 0.51741266 0.9356433 1.9172853 1.2661443 -0.014719057 0.66332424 -1.0084105 -1.352928 -1.6223704 3.736254 -1.3894482 -1.0401844 -1.0430845 1.0791134 -1.2822614 1.4352589 -3.2355845 0.9873989 2.7198179 -2.4196775 1.694842 1.6667291 -1.4875052 -0.30663532 1.4693053 -0.38777912 0.5628547 -0.005008265 -0.3818155 -0.13701366 -1.7123431 -2.0739052 -0.7269228 -0.06785232 0.1859721 1.6740367 -1.047055 2.10494 1.5959394 0.021509515 2.4213953 0.384691 -0.8140886 0.003730223 0.13015248 1.4385679 0.13129455 -1.9685361 1.4857763 0.028156709 -1.2461094 -0.9990881 0.4787769 -0.13002707 0.4322846 -0.678047 -0.24186285 -0.4952077 1.2624743 -0.9512713 -0.089277536 -1.340573 0.14732917 0.794301 0.44414654 -0.061764985 -0.9538139 -0.89893156 1.1383868 1.0697564 0.028157983 0.5649715 0.15108486 -0.31443334 -0.48044017 0.82511336 -0.12743868 0.56240684 0.6641504 1.2540476 -0.45763177 -2.2783945 -0.5424891 0.27576143 -1.7702119 0.9061717 -0.6695992 0.45716357 0.32611665 -0.00907543 1.404487 0.587714 -0.17712057 0.44207972 -0.5169915 0.55261356 0.51468915 0.0032313778 -1.1477177 1.3527118 -0.31228694 -0.56823415 0.40009686 0.2137986 -0.44663128 -0.7447615 -0.989557 0.8482163 -0.7716495 -0.5226626 -0.96451414 -1.6680181 -0.7140548 -2.4326634 -1.295814 0.8887119 0.65213233 -0.85344565 -1.3359108 0.093369626 -0.6789603 0.4905774 -1.4405352 -0.48397735 1.5714495 0.5789073 0.6296926 -0.4748645 0.5156238 2.831359 0.6561025 0.057298724 0.37388372 -0.047388192 1.1490977 0.72135603 0.36665922 0.3022736 -1.2144699 -1.6900014 -1.5963655 0.8146373 -1.0207385 1.1608145 0.40134388 -0.52273804 -0.01601023 -0.25691265 0.90083486 0.8519595 -0.48713082 -0.19881578 2.0992823 -1.0838134 -0.7406814 -0.75748837 -0.083727196 -0.7566915 1.2294706 -0.15766059 -1.8917104 -0.6088746 0.5861762 -0.14973563 -0.6020252 0.182572 0.34504107 -0.3590732 0.036281284 -0.0015776017 -1.2780486 1.0093949 -0.6843262 -0.93256783 0.95553553 -0.6079831 0.8641788 -1.9750286 0.5582467 -1.2400949 0.6630727 -0.39748046 -1.0049453 0.8047243 1.3904561 -2.2163138 0.010780173 0.036595453 -0.14351203 0.1669841 -0.47785613 -0.76038224 -0.056876574 1.6234275 0.40865746 0.3232189 -3.076678 0.86962277 0.057410613 0.861315 -0.9521987 0.5615006 -0.3314327 1.0770981 0.71074134 0.015280076 -0.56060904 0.5656843 0.33463413 -0.42300427 -0.9323611 -1.996729 0.9522893 -1.1336102 -0.080190785 -1.1283514 -0.5343765 0.36767593 -0.92628217 -0.14606592 0.46527848 -0.6955634 -0.3130687 -0.678345 -0.2695669 0.9229162 -1.4752457 -0.76673824 1.1094365 -1.0707592 -0.16498694 -0.31199944 -0.21246348 -0.2664268 1.6617875 -1.3373954 -0.29490238 -0.22508624 -1.1584595 -0.18691067 -0.44678485 1.7142526 1.0624628 -0.48663756 1.4438415 0.67039937 1.3404044 -0.34665766 0.6348543 -1.4494687 -1.6378925 0.73774076 -1.3350818 -1.4566376 -1.0217417 0.6752454 -0.432897 0.29349402 0.3945198 -0.23309287 0.34181333 -1.1562785 -0.016115941 0.35829678 -0.3816701 0.2512933 0.07445975 -0.5715631 -0.31403697 -0.9700578 -0.90000767 -0.8400198 1.0674696 0.73705757 0.4790644 -0.14541759 1.0742884 0.38688546 -0.0021359166 -0.057710294 1.0840248 0.29030067 0.38867673 0.37414443 2.2726042 0.5057788 -0.4845414 1.1099917 -1.0737213 -0.7818733 -0.8254148 0.25323358 -0.4552041 -0.6297254 0.6034882 -0.9348804 -0.66789407 -0.9438248 0.027285764 -0.22487405 -0.5607193 -0.7474993 0.3721972 0.39566532 0.20357439 -0.8755744 -1.1517667 0.47383577 0.8622996 0.65016156 -1.6569266 1.2731156 1.2756826 -0.9843979 -1.7437631 0.34972626 0.55714756 -0.7866558 -0.31076875 -0.1543151 0.327932 -0.044762816 -0.53053755 1.0620762 1.5606118 -0.12368368 -0.09785892 1.0780295 0.33495122 0.032096818 0.4129442 -0.2569373 -0.08411441 2.2096097 1.6311954 0.90682757 -0.9206649 0.7349832 -1.1956055 0.07831049 -0.5283759 1.8169451 -0.06972239 0.7987338 0.12099559 -0.6497807 2.3983998 -1.1432602 2.1419563 -0.24778265 -1.3105321 0.36037287 -0.6572262 -0.8173488 -0.057065506 -0.31256145 0.79942644 0.20437847 0.36789802 -2.0014522 -0.61691475 -0.59501606 -0.902912 0.9816364 -0.015240728 0.16617176 0.8771216 -0.41387317 0.58558124 -0.72454125 -0.560584 -1.8675214 -0.44152138 -1.4701802 0.5928595 0.015310963 1.1116439 1.2022483 -1.8453448 -0.92124283 0.9389684 -0.6018711 -0.8249604 1.1822252 0.93218255 0.68198 -0.5525289 0.945554 -0.78232306 -0.26074752 -1.5086755 -0.9911426 0.0255108 0.87239665 -2.0890863 0.39026242 0.6164457 0.95060444 0.43006575 -1.5499157 0.014723732 -0.53943837 0.24228497 -0.38623518 -0.4184255 1.303011 1.4590787 -1.3432965 1.4022909 0.36018765 1.0431387 0.20153669 -1.0953909 -1.0554984 -1.8832214 2.062852 -0.49860534 -0.8574448 -0.054321237 3.3610005 -0.8118835 -1.5224706 1.366788 0.789361 -1.8007554 0.2640075 -2.2333195 -0.34404323 0.30546442 -0.3988556 4.093354 -0.24407391 0.579438 -1.3508073 -0.91370434 0.5595506 0.27231467 -0.84991103 -1.2963719 -1.0604252 0.74657804 0.19262658 -0.32951576 0.10730816 1.103946 1.7543671 -1.3823404 0.54995006 1.446898 -0.2283383 0.056851305 1.9664665 0.59449804 -0.19584502 -0.34650603 1.7516185 0.16641277 0.26553515 -1.1497796 -0.87880176 -0.82974976 1.1969993 0.33207953 -0.46309537 0.25627345 -0.19189113 0.5391761 0.20519556 1.4084948 -1.4551859 0.93952405 1.1592237 -0.36678877
memory 2.6815953 -2.4837506 -6.3451066 -1.2743907 0.979929 1.0542804 -1.7757148 -3.265712 -3.2145212 3.0232596 0.8314411 -0.87762016 -0.03246939 3.4241464 0.9466761 -2.1757092 -0.48817787 2.3104618 -0.16868286 -3.1014054 -0.6236808 3.3662252 -0.2931005 0.8743451 3.5085783 0.5478163 0.9340451 -2.2276366 3.375602 4.3150816 -0.9305357 0.87345576 0.4086984 -0.28877395 0.41321972 -0.1231706 0.28497046 -0.05327096 0.849431 -3.7431428 1.8524137 1.4522749 0.35382807 -0.62381387 -0.12244005 -1.875634 -2.6243849 -2.7962792 -1.651305 1.567166 2.599074 3.1776505 -0.67113125 -1.7628901 -0.5001144 1.3589838 -2.3082833 -1.1419882 0.38507247 0.0010151704 -1.6379094 0.24252783 0.91275376 -0.17154238 1.3937811 -0.15406264 0.3955603 1.390862 1.9671007 0.6229273 -0.3994758 -0.30465415 -0.16232745 0.48828232 -0.3161909 0.23800497 -0.79327637 0.868389 -1.8318266 -0.20005831 -1.7845107 1.9563882 -0.25914964 -2.2109723 -0.97369236 2.7564569 0.24287732 -0.3876918 0.44604015 -1.5403043 -1.3223921 0.62678295 -2.2291498 0.5927754 -0.6586375 0.8461606 -0.62898165 2.913077 -1.1360325 -0.14899305 1.7582386 1.0669887 -0.9481176 1.5729244 1.0843667 -0.13254213 2.7450917 -2.0241463 -3.1133997 -0.38957998 1.3068619 2.3785784 0.71854234 -0.4021971 -1.1408832 0.481216 -3.6975126 -2.8776991 0.45212018 3.327957 0.38613224 1.4540815 -1.7630895 3.1967213 -0.5574445 4.0082307 0.7773119 -1.1679513 -3.305784 1.5341163 -0.15357786 1.8506151 0.5861375 0.8291193 2.3891451 -5.2308984 1.8496795 -1.3097386 -1.821156 0.20261356 -1.6745325 2.2814298 -1.8490027 0.9904623 2.5735757 -0.8402863 -0.032584183 0.8954938 0.47443017 0.8038959 -2.249087 -1.2063446 -1.9247671 0.28029 0.7249638 -1.7535152 -1.5660312 -3.2286568 1.5383188 0.4587728 -1.1628727 1.2258788 0.37610117 1.5106434 2.0409558 -0.04753593 -0.74612665 -0.47171655 -0.4520478 -0.07750871 0.5520565 2.7879784 -1.8831782 -1.2386205 -2.6238718 -1.6182525 0.30732992 -0.8908673 -0.019475712 0.1660132 0.6608299 -0.7339519 -2.200218 3.6619666 0.28442433 -0.13662112 1.1920365 1.5784056 1.140687 2.8817356 1.0306263 1.1825898 0.42659083 1.008969 -3.4112186 -0.31290194 3.6196897 3.9027367 -0.87476736 -0.17689106 -0.6343207 -1.1265346 1.2928697 2.4215875 -1.6366129 1.7649024 1.1397759 -1.4806936 0.47145322 -1.0870209 -0.25239444 -1.0940629 -0.76817364 1.1341989 0.695946 -0.983298 -1.5741034 -1.0243208 3.2967021 0.01761572 -0.29432005 -0.26267213 -1.1055864 -0.08748851 0.7872713 -2.2114282 1.0784397 -0.40103668 -2.5568707 -2.408362 2.6740954 -1.9464502 -1.6687249 0.03744718 -1.2260883 0.60668117 0.42837313 -1.3005819 0.43365514 -3.0525634 -0.014233847 -2.8582587 -0.38097543 -2.3818903 -0.94077337 -1.385241 1.1214349 1.4233863 1.2141032 1.7077497 -0.50747854 -0.422162 -0.22393432 -0.026636347 -1.2598283 -1.6691359 -1.0700328 -0.24342334 -0.6044675 -0.2558083 -1.8275781 -0.7311515 -0.20414741 0.5222154 0.18638895 1.0745443 -0.70960176 -0.68677175 2.1558242 0.9897541 0.6596033 1.6576872 -1.220201 1.5976743 0.79047996 -1.1297323 1.5898265 -3.1162262 2.149057 -1.491131 -0.83532053 0.08301424 -0.9258358 1.4954568 -1.2767984 -0.59293675 0.51443213 0.96519417 -1.7479174 -0.48471618 0.4931906 -0.41993085 -0.091572635 -0.101344004 2.1259844 -0.8882396 -0.050364308 -0.319044 -2.4795015 -0.6396606 0.3825515 -1.5091594 -3.6166527 1.144715 3.8460207 -1.3480233 -0.32728973 -2.8887799 -0.900949 1.0000719 -0.073034115 -0.8676025 -2.361669 -0.12807019 -2.1917396 1.2498151 -0.6545901 -0.5380323 0.8623511 0.92468256 -0.32055008 0.024814969 0.22223426 -0.8073658 0.86246526 -1.9613448 -1.557012 -2.1988938 1.6048211 0.78585356 -0.7820654 -1.5748111 -0.17715448 0.09806558 1.4941279 1.2852523 2.301887 1.6342641 -1.9863057 -0.9749597 0.8328436 2.91063 0.9361205 -1.4432418 1.6461754 -0.19652969 0.051321886 -0.5806646 -1.1017829 -2.5673466 0.48252064 -0.994032 -0.41004106 -0.12827684 -0.0051894677 -2.0025837 0.18818639 0.07923215 -0.26506373 -0.7395809 -1.1024811 -0.8526393 -0.30788293 -2.4258938 -1.6561017 -2.0213242 1.4470915 1.4652296 0.05090231 -2.1376486 -0.6681149 1.1252134 -1.0527697 -0.52360463 -1.1502948 -2.772687 -1.4903013 -0.41505262 1.4015108 -0.13596094 -0.95494187 2.3562052 2.4270585 -0.9104596 0.013903136 -0.5709817 -0.86761206 -0.12501518 -1.8260051 0.991471 -0.6199586 0.5900229 -0.89955175 -1.3210114 0.06486312 -0.18570487 0.18109201 -0.93095493 0.10309136 -1.1457505 0.035846192 -1.169306 1.1685883 0.20449243 0.49583587 -0.20036682 -2.1311991 0.80720174 -0.82554394 -0.6262714 1.1879531 -2.0245082 1.0130609 0.1033003 0.54516065 -1.2526644 0.6758554 0.35075942 -0.010791144 -1.5352232 0.19763167 0.3901023 1.0335261 1.1610664 -0.081433944 -1.2856905 -0.29542503 1.0697263 -0.09993152 0.6729759 1.7780039 0.15423791 -0.114724055 -0.117688864 0.21019667 0.34440598 -1.2101799 0.50936717 0.09386856 0.3634809 2.1738336 -0.72239804 -0.5165252 0.9224726 0.69758147 -0.28564999 -0.9063631 -1.352882 -0.32847524 0.014324346 -0.33910355 1.0282856 -0.43312198 1.007857 -0.0063466607 -0.55161244 1.311432 -0.03252068 0.46415058 0.43611473 -0.76940435 1.1133115 -0.25075352 0.23131037 -0.18499792 0.74013114 -0.41447285 -0.023250356 0.21084557 0.2532393 -0.7802721 -0.30835763 0.3437295 0.0012129644 -1.530818 -0.6418775 1.5592166 -0.44015637 -1.5559841 -0.5350726 1.0824829 2.927742 -1.1366264 0.16361345 -0.90888196 1.2681463 1.2291499 0.0035551197 0.4373981 -0.31428856 -2.6814868 0.31844965 0.94824874 -0.48905477 1.0387042 -0.8250428 -1.7667295 0.15087329 -1.0489354 1.8980457 -1.9685552 -0.43999872 1.2587813 1.2733874 0.15135445 -0.0042080525 0.56530774 1.204559 0.8362512 -1.5629251 -1.4613074 0.8380286 2.3588312 1.4410198 0.66257393 -0.25847408 -1.2607055 -0.36530024 -0.031589046 2.0540879 -0.165324 0.82199365 0.39883077 -0.519546 2.2930603 -1.8248019 2.6427026 0.41139203 0.7708949 1.6452236 -1.4242256 0.7588976 0.36725315 1.0353044 -1.9038286 0.38390955 -1.2577742 0.66773355 1.6913142 0.054620918 0.7851732 -0.26714844 -1.6986171 0.8350042 -2.884465 -0.36842185 -0.28864416 0.6605997 -0.43969297 0.027624194 0.36225823 -0.772676 0.5779625 1.257548 -0.25614622 1.6303521 2.6379395 -0.4530681 -1.0671546 -0.39658082 -0.45150653 0.119910784 1.080063 0.7159176 -0.58982 -0.0327951 0.65709853 -0.2405922 0.15394849 0.6179688 -0.7827103 1.9850897 -1.1013628 0.8095988 -1.1006498 -0.3943131 -0.39013106 -0.74198484 0.33147192 -0.27191418 0.57337606 -0.66938496 0.715523 0.8498354 -1.7974963 0.37322286 1.0197856 -0.13539308 -5.4873126e-05 -0.20805939 0.7608108 0.24736007 -0.23411885 -1.7346953 1.7751397 1.7378614 1.1004583 0.25687373 2.3515174 1.088487 1.4294369 -0.06770593 -0.15663904 -0.45452628 -1.7360948 -0.016851788 -0.061228137 0.7219081 1.4871439 0.56963223 -0.122657925 -0.026986675 2.590507 -1.488462 -0.090979576 2.3790936 -0.019990206 1.1417077 0.46675628 0.29064563 1.4599295 -0.8710429 1.7767556 1.4112798 0.58038425 -0.58656585 0.34535748 -0.1350218 -0.009110069 -1.0901327 -1.4483105 0.04815168 1.3025895 1.1041987 -0.20169194 -0.17569895 0.66407305 0.21447249 -0.7669598 0.6909262 1.1171412 0.5488312 -0.84039897 1.513133 1.9097624 0.15640017 -2.189681 1.5602392 -0.8834411 0.40436044 -0.16697033 -0.29757863 0.33032772 1.5669249 -0.45816132 0.07954102 -0.27676967 0.9306759 1.1671503 0.53349376 -0.2464785 -0.12632953 -0.53523064 0.2943144 -0.8686922 -0.9847208 -1.3282771 -1.0121623 0.69096935 -1.8884602 -0.114844054 0.00065902923 0.5265699 0.22792953 0.65938604 1.3139583 -0.00025957983 0.09830841 -1.8396227 0.4320988 -0.342177 -1.2356133 -0.27435356 -1.7553858 0.3429781 -0.36417997 0.60248977 -0.71670574 0.6166881 0.7725874 0.08924882 1.0498291 -1.3230276 -1.0162064 -1.2824675 -0.2679834 1.8543246 1.3228413 0.38067776 -0.017833937 -1.0210273 -0.5437439 1.075265 -1.8022629 1.034023 0.6181741 -0.023378927 -2.961386 1.6223097 -0.22294521 -0.20178367 0.66769475 -0.7105855 0.11089224 -0.025512042 -0.67517346 0.5950441 -2.5291831 -0.2095692 0.6682074 0.49837762 0.8984809 1.0891849 -0.06928364 0.21453366 -1.0332439 -1.1481845 1.0450585 1.3244145 -1.7200571 -0.39793763 -0.063951485 0.8233892 1.9642332 0.12341705 0.97291225 -1.1030738 -0.25864306 0.21948789 0.5161776 -1.6808797 -0.03892209 -0.4976572 0.26258674 0.8510127 1.2606509 -4.0103526 0.44875 -0.5847366 -1.098553 -0.64205873 -1.0526807 -0.24945353 0.19099414 -0.13828982 0.89227813 0.48542306 -0.27607587 0.27922332 1.4494275 0.7142915 -1.975354 -0.27574766 0.50438404 0.9025051 -1.7128257 -2.6919343 3.657556
arit 3.7504494 -4.399778 -2.0859823 0.81546825 0.58188045 2.692494 1.466713 -6.815077 -4.743686 2.594783 4.917394 -0.48572332 1.8525867 1.0631199 -0.6150915 4.252309 2.11004 4.2756195 -4.5520754 -3.5400035 -1.4969419 4.2008333 0.7217596 1.5349051 1.4465872 2.8687885 -0.8722117 3.5884414 1.6578697 2.4222448 1.0196092 -0.96751666 3.08336 0.6137786 -3.0857298 0.35061935 1.9652655 -1.1268638 1.0681998 0.05256303 0.7043253 -0.7090167 0.34192276 -0.25457776 1.1673367 0.08902593 -0.5630968 -1.6544029 -1.7352912 -0.44493043 -0.3448117 -0.12728098 -0.33586746 1.2730834 1.9584385 1.1781338 -1.6191097 -1.7296394 -0.76642686 0.98241484 -0.43030837 1.0754707 1.6680301 1.4172212 -1.1392539 -1.613476 0.24725032 1.4829863 0.60168695 0.8334883 -0.6011686 0.8001336 -0.0025587848 2.7665236 -0.4909124 1.7805529 0.4265355 0.06868119 1.2400546 -0.6503518 1.0674552 1.2618238 -0.11124904 -3.3188028 1.3062954 -0.052377325 -0.19354115 -0.09944067 -0.85967237 -3.0828252 -2.3047087 -0.05829684 0.650046 -1.5660077 -0.8445056 -0.61392593 0.8707834 0.7231329 1.5390973 -0.37409055 -0.96429807 -0.54650414 -0.33758375 0.0071086595 -0.30533403 -0.6586078 -0.47097728 0.31549564 -2.7618275 -1.8326541 1.1830211 1.2837182 0.74538153 -0.58374614 -0.12734088 -0.917467 -0.3656529 0.35806593 -0.9531313 -1.2489201 0.42313975 -0.71661484 -0.2390105 1.9782075 -0.76798034 3.2004147 0.44698423 0.7185889 -0.22408833 0.8532767 -0.6955159 0.6845929 0.04813707 0.5687268 1.5188831 -0.18902424 1.8348653 -1.999984 0.87435484 -1.1641204 -0.69308656 -0.538579 -0.6823793 0.72971535 2.5542355 -0.8871385 -0.08794615 -0.7765309 -1.4415206 -2.7089007 -2.631755 0.7800111 1.2224139 -1.6180196 1.6152644 1.3454713 -0.6873597 1.1173718 0.03415379 0.43411195 -1.5793647 0.25111216 -0.15233862 0.82361346 0.66667026 -1.7316586 0.122166805 -0.7988966 -1.7739875 0.60612863 0.385071 -0.25038394 -1.5305247 -3.9024343 1.0960237 -2.4093254 -0.017880024 0.38526902 -0.62307596 0.27940944 0.24046029 -0.6822416 -0.7453803 0.85981023 -0.6766393 2.4581666 0.7054843 1.5299975 -0.2567858 2.182155 0.7948663 -0.09254971 -1.6416448 1.4708365 0.4044048 -0.987919 2.6866956 2.4714766 -1.035768 0.4960284 1.9948962 0.20691152 -0.16840242 1.563648 0.95514333 1.2235913 0.050108414 0.7049151 0.031647447 -1.9067925 0.79724896 -1.2205713 -2.4270713 0.6008829 -0.64469427 1.0425898 -1.0015178 -1.888105 2.3932219 -1.7112651 -3.198339 0.5197116 -2.513871 1.320903 0.72458607 -0.72907937 -0.93930984 1.9113334 1.0282243 -3.1481345 0.17229919 -0.30896744 -1.0754473 -0.23920357 -0.27299047 -1.296317 1.878941 -0.2430651 0.34186262 -1.5802805 0.34034774 -0.30884045 -1.0923886 -0.49943155 1.3519179 -2.096929 -0.18674949 1.108951 0.12958477 -0.69517004 0.6146013 -0.15088986 2.884819 -1.073121 1.9996984 -1.4486877 0.7265635 0.5151501 -0.8824323 -0.77961844 -3.2554045 -0.22074454 -0.597035 0.017257722 0.6044317 -1.1969391 1.0149219 -1.2972001 0.53782654 -0.07074354 -0.041743945 -0.2989082 -0.7959537 0.454124 2.29816 -1.907826 -0.054117434 -0.47126538 0.34640172 0.8566219 0.67223024 -0.517228 -0.8806078 0.6103622 -0.24254765 -0.40503407 -0.010053186 2.3440018 0.09592728 -0.0525755 2.2103977 -0.54112417 -1.1602211 0.14131865 -0.16886948 -0.6971483 2.9034283 -1.726659 0.35723403 -0.028562412 1.3530524 -0.7814919 -1.972869 -1.0092846 1.4032807 0.49514872 0.8214644 -0.539502 -1.6157718 0.9510039 2.1471343 -1.0720781 -1.0786821 2.9576325 -1.9282241 0.6151813 -0.874227 -0.22082825 0.18334985 1.2728611 -0.6432113 1.1492891 -0.30220369 -0.7551235 0.15210916 -0.53094804 -0.79072636 -1.7165645 -0.10681413 -0.5506923 0.5866794 -0.4350531 1.5939082 0.22818631 1.2229391 -2.13615 0.24676017 0.9292352 0.00034953054 -0.87761116 0.24062648 -0.8931024 -1.6715733 0.5399114 -1.3026147 -0.49052018 -2.1180212 0.1124759 0.0001248175 -2.685033 -0.21843606 0.6249864 0.22211382 2.7707522 0.048599478 0.9589994 0.3922876 0.36956814 0.49540633 0.0742557 0.101973444 -0.7748954 -0.86683 -0.4272013 -0.62659425 0.5609402 -0.34258422 1.221569 0.03770554 -0.58241665 1.1665784 -0.0056196377 -0.08427794 0.9108791 0.5696942 -0.9195998 -0.024358837 -0.3724226 0.30465034 -0.58079714 0.29122195 0.610745 1.0646384 0.38310075 1.2741344 0.39928854 -1.3807106 -0.54455864 -0.29286522 0.91165483 -0.6272406 1.3218378 0.42174253 -1.4241741 -0.40047404 0.3965005 0.23736039 -0.7842888 0.4336151 -0.03964018 -0.61164325 -0.9153926 0.32080793 -0.56148547 -0.1767042 -0.8942137 -2.0600564 0.13455872 -1.0581402 -1.7654939 0.7933408 -0.8865409 -0.17187372 0.38101378 -0.4004701 -0.024705773 -1.1967063 0.0825454 0.6207843 -0.5921284 0.53898627 1.0869145 1.2106824 -0.3813679 1.4198946 0.19856395 -0.26181707 0.69487804 -0.52747315 0.6270815 0.7120805 0.5256237 0.3139641 -1.8293622 -1.4560682 -1.2298329 -0.5687414 -0.46646777 -0.15536985 0.989164 0.44826764 0.7443784 0.25061956 0.9283986 1.7302651 0.086496964 -1.5703155 0.7365624 -0.57662195 -1.4726561 -2.1285841 0.580766 -1.280102 1.1364052 -0.49786055 -1.3692673 -0.03167678 0.83580863 0.0920862 0.3496401 0.61735535 2.1962476 1.4996576 0.7569353 -0.8551837 -1.0431358 0.83317053 -0.007816382 -0.0016855467 0.6537974 -0.81291276 0.8943235 -1.3968129 0.16405596 -1.8613605 0.29491022 1.0884279 0.1794653 0.12752435 1.978481 -1.4056172 0.3999703 0.8793953 -0.45660117 -0.6954278 0.97168833 0.5385643 0.07139609 -0.03855673 0.30056238 0.06123087 -2.0215886 0.17097014 -1.2994536 1.159796 -1.7668264 -0.42310053 -0.7330667 0.2990049 0.9688172 0.69447505 0.3909549 1.3956821 0.22751833 0.20241989 -1.3000124 -0.62978315 1.2081457 -0.12937419 0.22193304 -1.9204274 0.08862119 0.65862644 -0.01598582 -0.15687902 0.51585925 -0.17240109 -0.981988 -0.12922944 -0.80976105 0.21541554 -0.95759356 -0.39362538 -0.7194122 -1.2068503 -0.33998317 2.1930962 -1.3614529 0.16838361 1.5836632 -0.8827378 -0.9941509 0.021983473 0.706464 0.011133365 -0.44506434 1.3495862 1.1440258 0.40004307 -1.1189802 1.6237721 -0.015168553 -0.20857032 -0.18176891 -2.381996 -1.1332383 -0.2872933 -0.84145737 -1.3150909 -1.7722951 1.3207793 -0.45300218 -0.8050206 0.07976306 -0.7014707 -0.22957826 1.4476479 -0.32109192 -1.9459677 -0.0047829915 0.86019087 -0.32307196 -0.5241202 0.49332777 -1.18778 0.33124608 -1.6309347 1.7200779 0.70710516 1.7171692 -0.41586992 0.27892902 0.280932 0.9715026 0.22072187 0.706157 0.63860554 -0.5021052 -0.2095305 1.0616721 -0.3769646 -0.10891457 1.1506512 -0.3931143 -1.9178581 0.07827482 1.2670531 -2.1430507 -0.0059208134 0.3210637 -0.83718675 -1.5176864 -1.5162218 -0.53761 1.7358073 -0.25149944 -0.1121439 0.043675 1.5798203 0.6741205 -0.5127346 -0.1863085 1.686891 -0.09348274 -1.138095 -0.98838085 1.5880698 2.7286916 -1.2670373 -1.4396206 1.2529734 0.24828169 0.7862753 -1.8618486 -0.5965971 1.4036746 -0.7273821 0.28169978 0.007186611 1.1821704 0.7403216 -0.6094908 2.0483277 1.7101697 0.26625407 1.3619056 -0.46310925 0.01639692 1.683059 1.5593655 -0.86838865 -1.6758074 2.1873002 0.09137055 0.80978817 -0.36698154 1.6694402 -0.42378715 1.1735353 1.3055912 -1.4438547 1.4910308 -1.2853128 2.1725638 0.40497857 -0.60556245 -0.295822 0.27071914 0.070492975 0.46265927 -0.16330542 -0.5266357 2.157218 1.5434324 -1.2064309 -0.9926769 0.18850943 -0.9018882 1.0310004 0.80848694 0.68061393 0.2748395 -0.7358165 1.0378673 -1.6007085 -0.55430835 -1.9556139 -2.04366 -2.7057095 1.2150635 -0.645662 0.1401201 2.1011143 -2.1138928 0.284729 -0.47057384 -0.16935569 -0.90147644 1.1171901 1.197349 -0.539757 -0.13143842 0.63429475 -2.2766824 0.063884035 -1.0084562 -1.2530233 -0.16745679 1.963089 -0.3719091 -0.29703617 0.3922018 0.914634 0.8289256 -1.2412137 -2.003815 -0.49361518 0.74941593 0.19487944 -0.4184961 0.31212622 1.6420212 -1.17921 1.2593888 1.1256377 0.49914098 0.04518726 -2.5395887 1.0350215 -0.79457885 1.5082055 -0.63006294 0.35206726 -0.58207244 2.6905591 -0.25005528 -0.45127028 0.20186308 0.30330703 -1.1945894 -0.38362014 -1.2032841 -1.1463481 0.082226254 -0.49262422 3.067528 0.08565753 1.1111294 -0.6126117 -1.3452883 0.3082245 0.07984953 -1.9076661 -0.35831368 -0.5411662 0.69450384 -0.811644 -0.10096763 0.77384394 0.44223267 0.7170078 -0.29533097 0.7222751 -0.008152552 -0.7211824 0.64693964 1.3318597 -0.43441424 0.013863832 0.13693309 0.7256453 0.38455915 0.35180765 -0.43612897 0.44894233 0.28443328 0.80415535 1.2239546 -0.32590726 1.1166465 -0.92716306 -0.12948644 0.20536405 1.1233706 -1.2586997 0.4306515 0.51667964 0.111368425
jumpdest 0.6283046 5.835327 1.4440309 -2.3374898 0.53848404 4.5463796 -0.42186245 7.772484 -0.60067886 -1.3961409 -4.952083 0.5108122 0.2553722 -0.58950144 -0.4354304 1.0639899 0.2001445 -2.3358564 0.4853675 1.2348316 -0.6303228 -1.7744102 3.7696095 -1.982369 -0.6290394 4.468851 0.6531747 -1.1242716 2.7503588 -5.150621 -3.3989446 -0.3051147 0.9421917 -0.3917337 -2.8338122 -1.3919562 1.4322137 0.55011845 -1.8398764 2.0969274 -1.8858541 -0.98322606 0.4178306 -0.5957167 -0.10129443 0.19497724 1.9078758 4.4389243 2.8939195 -0.60108364 -0.517752 -5.582128 -4.5391145 -1.1576103 4.3900685 -2.710682 2.8893492 -0.48852333 -0.27351007 4.7370124 -0.099521175 1.900138 -1.4962589 0.2759823 -3.44828 -0.53299546 0.33469567 2.8208811 -4.173105 -2.9378815 2.2388737 1.1254088 -2.241353 -3.5737026 1.5611709 -4.5741653 0.7765196 3.626295 1.9605997 -0.9000138 -0.73071426 2.010081 1.0373963 1.1402491 -0.48397094 -0.29337537 -0.31176797 -0.23316054 3.8782403 3.5371575 -1.4663833 1.7921357 1.9944427 1.476085 2.0111735 -1.2751545 -0.30057552 -2.2558014 -3.4132235 -0.56782407 -1.3059448 -1.3753016 1.4308174 1.3560747 0.71905696 -0.26580814 2.4139862 1.2694031 2.1551626 0.3398666 -2.3504333 -1.1417316 0.91758895 0.26181498 2.05067 -2.3355536 3.4202695 -0.32996494 1.2124803 -3.675511 -1.9457237 -0.2920264 -1.0703553 -1.5398452 0.50426143 -3.281458 -0.762733 0.6412103 2.0765169 -1.0247976 2.9954896 -1.1214269 -1.2553415 -0.9521386 -1.3207101 2.8708293 -0.64109045 4.433466 1.280255 1.5000471 -0.22750235 -0.5156748 0.3711863 -0.8161266 -0.9513349 2.9769185 1.2433754 -0.74636376 1.3707036 2.6789327 1.2157149 -2.0395865 -1.818012 -3.9297945 -1.8433416 2.4571311 0.40625954 2.0904613 0.06606224 -3.1434345 -0.7857556 -1.9424926 0.59226304 -0.018258052 -1.1440002 -0.24320908 -0.6134503 -0.1302316 -0.4138539 2.5304856 -1.7433424 -0.29195955 0.24762282 0.2514338 -0.51667166 0.44596753 0.28453007 -0.33637264 0.6712862 0.19452798 0.4840502 0.8638054 3.1827688 -2.7353697 1.7364427 -0.6221983 -1.1454984 1.2189885 0.6679971 1.047925 1.1479845 -0.7355583 -1.51956 0.7736174 0.073720746 1.9457235 -0.05991797 -1.085509 -0.16185565 0.22777951 -3.2444677 0.035329748 -1.067899 -2.1288657 2.8460186 -0.82916397 1.0377245 -1.3780589 1.7452854 1.7700598 0.4514308 -0.0190411 1.813159 -0.5205276 2.108262 1.8337067 -0.038634785 2.775691 -4.080795 -0.13580178 1.9546545 -1.7295712 1.3856603 -0.859402 0.99553406 1.5057726 1.7759491 1.1295403 0.6054138 3.1107244 -3.0673287 1.0759953 0.886614 1.946727 1.7077992 -0.4462307 -0.32878143 -0.21189512 1.0839887 3.5453897 -0.12846187 1.6454799 -0.262207 1.7807366 1.5322208 1.217485 0.85504144 0.6615917 -3.7025628 0.51418555 -1.3181905 0.8456847 0.29262763 -1.5949504 1.2542323 1.6791085 0.5264907 -1.4301616 -1.0121479 -0.79228336 0.53255355 1.6979614 -1.044486 0.69469965 -0.61160946 0.9581833 0.8450357 0.72637093 -2.419165 1.0119376 0.70183855 -1.4547358 3.4386585 -0.6828609 -4.6248646 3.0494168 -1.4717607 -0.13067032 0.115003034 -0.13514161 -1.1047933 -1.6647327 0.9235814 -2.237244 0.97196054 -0.5507135 -0.77778846 -1.9162978 0.72835875 3.0832746 -4.2598534 -2.512904 -1.0475804 -1.872962 -1.1759936 -0.68821955 0.89299136 -1.64969 0.75368965 0.18197028 -1.6243808 -0.26346552 2.5759587 -0.01450924 -0.7747637 -0.30375025 1.4497799 -0.4666464 0.689957 1.0909511 1.6901102 2.7858431 -0.9926508 3.0798237 0.82598466 -2.3737247 1.5834605 -1.0051752 -1.7282187 -2.3899615 1.729716 0.27399212 -4.0387907 -2.5746439 0.32320544 0.123530075 0.64871055 -0.15991172 0.10067439 0.113537624 -0.23340966 2.223414 3.5700924 -1.7696463 -1.3893472 0.818958 -1.1408964 -0.26116222 -1.4529761 0.5711415 -1.5432082 -1.5183473 -3.1784663 2.1178813 -0.20536335 1.0354443 -0.89009184 0.3720497 1.0029402 2.9021738 -1.416867 -2.127596 -0.22881554 1.1211666 1.2020283 3.040811 -2.3896062 1.1842284 0.86322093 -1.1032901 -0.29869047 1.1328242 -2.2761834 4.2076316 2.2401116 0.7343318 1.9207507 -2.7087746 -2.2788851 0.71412754 -0.9606525 4.3772655 1.5125626 0.5258084 1.1107922 0.23867305 -2.497492 0.021317288 -1.3870097 -0.3962403 -0.009989751 -2.0937529 -3.1677222 2.2679095 0.23697257 1.5827869 0.90258026 0.6326717 1.9634229 -0.057098567 1.4268813 1.6170932 -0.5455658 2.8457956 0.43703562 -0.3480198 1.6088394 0.26155502 -0.8569067 -3.3825107 1.4857446 -0.5550918 0.49548507 1.0206121 0.5635756 -0.31697074 2.8241186 0.95114607 -0.43403277 1.4149617 1.1390733 2.5283945 -1.0485207 -2.2223225 1.2907913 -1.820392 3.4174929 -0.020909438 -1.8045223 1.1363525 0.8705184 -1.7655023 -2.5193374 -1.3512161 -1.1817999 -0.15293306 -1.4617884 -2.570257 0.34914637 -0.38749635 -0.40506166 -0.96985054 -0.5065958 2.4427953 -0.5488242 2.1442215 2.3310487 -2.815056 0.070707664 -2.035184 -0.93856597 0.0921306 1.3543607 -5.2342153 -2.341059 -0.93141377 0.7616764 1.4214339 -0.561292 3.5059862 1.0950176 -2.8252466 0.47482106 0.31252667 -1.1796383 2.2962747 3.453476 0.20950253 -0.13074814 0.3281896 -0.16220494 -0.9908394 -0.16475958 0.8272217 3.441416 2.4713738 -0.74042314 -3.010654 -1.1539193 0.22734806 1.1482891 -1.9440377 -0.002296441 -1.6139926 1.3353621 -1.1121193 0.95706666 -0.6546202 -0.99588877 0.56345886 0.84009594 0.1418495 0.23287039 1.7441815 2.5182602 -2.2244904 0.24452227 1.4831406 1.0649159 0.5091324 -2.2213974 -0.9319773 1.6071432 0.76006585 -2.4954324 4.969152 -0.8807287 0.7819994 0.31857726 -2.9761772 0.5360518 -0.96520513 -2.4650378 2.360185 -0.66419053 0.8318538 -0.13899928 -0.6167978 1.436888 0.43866715 2.8188624 -1.273185 -0.82773614 0.8186545 -3.0418007 0.014040864 -0.27345112 2.2659645 -1.0666571 -0.41675922 0.6878497 0.8220212 2.204593 1.072006 -0.7302426 -0.2556079 -3.329336 0.5671895 -1.5828221 -1.8534443 -0.22842531 -1.2526613 -0.23875025 -3.5566647 -0.17035246 0.43087992 0.64976573 -2.9728887 -2.33369 1.2223971 -1.658693 1.0486506 4.429004 1.1249037 1.7252028 1.4394375 -0.00023878977 -1.9324522 0.13009606 -1.2749202 -2.7380638 3.0433803 -0.4196494 -2.6902494 -0.75524926 0.6953298 -2.603374 0.81847423 3.137285 1.2599279 -0.5440294 2.693671 -0.72478193 0.28785917 0.73988247 -1.5835449 -2.783183 1.5374613 0.01315763 -1.9101173 0.35202286 -0.4208003 -4.0081806 0.5643302 3.071337 -0.035297822 0.78793496 -1.2851336 2.1560361 -0.53726894 1.7304703 -1.4853212 -1.968413 -0.8009058 2.3638787 0.42896298 -1.0057853 -0.28401253 -1.1844927 0.7882589 -2.9829342 1.2756675 0.047090687 1.1903114 -1.4697608 -0.9033771 -1.0578195 -0.05314407 0.70364255 -0.5042579 0.8086287 -1.1167543 0.35882497 -2.6125915 1.2048185 -0.8630905 -0.28110343 3.5371134 -0.7736605 -1.8864502 -2.4206603 -1.1543719 -1.188895 -0.80894566 1.3958344 -0.10978775 0.33344 -0.9429246 1.9402168 0.7664087 -3.6707375 -2.0134995 1.0888655 -2.0069911 -0.463599 -0.10133093 2.873832 -0.8553119 1.153191 -0.2201343 0.07350072 -1.9399518 -0.121046215 -2.9184887 1.3697002 -1.0577313 3.0547843 0.8630379 -0.6304823 -0.32285327 -0.96365136 3.8845048 0.59325135 -0.4556349 -1.4340057 -0.034522645 1.0786703 -1.8338566 0.5895933 0.4989965 -0.54997385 2.063691 -2.7197642 -0.16231464 1.7344089 0.56505656 -0.53505933 0.40957043 0.5382098 0.46704128 1.129492 -0.30496392 -1.4494462 0.5682118 0.37342855 -0.18991303 0.0850004 0.11784469 -1.7469611 2.6445556 1.6946695 -1.9724603 -0.16308859 -2.276465 0.93956274 1.411655 1.2767757 -1.53133 1.5443207 -3.257702 3.7824547 -1.9297266 -0.61139876 0.5009622 -1.3366307 0.5775609 -3.5043724 0.16385454 -0.07691377 -1.923427 0.29371026 -1.3191044 0.14736979 2.3818762 -1.6195242 -1.1910039 1.3670511 1.12587 -2.0873315 -1.5658197 -1.1777 2.4887774 0.13005523 -1.1921937 -0.3948889 -0.6409006 0.43951356 5.2069955 -1.694385 2.531631 0.9873468 -0.08483408 2.5743072 2.5789266 -0.9344417 1.8236916 -1.0998846 -0.04954997 -1.2078642 0.9668264 -0.15048602 -0.36502913 -2.1243985 1.6992662 2.6808136 0.37152174 -0.78235674 -0.06781116 -1.3051841 2.4428728 0.9635266 -1.9942259 -0.7155662 -2.0604572 -0.31316385 -3.0027862 2.3267756 -2.2315276 0.83509207 -0.13293853 1.8340108 -1.4478254 1.244672 3.3444982 -1.3840216 -1.732448 1.7411053 0.30134204 -1.8684391 -0.27973342 -0.8515 -2.3232293 -3.7328622 0.84595615 0.5076747 -0.54310083 1.0013304 -0.4901935 -0.5419522 -2.957371 1.3972907 2.5620372 -0.695878 -0.82671064 -0.57259446 4.012014 1.0783918 -0.94687057
jump -5.682416 4.7140393 0.6270435 -3.5014093 -1.9165506 6.086907 -1.1767112 12.144328 2.1093926 -5.523236 -2.5142393 8.144129 2.3090267 -1.3673799 2.273597 -3.9826362 -7.638761 -0.15105969 9.12239 2.654935 0.20672019 -11.006003 -1.220173 0.1341376 -0.6569242 -3.9155588 0.9430837 -2.3109508 4.826984 2.2736657 -0.112348296 6.093097 -1.5377882 -3.1286042 -0.23278622 -1.0332601 4.2373233 4.347648 0.21064787 4.4199896 6.365166 -0.2792605 4.6332603 2.3177166 -3.0795095 3.3938763 -1.8107483 0.9226583 2.8339088 -2.3238778 0.30855185 0.8642471 -3.6662254 -3.535551 1.454007 -0.31711543 -2.8691475 -0.84377235 2.644222 4.9627285 -0.7252806 2.155331 -7.34698 1.6717057 3.789757 -0.7742539 -3.2898445 -0.29856446 -7.719447 -2.9082384 1.0457311 -1.5422226 -0.008474636 0.43318602 2.1492686 -4.459955 1.302647 -0.13374053 2.549188 4.3427844 -2.8024025 0.48463857 4.250412 3.7276313 -3.8478174 2.8830438 1.4787581 -1.0674103 0.56284726 -0.13559921 -4.3872414 -1.2676743 2.291771 -0.31494886 0.8834466 -0.27833468 -2.1760054 -2.9204776 -4.9965615 -1.4249436 -1.0993574 0.3855026 3.3345592 2.254722 0.43112177 -0.6016478 2.6377444 1.1682922 3.4005044 1.234097 2.0342765 -0.41182974 0.911458 -2.7174044 -0.7896413 -1.6068668 3.048788 -2.3531117 -2.5329297 -3.6676152 -1.365664 0.096308656 1.3236556 0.34868565 -0.1445841 -1.5385568 -1.7568283 -1.8416483 5.233766 -0.43972474 3.2333703 0.8528486 2.3475804 0.8954724 -4.455355 5.846976 -2.4018357 3.6492684 1.0983958 1.5843933 0.62630635 -0.06064795 -0.14928927 0.73573583 -2.4967473 5.590619 -0.31644452 0.102802426 2.3335156 -0.24324907 0.1313107 2.201404 1.000229 -2.0309057 -3.9863205 0.17587073 -0.80746496 -0.82031274 0.4220989 -2.8832257 0.3774159 1.5055995 1.6512817 0.25885692 1.9383531 -0.35321653 -1.8072847 1.153293 -5.002402 6.9133554 -1.3811934 0.9374565 -6.053296 -1.3804209 1.2773933 1.4222085 -3.3271637 -1.016087 -0.04188808 0.26452228 0.43389812 -3.101258 4.293698 -1.603269 2.3863122 0.7160699 0.98839647 1.192123 4.08261 0.35996416 -0.3967645 -1.184454 -2.0676792 -0.9643966 0.42596734 2.3479218 -2.1315887 -1.9191033 -0.17046498 -1.4341033 -4.3798914 -1.6348972 -1.7178919 -4.244923 0.1408461 -2.420542 -0.93983734 -0.004316791 3.2865329 2.489222 2.0436866 0.5614942 1.0595074 0.070054226 1.5314302 1.7900934 -0.2403828 3.5423188 -4.1819835 -2.5729868 3.698424 0.22711611 3.1246498 -1.0091101 -1.0674549 1.6248065 2.4285946 3.5935335 -1.0296808 0.7794819 -3.583156 -0.7575544 -1.2127886 4.3930235 0.48802322 3.1500518 -0.46544823 0.77948445 0.21448764 2.716573 1.5354524 0.37035847 1.1117958 -0.8394545 2.2844446 2.199765 0.46699297 0.5544339 -2.7222059 -0.14700417 -3.4593067 0.9777044 -1.2905966 -0.4009754 -4.602399 -0.6050049 0.027108906 -0.5379606 -3.5327578 3.1707745 0.36926863 2.6347432 -1.244991 -0.050108317 -1.0349677 -1.5803134 2.3883154 -0.5213899 -1.3143108 -1.3619189 1.5309061 -0.5061582 2.905479 -0.98641586 0.7828973 -0.45540124 0.23934293 0.6138563 -4.006715 -2.6991053 -1.7218134 0.29608324 1.9219849 -2.7850134 1.5992851 1.9849825 -0.61928326 1.7578984 0.513424 1.7366389 -1.4989972 1.9378903 1.85589 -0.26652664 -3.2668588 0.7292449 -0.96483696 3.897094 4.6767187 0.8913018 -2.1337473 -0.10604955 2.0730686 -3.5526712 3.2296164 -3.2393079 0.94282633 -0.11651256 3.9096467 0.58754146 -1.4001974 0.62947094 0.03085643 -2.4815736 -0.012704299 -0.8517057 4.4813576 -1.0944593 -1.4016302 1.1683211 2.5870836 0.13141577 -0.37887847 -1.5168132 -2.1117291 -0.9562148 -4.366968 -0.3533142 -3.5124323 3.3769155 1.9153532 2.9639924 0.3344237 0.90468806 -2.7563798 4.0484133 -1.0029186 0.5734268 0.11148787 1.2219152 1.6450164 1.7547624 -0.3657248 -0.44063473 0.5970906 -1.8670347 0.14785723 -2.8052895 2.2741237 2.6749868 -0.4785721 0.92147654 -0.4140979 -1.4492401 -0.022608455 -0.9876033 -3.9822662 0.07394632 0.36754146 1.6039271 -1.6898855 1.9674745 -3.1051517 1.7658255 0.3945112 -2.2437205 1.6036893 -2.1422694 1.375811 0.9779949 -3.7949262 2.2965171 0.7876593 -1.3638954 -0.650821 -0.9939073 -3.5587194 0.1946681 -2.164995 -0.7750871 0.7927652 -2.5478146 -0.5688336 -0.28193864 -2.5537276 -0.34988275 -1.3301241 1.2045085 -1.7684344 -1.5676452 3.0110416 1.0035774 -0.9578864 1.1248394 1.4729711 1.3356587 -0.46680543 0.5261281 -4.302974 -3.04613 1.6331731 -2.3430777 1.3655936 -2.634239 0.21104816 0.046719756 -0.071965836 -1.6716167 -2.9584837 -1.5944829 -0.5208565 3.6483333 -0.88964456 -1.8995559 2.1568067 -0.222 2.9919157 0.28895196 0.8531561 3.7496064 3.22867 -1.1602994 -0.9997097 2.5270495 4.467655 1.4786278 -0.96671957 -1.1832111 2.782326 2.2195897 0.33059183 1.7437227 -1.1437554 2.1731772 -1.925576 0.7480798 4.5412354 0.36371663 4.4182997 -4.388658 -1.6395906 -1.1999863 1.0832602 1.1338103 -3.9305394 -3.8435595 2.5981784 1.015731 -1.0406559 0.67547697 1.2387568 -3.028215 0.6518811 1.2187628 2.262386 -2.3316092 0.13651331 -2.4558706 -1.8264122 0.19038512 -1.0042446 -1.8945811 -2.9393795 -2.4152033 2.5570223 1.3610713 0.29601422 0.15360044 2.5923457 0.43395716 0.55483544 -0.29311928 -0.23840265 1.0452523 3.0945532 2.0877657 -1.2297028 0.8961462 3.7062695 -0.5406193 0.6625032 0.5939335 -0.58943534 -1.0491724 1.961665 -2.7582924 -1.335278 -0.26570302 3.6574838 -3.079598 0.45884478 -1.1955711 1.3091434 0.06056838 -1.9618673 1.7393051 1.1546986 0.24130845 -1.3171338 -0.6678675 -3.7211688 -0.22096795 -6.7744007 0.53138685 1.5729746 -2.4590106 -1.6087272 -1.4875194 -2.5445993 0.64229167 2.1159577 -1.1784405 -0.2668763 -1.6200328 2.2342868 -0.33403203 1.3881594 0.011951252 1.4082212 0.29175374 -1.3624084 -1.6949005 0.083392635 1.5502727 -4.724372 0.6087111 -0.368468 1.3672287 -2.2054608 3.496921 4.324159 -0.8237329 1.4996597 -1.3727149 0.15492883 -2.6810238 4.886772 -0.5500916 -1.4869962 -1.1147424 -2.2129192 2.4069889 0.19338883 -0.7687652 3.006109 1.7378277 -0.8264447 -1.9089807 1.373652 0.6010795 -1.4839631 1.2273618 -2.493067 -0.1151662 0.41165313 2.6012533 0.06401486 0.22742721 3.6099615 1.3289064 -2.4128115 2.4842367 -2.0237186 -0.8178246 2.0988479 1.139711 -1.272734 -0.35290816 1.0895562 -2.5946207 -2.0571694 0.1670784 -1.4886221 -0.48655373 0.47131127 -0.60991013 -2.5740008 2.6054347 -0.28932792 3.4178774 -1.9583652 -1.5988412 1.8886698 -1.4417388 3.0981643 1.9048306 -3.010266 0.79504883 -0.7663975 0.24487868 0.39892668 -1.9073006 -1.4414765 0.36248288 -0.33978167 -2.8188174 -1.0118221 -2.0633507 -1.9964573 -1.827211 2.6053097 -1.6557312 -1.6145657 0.7768642 -2.5652347 1.4229743 -1.6430528 -2.1276622 -0.049592108 0.70571965 -0.11341976 0.58309406 -3.4383554 4.6338906 -0.80710614 -2.3630564 0.052057274 -2.1785989 1.1816231 -1.4891216 -2.2285316 0.06097938 -3.254441 -2.248105 -3.0695696 -1.8732197 4.341054 0.8196177 -0.93240225 0.9423861 2.2164974 -0.55027735 -1.9124779 -2.6133394 -0.33757973 1.0069989 2.1193545 1.3512372 0.047537524 0.92621416 1.9858154 0.58191746 0.30991688 -2.226935 -1.5926877 -2.8917658 1.3233422 -1.9985983 -0.32079256 -0.5864847 -2.048701 0.75509864 0.6981664 -1.5145049 -0.7669065 0.9274175 0.6999054 -2.506731 -0.78757316 -0.034158308 -2.4093528 0.31002933 3.3981092 1.1399987 0.06808471 1.6526369 3.019777 -0.1292877 -2.8140547 1.351458 1.6862471 -3.6559598 -4.582915 -1.2375641 -4.0580587 -0.8958124 0.17171209 2.4529316 4.7031746 -2.1371613 0.88727146 2.4761875 0.78720915 2.7810614 0.8463236 1.3520321 -6.113768 4.948408 2.5161018 -2.0657315 1.9010068 -3.9703984 0.058287326 3.3245323 4.3265724 2.5574942 -1.7026769 -2.0321808 -1.1574373 -1.7997432 -1.7915833 1.5029241 1.4243658 2.4936738 -1.4855633 0.49429244 -0.23322931 6.0021796 -3.828128 -1.9892875 -0.3280118 -3.023746 -1.5691725 1.2412648 -1.6981915 0.4652043 0.22614342 5.402196 2.1481938 0.7734452 -0.7467865 -1.0101681 -5.1511416 -0.6019179 2.0813363 1.5712992 4.834938 0.9342434 -1.1645889 2.8660185 0.45273566 -3.2285678 -0.44379076 -1.9019357 -1.6487371 -2.5113034 4.5379233 1.1877431 2.8006604 -1.3337706 5.775805 -3.830424 5.36185 6.016894 0.06889867 -2.6787214 5.048554 -2.9157863 -1.7817476 0.1250634 -3.65015 -0.781606 -1.3330284 -1.4559494 2.1115434 -1.2442182 3.682118 -1.8038042 -0.4871422 -4.6365314 1.2379806 2.798803 -0.60434294 -1.8694574 -1.7387487 1.1375946 4.9874196 -5.522826
pop 5.8332467 3.3443458 2.2324164 -1.5288695 9.011891 10.094148 0.53738153 7.658515 1.4195273 -0.28577238 -4.004221 3.9471748 2.6154058 0.34361532 -3.5541282 2.1878562 -4.8370547 -3.996441 1.113687 6.064781 -1.4570166 -5.7202864 0.41025048 -2.8197494 0.93682456 4.219573 1.380134 0.5983128 2.6566162 -2.8497455 0.07843109 2.4755938 -0.6558748 -0.041367847 -5.290844 -1.1768583 2.6398666 1.6386108 -1.1592199 4.8707156 4.7898507 -1.8842816 2.7188613 1.3540643 -2.1029112 4.5997243 -0.98869926 2.5989828 3.2355192 -1.1782736 -5.2910895 -3.684692 -2.7294655 -1.9407787 2.7060852 -1.7541566 -1.3431966 -1.2906735 0.73052835 2.6061034 3.7926033 -1.9105234 -2.9984503 -1.0530145 1.9052258 -2.2132554 -2.056698 -0.24558488 -6.0020666 -1.1401194 1.0670531 1.7227284 -0.11333415 -2.1715527 3.7651846 -4.51545 0.44738284 0.7072542 2.4277706 2.8791325 -1.4813819 3.2744029 4.7146173 -2.1104114 -2.128574 0.43162483 0.5631633 -1.0286554 -1.379883 -0.39703768 -3.1531184 -1.9134244 0.5569759 -1.8439486 3.5957205 -2.7511067 -0.41596016 -3.750626 -2.1475067 -1.639266 -4.6679006 1.4187429 -0.70311403 -1.3579593 1.7438668 -4.3756413 0.75744605 -0.054316938 0.24094798 -1.2134632 -0.82832265 2.0220718 0.07318316 -2.176211 0.15050218 -3.5178063 2.4348516 -1.1606771 -1.6270748 -5.5629244 0.33022493 -1.2591385 -1.0188112 3.5475256 -0.02524464 1.3509761 -1.0615213 0.045556985 3.3323882 1.4185143 0.76032126 1.889579 0.038357474 1.8086731 -1.4331182 3.3923655 -1.354023 1.4245902 1.6522579 0.23900898 1.2991946 -3.2172112 -0.59840125 0.638364 0.74443287 2.0506592 -0.4136191 0.12134292 -0.879332 -0.8485084 -3.6481895 2.1805904 2.6802661 -3.3425932 0.7656948 2.3945255 -1.3989508 2.2925487 2.5425012 -0.9247122 -1.6157033 0.04948773 -0.27576578 0.39541736 0.06578456 -0.6733071 -0.8344478 0.5355251 -3.643722 6.4317765 -1.457909 2.5587368 -4.845688 -3.4810812 -0.18688048 1.1041834 0.35926318 0.38249633 -1.0880295 3.1074538 -1.0815897 -2.8562028 0.6405024 -2.3459654 -3.568022 1.1594603 -0.5064796 2.7250447 1.5520054 0.081217155 1.2207006 -1.9622847 -4.2607427 2.5385187 1.2538887 -0.3513276 -0.21068224 -2.0646853 -3.0977645 -0.6905968 -0.852476 -1.5708411 -1.5407172 -1.6116406 2.0269322 -0.10346884 0.20061544 2.1967227 2.2947643 0.54992026 3.5589588 -1.9588045 -1.5990043 1.6814609 0.19174811 1.7760973 -1.9491044 0.3124723 -2.0717287 -1.4512649 -1.4263264 -0.8848725 0.053824365 0.91123474 -0.6160447 0.24272528 2.2981448 5.706872 -1.345831 -0.7924606 -4.0719757 0.9892286 -1.6467363 1.9139783 4.216291 0.7381444 1.832874 2.8749943 -1.1759543 0.7573109 0.99207175 -0.9921126 -1.403213 0.111084685 1.0068102 1.0647215 -1.7544124 2.9999745 -3.4938269 1.5029577 -1.8907478 -0.08743309 1.1692792 -2.7027133 -2.7121134 -3.0960715 3.3400035 0.9302022 -2.2537718 2.6319053 -0.89037627 2.66696 -3.7171495 0.84923947 -1.5647677 -3.685511 2.139687 -2.15984 -2.3152003 -1.6152908 0.9106863 -0.026754607 2.7713814 -0.7003807 -1.1127179 1.5600857 -2.5123022 0.9580793 -4.2263017 -0.7185268 -4.287711 -2.8402905 1.3016701 -0.5382421 -0.24778199 3.7398412 -4.432855 1.2581939 -1.2572309 2.3748257 -2.64187 1.5811099 0.6177219 0.55072296 -2.866335 2.2413921 0.6983043 2.5126252 4.5546174 0.71258575 -0.43171388 -0.3755898 3.0909603 -1.9014574 -0.31512168 -0.54477364 -1.4094629 0.8881502 2.3716595 -2.3000476 0.17015816 -0.7191827 3.3890998 2.3774142 0.4915923 -2.1965382 2.1620762 -0.24423234 -2.928003 -1.6926541 1.159472 0.31665358 -0.013556619 -0.85058314 -1.9949799 -3.2233763 -2.2112775 1.2388942 -1.8975757 -1.4824662 2.19387 2.4045973 4.815194 1.2337142 -2.0263069 2.4767048 -0.39455393 -1.624546 -0.6754438 3.053114 -1.876518 -0.68712294 -1.5489272 1.1744303 -0.30246636 -0.84473455 -0.49081585 -0.11490074 3.2088964 3.2056932 -0.97535515 -1.7414078 -0.22875443 0.924605 -0.12961459 2.899818 -5.610137 -0.17943631 1.387953 2.0430582 -0.13856126 2.5489542 -2.8465898 4.7657356 1.6940572 0.43898517 0.28223208 -2.4587932 -0.16263254 1.2749441 -1.4215372 3.3353121 1.6573195 1.5214982 1.3490734 0.8742505 -3.0525823 -1.5322046 -1.9384278 -0.62618876 2.193269 -1.0565655 -0.8390467 2.8802507 -0.92897826 1.098714 1.1558737 -0.83771545 2.872514 -3.769811 1.116954 3.564808 1.103251 0.8385204 0.58494204 0.47811097 -0.5720903 0.52405244 -0.6112197 -1.1366982 -1.1623358 -0.011669973 1.3321487 -0.8861441 -0.6265224 -0.6006118 1.0109739 -0.85331744 -1.4779587 -2.1307523 -0.097485274 4.12012 -1.1112022 -3.8977718 0.005772444 0.17595616 2.5612202 -0.7341079 -0.4242736 1.595917 2.3528345 -0.9770277 0.33438545 -1.7566026 2.634543 1.7107108 0.82154214 -3.133494 1.6615639 1.0436586 -0.58767635 -1.1048206 1.0327945 -0.8165586 -1.4253342 -1.07834 1.1313044 -0.80493695 1.0991956 -0.35816565 -1.0665957 1.2740864 3.0438406 -0.7366215 -1.3342903 -2.4741998 0.06548329 3.2993639 -1.7634151 3.5633316 0.19278878 -0.21823594 0.74218917 2.0432067 -0.4361278 -0.49791613 -2.335803 1.4932855 -0.77936965 0.2477513 1.066346 -1.3700018 0.13819818 1.5644933 1.5347422 -2.1200387 2.9398675 -2.3850822 -1.4754156 1.6018001 1.4504023 0.20090808 -1.7461126 0.4586183 0.21109897 0.14123195 -2.3290954 -0.028585058 -0.116790935 0.18064322 -3.5595448 -2.3810773 -0.9934223 1.2225505 0.59056246 -3.1858208 -1.0212643 0.5585828 1.4347272 -0.56826097 2.7784257 -4.263052 -0.52607673 -0.74395657 -1.0116903 0.8864 1.3154029 0.9929847 1.6445018 -1.6548429 2.010361 -0.93198293 -2.0462916 1.6366478 0.046435196 0.2681498 -2.8024862 0.12136092 -0.5141921 0.14496312 1.2954655 -1.5572394 -0.39861378 -3.2050726 -1.7769691 -2.0784194 0.5134829 0.54944366 1.0406849 -1.213096 1.2983303 -1.9901543 0.3925016 -0.50429803 -4.1902184 0.3460673 -3.7026505 -2.3247504 -1.13144 0.60128474 2.0275347 0.29461226 -0.37373865 -3.3827004 1.684226 -1.9323089 3.99154 -1.4642054 -3.1435666 -0.2485634 -3.5256681 2.4385712 2.0304098 -0.095041774 2.2522326 -0.475765 0.55436605 -4.30045 0.8907015 -0.9757329 -1.1793383 0.8914224 -0.5869301 -2.5777693 -0.9428428 -1.0839443 -6.091475 -1.0660837 5.9069924 0.49426085 -1.4818643 1.3047183 -3.1496677 0.31929198 2.1033812 -1.0525988 -2.0582802 0.73441017 1.5787185 -1.8641835 0.8383114 -1.0588542 -3.1715763 -1.4264667 2.2007787 -0.04993912 0.8471082 2.6036053 0.6351167 2.3616388 -1.2456615 -3.5505228 0.87862074 -1.1561196 2.2429173 1.4032828 0.10843151 -0.77354 -3.6037197 1.1149249 -2.8297262 -2.9755328 0.0746865 2.3199644 -2.3841574 -2.9791474 -1.3213702 -0.3999427 -1.6651374 -1.8876971 0.27909473 -0.8807714 0.6329954 2.0019286 -1.2568593 1.0307038 -2.611793 -1.0513593 -0.06827447 -2.429406 0.37527955 0.15618086 -4.4262094 5.453629 1.0270551 -3.5892093 -0.6679202 -1.7092324 0.49014965 -1.0960542 -4.466771 -1.3265842 -2.7082374 -2.2308137 -2.4748907 -1.8093735 4.665669 0.40057698 0.13251713 2.2582622 1.6039375 -1.9876158 -1.1907451 -4.115377 0.85826594 0.10594819 3.4942122 1.4885156 0.876293 0.10331273 -1.496238 2.4533849 0.49319687 -0.044261146 -4.6827316 -3.5774195 3.0204616 -3.7131433 0.62995005 0.5382267 -2.784708 2.9938533 1.117564 -1.7114736 -1.9482409 -0.11631759 -0.7613352 -2.4290113 1.4684838 0.38857877 -1.7669505 -0.040298734 -0.4113863 1.8432329 0.4530563 1.420615 2.095588 2.0454032 -3.5259233 3.156892 1.3834863 -2.2617037 -3.5058844 -4.482479 -1.3639779 0.5193498 -0.99753714 0.45630896 4.57872 -3.4994226 2.0636442 1.7540463 0.13896511 1.0214801 0.8438251 0.80579364 -4.1344843 3.7886744 1.6391605 -3.7448027 0.588563 -4.3544555 1.0363697 4.421897 0.46812508 0.61476755 -3.6191797 -0.29299286 -1.4436477 -2.2544136 0.7316968 2.2854395 -3.4263897 1.7253686 -0.29061562 -1.2564342 0.5477168 2.9122117 -5.4501657 -1.0818778 3.0001407 -1.5190433 2.3718836 4.5198526 1.1219699 0.8589228 -2.9996324 3.1299987 1.958742 0.6672133 0.1070442 -3.4368856 -5.0097594 1.8861246 0.25618485 3.1893952 1.0053605 -1.3320589 -2.1240165 0.897825 2.0832493 -2.3615668 1.5239685 -1.7930856 0.2766515 -0.49125874 3.34512 -0.6351946 4.2590404 0.25402656 3.7536814 -2.1039038 2.862135 3.9943144 -0.63089705 -0.6987882 5.7683043 -2.1306095 -0.7440745 0.22969308 1.5908854 -0.8805975 -1.5594045 0.103598274 1.2518088 -1.0424694 1.6742738 -1.3788766 0.82577735 -1.6582175 1.7288299 3.166991 0.8789224 -2.4804296 -1.9455361 3.2578704 3.3507304 -4.5715604
logic 2.8764715 -5.1213813 -0.056605432 -2.0749912 0.3337022 -4.7633157 -3.4756303 -8.893907 -4.679139 0.9404213 5.5137258 -0.16402724 -2.1036925 5.0607677 -4.7126966 -3.289903 -4.878368 3.4833806 -2.0414226 1.1702148 1.7645488 2.4033232 -0.424463 -0.53084314 4.605295 -6.259407 -0.15945819 -1.9969729 -0.3724956 4.4418902 -0.579469 -1.2154032 1.1154394 1.1859335 1.4506454 2.4911556 1.2259643 0.25310093 0.39375153 -0.80499387 2.153076 0.7263278 1.9722086 -1.198048 -4.456775 -0.6348653 -2.6957273 -3.3630881 -0.878313 1.4979134 0.13807398 6.000489 -0.80455357 -2.5312154 0.97543114 1.6164324 -3.8671918 -4.2805743 -1.7692932 1.04139 0.99919593 0.14039402 -2.5380754 -4.351903 -4.389884 0.27792355 1.9917322 1.295198 3.8600605 0.7543888 -1.9054328 0.14694501 -1.2000847 -2.089457 0.43610397 1.3575299 2.0025504 -0.7576053 -1.4021373 -2.9618537 0.15443178 2.120205 -1.4634746 -3.079701 0.23746563 -0.5381572 -0.50754696 0.31272605 0.8882976 -0.6405914 0.67585784 -0.078856066 -1.8267065 3.8651717 1.3143063 2.1688836 -4.5829663 2.3745842 -1.6889037 1.6628352 -0.654633 2.8642833 2.0760078 2.661542 -0.91138357 -0.80093837 4.0948877 -2.8590868 -1.5131894 -2.8978536 -0.6917042 1.3514607 -0.5032119 2.4897573 -0.8428944 1.4445871 -3.3106349 0.19730118 -1.0948257 2.6721747 1.2156917 -0.63045263 -0.021183237 0.15349358 -0.10089346 1.8134246 0.02592201 -2.264792 -2.8772905 1.2293688 -0.084656745 -0.77745074 -0.70407695 1.0047756 0.43736634 -3.301617 0.7789888 -1.6198107 -1.0964657 0.5547743 -0.9606879 -1.7648634 -0.5354439 -1.1023128 0.6686472 -0.36552662 -1.5411867 0.9697673 1.8084731 -0.9396541 0.01690582 0.095047764 -3.010217 2.2109437 1.0290931 -0.59119415 -0.43554133 -0.87427074 -0.26597947 1.5052757 -1.1269501 -0.2713835 -1.5483713 0.52399325 -2.7001076 -1.3718662 -0.44841594 -0.7711148 3.3503249 0.6005725 -1.017184 0.81346875 -0.32801494 0.9736717 0.832462 -2.5226743 0.83910364 0.1207039 0.07160949 1.0121466 -2.5534694 -0.107397765 -2.2687676 -1.4574383 -1.4612824 0.47765273 -0.40689307 -0.8002485 -0.40836316 -0.9656319 1.0068446 1.5107167 0.25909066 1.7324322 -3.4933155 -2.1204908 2.1791573 3.7609549 -0.88798517 1.8993623 0.8221762 0.37932256 1.7917427 2.2602856 -3.120434 2.4509685 -0.060517322 -1.8100201 0.5595209 -0.37335405 0.6967416 -1.4961569 -2.578596 0.8964976 -0.04879798 -0.84415054 -1.3979601 -0.30422035 1.7723771 0.76578903 -1.2972037 0.7037184 -1.3251067 -1.4340785 -1.89918 -3.2617934 -0.8068097 1.2983332 -2.3016179 -2.3293564 2.6074996 -2.3417444 -3.033817 0.12727614 -2.2598984 -0.44920275 1.3261538 -0.7501261 -1.9565638 -4.08046 0.9430464 -2.2560635 -3.0357833 -1.1106298 -0.41782182 -1.0165837 -0.7533166 0.068366736 3.862105 -0.70681465 0.74399626 1.3719625 0.4403544 0.5156508 -0.47587174 -0.2961369 -1.4312426 0.7938191 -1.0726095 -1.8515582 -3.9710312 -0.39134356 -1.2190701 1.1425024 1.8433435 0.17668115 -1.4498733 1.2152693 2.1967466 2.5110426 0.99371004 1.1387044 -1.029289 4.6111083 1.0409061 -2.42041 -0.03339167 -1.581109 1.0281528 0.3162239 -0.664638 -0.36599728 -2.298639 1.3678873 -0.19336122 -0.90695155 2.193281 -1.370088 -0.9064803 -0.4965553 1.4348221 1.3574121 0.76211303 2.8447676 1.3711022 -2.0551627 -0.16841757 -0.5039509 -2.9376173 -0.50055844 -0.22215228 -0.5946886 -2.7605598 0.44581458 2.5018506 0.2648713 -3.4741995 -4.4104333 -0.14136134 -0.4458344 -0.31790712 -2.7427173 -3.0042253 -0.4096753 -3.3438451 3.3484955 -3.2754648 0.18976721 1.2334942 0.17749101 -1.9800609 2.5700428 1.9063125 -0.47034854 0.94580203 -3.1688972 -3.676175 -2.16369 1.9109131 0.031533487 1.1899558 -2.8222241 -1.0779866 1.0718012 1.199889 -0.26177087 2.3723884 0.112554714 -2.9580266 -0.2615895 0.83921766 2.5333729 -0.37868086 -1.502302 1.3690164 0.91762424 0.6345681 -0.63773674 -1.1677439 -0.9516981 2.5428798 -0.2844079 0.8564715 1.1397518 -0.7764969 1.8978901 0.65764934 -1.2217168 0.76164925 -0.5528955 0.7267033 -1.5473074 0.96656924 -2.1514916 -1.8817303 -1.3318835 1.5032948 1.4113169 1.9835844 -0.4319881 2.2215586 2.1032584 -4.0247555 0.83778775 -1.622216 -3.773473 -0.87144965 0.01680957 0.5225482 0.5145002 -2.7907515 2.4768891 3.6485612 1.1603171 0.43024197 -1.4632903 -0.65570015 -2.126937 -1.8945789 0.86460805 -0.9408368 0.7925583 -1.6500539 -3.1195037 -0.48087338 -1.1811423 -1.6228545 -0.8345157 0.33202684 -0.9867783 -0.2631269 1.2694327 1.4108982 -0.4506682 -0.30595708 -0.47488743 -3.7957423 2.003348 0.33562914 0.26234326 2.5003161 0.8665721 2.1573591 -1.5063078 -0.57741505 -1.1296976 0.83119833 -0.05560104 3.0187144 -1.1961796 -1.595585 1.336508 3.607701 1.3563675 2.901182 0.85288507 -0.20433363 0.89835745 -0.31198636 -0.2500846 0.9455944 1.088396 0.6879795 -1.4093776 0.090144314 -2.5816336 -1.9365706 1.6231279 0.43685934 0.8365917 0.9614584 -0.01613658 -1.3156793 4.4972672 2.3156667 -2.2097034 -1.1167243 -1.1786313 -1.7533761 -1.425441 -1.2116895 3.6639397 -0.30476585 -0.5925305 0.4386075 -3.0244174 -0.29861325 0.13136251 -2.5047677 -1.677588 0.32534388 0.35546222 -2.1127496 -0.48378882 -1.0645766 -0.7095244 1.3126513 0.07556634 -0.52785945 -1.3497479 -0.85501826 -0.08270318 0.052966606 -0.24309134 -1.7611148 1.1045982 -1.1359792 1.0191303 -0.10343926 -1.5753369 -1.4262652 1.7222774 -0.1284348 0.22792101 -1.250845 0.802398 1.4730945 0.044506602 -1.4264792 -0.09549932 -0.22791465 0.74941224 3.059667 -0.19187059 1.0322047 -1.7555656 0.682328 -1.0269263 -0.6413333 3.6538503 0.2301997 0.7278317 1.9068623 0.697252 -2.2645054 -0.8443453 1.5706356 3.1542642 -0.3530133 -1.1011623 -1.3058971 2.0642338 1.9645352 0.48509946 -1.3666997 -1.0704507 -1.9106501 -2.2653077 0.024890775 0.7212134 0.1958833 -0.23054507 -0.34155175 -0.26659083 0.6265127 -1.1503824 0.21772912 0.7479861 1.676714 -0.7516772 -1.0446177 -0.2714041 1.6617525 0.79360706 -1.5988551 1.432953 0.93398184 -1.5609977 1.0382136 0.69636697 1.4006094 0.25877935 1.1417077 -1.0666155 -2.1521554 0.5213527 0.30163047 2.4176683 -1.7166336 1.8830848 1.8255444 -1.8559713 1.872918 3.1004758 -1.5005568 1.3387288 0.6251994 0.18528719 -1.4719408 -0.8261805 1.089551 -2.1917603 3.082196 1.1826035 -1.8380733 -1.741672 2.9492152 -0.12692988 -1.2211041 -1.0633656 1.3746562 3.0896304 1.7207781 -0.5543716 -1.3745797 1.7666286 -0.14367995 -0.2311518 0.5211024 -2.2935305 1.1379615 0.054597903 -1.1639835 0.6473425 0.9367776 -0.85409653 0.2828062 1.5651945 0.3028188 -1.822741 0.3997777 2.7051349 1.7690903 -0.054165725 -1.4170307 2.0018048 1.4563228 0.02795042 2.115418 1.5539519 -0.9257719 1.3669999 -0.46801156 -0.93653667 2.734185 -0.42797405 2.0187924 -1.8596542 1.2080579 -0.36839867 -1.9258223 1.028473 2.5526516 -1.7006121 0.9063909 0.16502677 0.080327146 -0.5536046 1.6616844 0.39689377 0.91329575 0.47139204 2.7719605 0.8089296 1.0384743 0.9391201 -2.7760348 -0.67341304 1.4803228 -1.566368 -0.6070907 2.6328592 0.8878905 2.28441 0.00076992554 -0.38470796 -1.6682272 -1.4338454 -2.2182605 -1.6013191 2.2328696 -0.33866084 0.11813855 1.4386655 1.2340877 1.6274256 -1.8582344 0.16992205 -2.184468 -2.0293467 0.7570075 1.0812556 -1.608782 1.0139545 0.5133888 0.046331864 -2.769351 2.8785715 -0.69424045 -0.0012406225 0.28876537 -0.7247738 -1.625633 -1.4306703 2.8371277 -3.237209 -0.9215087 1.0510753 2.688417 -0.19290929 -0.3314854 4.1470103 3.3342307 2.0231504 0.46877024 -0.25381577 1.0183827 -0.47310814 -3.796916 3.5224805 0.44143626 -2.6045444 1.0157325 0.54008 -1.2886891 -1.9451112 2.9370956 -2.0810895 -3.6388886 1.3801147 -1.1196835 2.9823568 -0.950425 -2.598801 -1.2356879 2.0671537 1.505309 1.504898 -0.7273801 2.2461338 -0.5193989 0.97081435 1.1826551 -0.22562905 0.15888822 0.8988015 1.7136654 -1.2534581 1.1009431 -0.18818168 -0.7100371 1.4213525 -0.9124361 -2.849324 1.2743028 -0.5377708 1.5415642 -3.468001 -0.27693564 -2.0847545 -1.579418 -0.72479576 0.36066622 -0.9970296 -2.3440115 -0.7579359 0.44374177 2.223932 0.9933237 -2.3744824 -0.43947512 0.099998154 -0.4470854 -0.36218634 -0.84916604 3.2549121 -1.211873 -0.67411995 -1.1243292 1.4949933 -3.5284548 0.5337547 -2.9453347 -2.437266 2.5958068 2.5808315 -4.978505 -0.6445742 3.4949336 0.52670985 0.6531406 1.1787964 2.0356987 0.9666709 -3.206333 2.5475295 -3.2840261 0.22602585 0.27674636 1.8227724 -1.1513098 -0.45229486 0.18595947 3.6595068 0.9527382 1.2274042 -2.869282 4.627579
jumpi 2.530331 3.4729016 2.6908326 2.1171014 9.963781 -2.8760378 5.7328877 2.0349288 6.321135 -2.1029649 -2.229777 -0.090732574 -3.818515 -4.8875594 -3.1219306 2.5620835 2.4700036 -4.3206067 1.7153155 4.4323487 0.30629787 1.899393 6.842385 -4.6070313 -7.1075697 -1.3418537 0.7046956 3.4381893 -5.877343 -6.3249116 0.6546584 -2.4248612 0.82022095 8.070708 1.0184788 4.8520317 -0.8320454 -3.5032508 -4.5155606 1.1786541 -3.970435 -0.6851642 -1.2483664 -0.718244 0.9419703 0.8923968 2.8474853 2.2362053 1.396914 -3.812705 -3.1519394 0.48679093 0.23983586 2.8720272 1.0992017 0.79077584 3.4115674 -0.57191175 0.2825487 -7.632169 1.9374893 -1.9329185 3.1330047 -3.5459316 -0.6428425 2.031807 -2.3869586 -3.5010874 2.87393 1.8647934 -2.0884278 -0.96828413 -2.9476497 0.39384195 -3.152419 -2.1279333 -2.6402075 -0.34447724 -0.85526663 -1.2144312 0.90275264 -0.26519868 0.5333416 -0.90406543 4.038343 -0.1883725 2.1575992 0.35596386 -2.5880656 3.8151696 3.4863462 -3.4634619 -2.7923408 1.5023406 -1.5040632 -0.4252162 1.8000933 0.28731087 4.869153 2.873681 0.3691337 -0.8839699 -2.9589624 -4.389638 -2.1403053 1.432019 -3.8429718 -2.639514 -2.310822 1.6115556 0.3241877 1.6091632 4.2985215 -0.3546999 -0.21344078 -0.16695112 0.2385585 0.607766 -0.6547977 1.0474849 0.26199082 -1.1679722 2.7222426 -0.2681265 -0.43742716 -0.39365932 -1.2869636 2.0533957 -0.8356805 -1.1727996 -0.692809 2.1192534 3.0658894 -0.2530028 -0.23760463 0.36809975 -2.9695237 -1.7760878 -1.9172497 -0.6004594 2.4355092 0.6238645 4.4879146 -0.38609007 0.59561133 0.8855979 -1.3251932 -0.06537855 -1.2545936 -0.14057484 -0.5995443 6.0912614 4.8313584 -2.2483 1.4305844 -2.2943294 -0.91802794 2.2836275 3.3151011 1.5147966 2.5072784 0.30564925 -1.9892644 1.6524756 -1.331631 -0.57596755 1.0999904 -2.959523 1.9246653 -4.257318 -0.6438447 -3.055968 -0.12968753 0.49212855 1.5664737 0.62074107 0.15431513 -1.9716448 0.75892127 -2.1770484 -0.24712598 0.093810424 -0.0961938 1.2245212 -0.545504 -3.1206403 -0.7864654 -1.2328135 -0.3087553 -1.7633586 -2.4136763 -1.300542 1.7418016 -2.6773725 0.406747 0.642526 -1.8681502 -1.9028268 1.8160651 -0.5422482 -3.0462966 0.5144924 -0.35155013 -1.4391341 -0.23234195 -2.291277 0.34465304 -0.9269119 -0.8697311 2.7913332 1.8156669 0.97378325 1.1841807 -2.423483 0.25771847 -1.7632045 3.5733562 2.0627394 1.9182085 1.4420397 2.5082793 -1.8213058 2.930388 -0.35742435 -6.069041 -0.2771787 -4.05095 0.36711344 2.7621272 1.2361592 -3.003341 -2.1559887 0.06992205 1.436548 -1.8366678 0.94800586 -0.11542404 1.644804 -1.4616947 0.5804041 1.5440587 1.3174471 -0.015689285 0.7042717 1.0091484 4.556985 0.24032535 -3.6710331 -0.90645504 -2.28042 -1.3883575 0.13445994 -1.7559906 1.9048698 0.9749109 4.575675 -1.1868993 -3.8404927 -2.532067 0.6655486 1.7499475 0.62620646 2.7684698 -0.08372974 -1.8973031 -0.33457613 -2.5105875 2.8789513 1.6714582 -1.6856838 -1.7102369 -2.1264288 -0.9567519 -0.8987104 0.1622523 -2.2605243 -1.2340755 3.6300094 1.1375209 1.246374 3.0437973 3.1908848 4.570362 -2.5358145 -4.403656 -1.547446 0.33087206 0.321832 1.6800086 1.9531977 -1.038387 -2.8246865 -0.863073 -1.54196 -4.3282237 0.82648885 -0.5457592 -5.154235 -0.046804767 0.70426416 0.029794436 3.600252 3.215524 2.5860183 -6.647993 6.027952 0.7848626 2.9312918 -3.1147542 2.58263 -2.9400995 5.719148 0.65231943 -5.7410526 5.6051984 -4.0669565 0.12560263 4.3453093 -3.5841079 -3.6086025 2.1086988 -0.71033055 2.0881662 6.1025095 -1.3533425 5.0818367 3.450173 2.7147083 -2.3275447 -2.8490276 -1.6516837 3.8454378 -0.004896136 -1.8660331 0.6262956 -6.9476085 -1.2423326 -0.79166424 -0.1975629 2.034515 -4.542009 -1.3294177 3.9106388 -4.667676 -2.4470305 1.2800415 0.98614115 -2.9084787 3.4696596 -1.8479754 -0.39415702 -1.0798554 4.007588 -1.4243063 0.8311815 2.8352551 -0.55577993 0.9381489 0.29330155 2.9206011 0.86782837 3.5988216 -0.035502877 -1.954836 -1.2531202 0.53339833 -4.967938 -0.6910845 1.9791064 0.2170904 -1.1139574 -0.41595343 -0.93784356 -2.464048 -2.2949874 -0.8073636 5.9982266 2.2663023 0.11897594 1.6518272 -1.2058797 2.371357 -0.8787851 1.4780122 0.63276356 -5.144865 0.87386453 2.1085398 -0.109212615 0.08600488 -3.1225812 2.172649 1.6693838 1.281043 -2.6450257 2.0024853 0.0651894 0.8309215 1.6756029 1.9823313 -0.25421065 2.547624 -1.2033243 4.291519 2.6847978 4.636181 3.3811226 2.9657795 2.0948775 0.4069343 -2.509536 2.4520524 2.9272063 2.039823 -2.15873 1.9376785 0.23853366 0.87093395 3.9613266 -2.4599817 0.31448317 0.8213343 2.4828176 -0.6935775 -0.13891374 0.8660496 1.3229192 -2.8027437 -0.41484344 -2.082701 -0.9781036 0.22325356 0.0195942 0.04408291 2.7067835 1.2991413 -0.81341076 0.11715815 -1.1953756 -0.0721297 1.513826 -1.0080991 1.9695507 -0.19951203 0.2386272 -0.50196356 1.3645515 -1.2643611 -1.1241935 0.006756697 1.693925 3.4221425 1.9322667 0.3382556 -1.735104 -0.8402987 -3.0853388 0.49079672 -2.0921254 0.05665329 1.4998403 1.7824045 -0.13614465 0.29144958 -1.4025259 0.639406 -1.1366879 2.028962 1.1857834 -2.2488716 -0.4386227 -1.2180623 0.75548244 -1.8769033 3.1782382 -2.5434456 -1.1681621 0.3910303 -1.2544746 -2.666386 0.94666296 1.1645705 -0.7278121 -0.5054741 0.51778257 -1.3059243 1.1496878 1.2903392 -2.1097672 0.21498585 2.9383593 3.714342 -1.2229366 -2.4333916 -1.6981939 -0.12313587 1.2059689 0.8116358 -2.1681056 1.2997802 -1.6904861 1.6343849 -0.10221624 -1.757804 -1.4005964 0.5947713 2.1696994 -0.032518554 -0.19824795 1.3348802 1.5987785 -0.66308576 -0.4096018 0.5599096 1.8567454 0.8326507 -0.7529661 -0.18084648 -1.3450954 1.3303996 -1.8231711 0.6421221 0.73208964 -2.1266406 2.7278297 -1.0887203 -0.45639986 0.08922537 -1.2647247 0.20189437 2.984224 -1.889314 -0.29899624 -0.6932136 2.1035264 -0.5583835 0.012143993 -1.6020275 -0.7506496 -4.48649 0.10261881 1.8789625 2.7534082 -0.54982245 2.253999 4.3534775 -2.0969362 2.5406554 2.4670994 1.6690559 -2.145441 -1.5813651 -0.6319752 -3.3578923 -3.3680286 2.0375733 1.2001885 2.9750469 0.21761014 2.2816615 0.74068195 3.6174505 0.14923877 -4.528109 1.4363937 1.7962692 -0.16872996 -2.9235728 -0.8272935 -1.288985 1.7835152 -3.3789473 -3.1567774 0.89154893 2.4636075 0.10004691 -0.9457868 -1.3565018 -1.6490593 -4.324434 -1.7634892 -1.281133 -3.3772857 -2.060474 2.4306734 -0.005418268 0.22206777 2.0960953 0.46401197 0.34081727 -2.4359617 3.0759947 1.276493 -2.5799196 1.8660773 -1.9296418 -0.46360838 -1.7004945 -2.1843467 0.6725041 3.108349 1.0168399 -2.2871673 -2.053781 0.5293688 0.71503097 -1.2690701 2.5230112 -1.3573731 6.344765 -3.7281373 -1.5884564 0.2224982 1.8563974 0.34186274 -1.6265993 1.8594892 -0.011809606 0.5674392 -0.28949228 -2.2605507 0.7514579 1.5069294 -1.0793281 1.8416709 -0.17541122 -0.9483073 -0.63122797 -4.46909 -4.035295 0.8857501 -2.5106227 -1.5434318 -1.81374 1.5672837 3.1861634 1.8061004 1.4901216 -3.7380047 1.5617725 -0.5273235 -0.28672162 3.2749004 -7.979565 -0.45943326 2.1280887 2.2042499 -1.5501461 3.2227747 -4.684045 -1.5490326 -0.9027028 -2.0825427 -2.6164987 2.6847582 2.4743216 -3.179364 0.36481738 0.43220904 3.2837489 -0.3411768 -1.4090244 1.3883349 -2.1627753 2.1730516 0.07739985 2.8552794 -0.93074036 -0.1685831 2.2002668 1.7569464 -2.772114 -0.48592597 -0.98208416 2.2510645 -1.9056925 0.13420095 -0.023905324 -4.717401 -1.5489825 1.7969097 1.6601902 -1.2663449 4.372148 0.64414144 3.6467235 1.1778104 -0.85649085 1.289103 1.124376 -0.81336623 -0.6764063 2.1307774 -0.06683667 -0.17161596 -0.20905256 2.08941 -1.1827068 2.086096 -1.2399845 -0.5248454 -1.0790517 1.3519168 -3.0783236 -2.8132477 -2.723774 1.6090829 5.6838307 0.33540022 1.9900347 -3.0548427 3.6906877 5.185829 2.736455 -5.9070396 -4.800736 -2.916177 0.7141759 -3.6943164 1.037181 -3.925686 2.5362024 -2.0660493 0.46589917 2.9273698 -4.6539764 0.6024265 -5.6152015 2.5857651 0.29232633 5.1060057 -1.5753666 2.2013762 -1.6220134 -0.1721149 1.4522728 -0.46220878 2.2649999 -4.830671 -0.042779062 -1.6495991 -2.87706 -2.1517022 -3.453381 1.1216121 -2.6636899 -4.868582 1.4689944 0.34002748 0.75756854 1.3101628 1.3824813 -1.5592425 3.0442994 0.9357491 0.02834876 -2.8071203 4.829831 0.15899497 -2.6569457 1.7827119 2.395722 -4.5331464 -1.7432468 -0.32423535 -1.8338518 -2.0816731 1.2001683
iszero -0.19869766 -2.6602807 2.7703245 0.24013227 4.4808297 -1.281182 7.0989623 -1.9721242 -1.8830497 2.0488017 3.877206 -3.686055 -0.57734525 -0.903398 -3.837448 6.6678433 -0.30658716 -1.132124 -4.2309318 4.3342924 2.6665556 -0.5680748 1.5993851 -3.178282 -5.514369 -0.85050976 3.4104304 3.3464923 -4.197335 -0.09356775 2.3351352 -3.719565 1.4885637 3.1658132 -0.40899467 1.2929934 -1.020216 -2.9824708 -1.375343 1.6017573 -2.455367 2.0938392 -0.6039216 3.1727722 -0.014426232 -0.40017736 0.620351 -1.965821 2.125476 -2.4809167 -1.9399303 1.18075 0.19603829 2.1723034 2.6186647 -1.9296012 -0.8403592 2.80528 -3.419385 -5.56541 4.322264 -2.1249545 1.4555819 -5.09692 -2.2122695 2.7405713 -0.89652467 -0.33165336 1.8803334 1.7833108 -0.97558945 0.5992518 0.032688733 0.3757872 -1.1339247 0.54778206 2.2449944 -1.6767535 -0.029521149 -0.6353848 1.3167762 -0.8339981 -2.2399402 -0.08133633 0.98916095 -3.2356303 -0.58422214 -2.923598 -2.3591204 -0.7484678 2.2896059 -0.9377911 -0.5011999 -1.961976 2.3311388 0.9219168 -1.984465 0.6816629 1.078022 3.8473573 -0.19749139 1.510621 -0.506438 -1.4971632 -0.11026647 -0.29155725 -4.2401185 -3.0323365 0.1990515 -1.9828628 -2.7553406 -2.0863295 -1.8913084 2.3849704 0.025548069 1.7588998 -0.63219047 2.1033177 0.28285357 0.5656756 1.9809873 -0.6300741 -2.1000628 -0.18215097 1.6558068 1.139737 0.7636586 1.0728569 -3.410829 2.2829437 -1.5691482 -1.5039335 -0.7957727 -0.89790344 -1.0027905 0.8869063 -0.58472985 -2.0220573 -0.3399355 0.4653385 1.0863776 -3.285224 0.91601175 -1.2814815 -0.51423925 -1.5845668 -0.698353 0.86275613 -1.4538431 0.06941118 0.7699186 -1.6709856 0.009274609 1.7754903 1.7290361 0.48215997 0.7173821 0.11782524 -0.8772933 3.1679265 -0.83086675 -2.0902836 -3.0318258 -1.003004 -3.0119383 1.9779822 -0.85562354 -0.30278254 2.3745086 -1.2712213 0.17979129 0.2077137 1.5582919 2.6986516 0.1650937 -0.79280406 1.2598549 -0.0057207006 -1.2626654 2.6081755 -0.9058569 -0.009006248 -0.38665536 -1.7609433 -1.7072979 3.3500185 -0.564365 -3.2542195 -1.2291739 -3.209221 1.7207544 0.1414697 0.78173095 0.47739622 1.3307109 -1.9242053 -0.973231 -0.41632336 -3.3430264 0.12518357 1.2628394 -0.7632606 0.64131546 -1.2719171 -2.6267128 0.5345384 1.2549757 1.3061117 0.54766774 0.29602727 1.4010816 0.4243129 0.5725209 0.31584 -1.153278 -1.8389945 -1.8365899 0.006990251 -2.2680852 0.6653443 -0.4106333 -1.1086402 -1.9474937 -1.3991623 0.11059192 1.893403 0.7185514 -1.0431908 -0.1741265 0.66809076 1.5467548 1.2116153 -0.25162002 -2.2557142 1.1892481 -2.8756082 -1.7276685 -0.38604215 -0.6827941 -0.9364046 -1.1616684 -1.5186123 0.40779835 0.77019054 0.56464666 0.07027488 -0.8437138 0.5992595 2.1096435 -0.54088175 2.4803135 -0.47400153 0.23493972 -0.6896356 0.17938359 -0.16788267 0.15099637 -0.01846137 0.1443032 0.10271789 0.23544446 -0.68907046 -1.588396 -0.8067734 0.3887423 0.8179812 -0.93980205 0.30985767 -0.9774809 0.24130851 -0.70654666 0.12038672 -0.36418214 1.568193 -1.9116652 1.9625185 -0.9579663 0.3011284 -0.51106143 0.8453558 -0.20205677 -0.46059373 -0.17899206 0.99010915 -1.9391497 0.2533818 -0.76372427 -0.4858321 0.19851638 0.117723614 1.516562 -0.45489368 -2.0386066 -0.55937934 -0.15999907 0.84516746 -0.7479782 -0.24460611 -1.3367752 -0.9632759 -0.50805986 0.11058494 4.633415 2.4551713 -3.5625021 3.9304833 -1.1652049 4.002103 0.76061636 -1.4247645 -1.001276 1.5282155 1.3749568 1.8976318 3.925873 -0.6652048 -2.3061588 0.9824568 -0.4902396 -0.2723166 -0.05625028 0.8065159 1.402729 0.42400768 0.87043965 0.8641029 0.22335577 2.001456 3.3558292 -1.6166885 -0.4060993 -0.23825733 1.062201 -0.85543036 -0.54576844 -0.107474394 0.98960525 -1.7555219 0.21243958 0.44869876 -1.9335061 -1.8660166 0.14936928 -2.4441528 0.59858257 -0.015951553 3.2912483 0.20190923 0.8835906 0.3012329 0.3944702 -1.0708185 0.1709805 0.70720446 -0.18954565 -0.5015258 -2.3985896 -1.5956836 -0.2062316 0.268909 0.62776566 -0.7790275 0.000512548 1.1004922 -0.7514955 1.0946518 0.16137753 0.67793834 -1.6653477 1.0532163 -1.6838663 -0.356849 -0.54796374 1.6475161 1.7657962 1.8632185 -1.8051378 0.8391414 -1.5614959 1.0187483 -0.013768913 1.4455049 -1.9359479 0.65078264 -0.7647189 1.1231555 -1.0542697 -2.120474 0.78320587 -0.8057751 -1.2534113 -1.2251542 2.3340428 -0.4323614 -0.38021964 -0.5756918 0.6039798 1.5952009 1.0365824 1.250068 -1.1197218 1.7995574 -1.9377322 1.4490278 0.34691823 0.29442516 2.5744064 0.8279789 1.3609136 1.2340914 0.340214 -2.0375834 -0.12685496 1.1476771 -3.5549922 1.5268096 -1.6165503 -0.28006154 -1.6810985 -3.4387953 -0.13939549 -0.92165333 0.13778782 -4.332985 -4.6911473 1.8897076 2.608739 -0.74780715 -3.1659868 -2.3236172 -1.615122 -2.5266278 1.459435 -2.6512413 2.2625165 -2.5215993 -1.8371229 -0.08010849 -3.9226265 4.309572 0.5413242 0.23293245 2.0330627 -1.7193621 1.6882505 1.4472471 0.61892146 -1.2013136 -0.44191033 2.4759386 0.5612009 0.6332115 -0.47998676 1.2073715 0.06862648 4.177309 -3.7054546 1.7998554 0.89911675 1.1558799 2.4054084 -0.8496079 2.0576894 3.6832352 -0.8304206 -1.8815445 -0.5639536 -0.7016886 -1.5990195 -1.8150866 -0.17051485 0.47236285 -2.3538005 -0.23787306 -0.45529744 -0.96550065 -2.4717944 0.23315635 -0.38141996 -1.266401 -3.3141642 -2.9834902 0.8471651 -1.5873598 -0.66323036 -1.0904729 0.19846267 0.5179357 -3.4661696 -0.28483635 5.466293 -0.82387006 -2.7834215 -3.0900607 1.1145667 -2.8994951 -0.38065082 -0.34061968 1.3454922 -2.442388 1.7794304 -0.7217291 3.592104 -1.2237867 2.5220888 3.077038 0.34209478 0.057938352 2.337373 -0.50307906 -4.289446 1.2281873 -2.702954 -0.66207045 -1.3021771 -2.074703 0.09895421 -2.108656 3.6252022 1.3678228 -0.65256613 -0.6193588 1.0537341 -1.8732132 -1.9632246 0.8788509 -2.2783196 -2.3298032 2.5571558 0.12353225 3.821341 -0.59118253 0.029248502 -0.11627686 0.8737954 -0.9095388 0.044197246 0.5221019 -2.617982 -3.305785 -4.930519 0.29547223 -3.3876052 -0.33695558 1.0697645 0.016236454 1.7311046 -0.5457059 1.0573137 -0.024673827 -0.901047 -0.6543077 1.5463877 -1.0151635 1.5789403 -3.2300866 -3.6766849 0.37434587 0.3270714 -0.06718935 -1.3219364 -0.21476138 -1.5900857 0.3491947 2.555446 -3.0231328 1.6670526 -1.9973426 0.66998315 1.6406188 -0.39251485 -5.4336 1.807416 -1.1214477 -0.35718453 -1.3025742 0.27870795 0.026124928 0.61279815 -3.4762762 -0.13103119 -2.3996475 -0.49307778 2.018378 0.038403943 1.2381564 -0.31637946 -0.95515996 -0.88685656 1.1969236 0.6562967 -2.8059757 1.8867213 1.9156975 1.053069 0.19340141 1.2106568 1.6303283 1.0464331 2.1698983 -1.60849 0.19514917 0.20009537 -0.5254017 -1.0642022 4.2436447 -2.4993992 -2.6221156 -1.7782613 -3.2915525 0.768102 0.36079574 -0.613159 -1.4265993 0.3475243 -0.61845493 -1.0938121 -1.9533514 -2.650624 -1.9120435 -2.617576 -0.99640113 -5.2550163 0.43781868 -0.051560845 -0.9285084 0.87206376 -0.6185029 0.00765882 -2.7665129 -0.36705062 2.9484968 0.70231485 1.6390487 0.19264549 -1.0436432 -1.0278966 0.5083202 1.8441602 1.8285102 -0.77302325 -3.4713924 2.5780427 -3.5213957 -2.889992 -1.1096637 1.2151793 -1.1525533 2.880742 -1.379103 1.5780613 -0.8762489 2.7408595 -0.79412454 0.4430568 -0.7686522 2.635242 0.7389143 0.1638249 0.019460129 1.3234589 -1.601197 -2.5959792 1.2321541 2.5137427 -0.34956524 4.408903 2.2393844 0.059719186 2.3928952 0.60283107 -0.22366536 0.3968007 -0.16085465 1.4058896 -0.13021643 0.45017144 -0.4585833 -0.53743666 -4.794039 1.3194953 0.7578762 -1.3393321 1.1222807 2.4520223 0.3974215 1.9412218 -2.3981144 -1.1268476 0.78040016 1.4868466 -2.7657175 -0.5662349 0.31206167 0.5484416 -1.3706045 -0.9173922 -0.87005097 -1.4134864 0.30962747 0.6737631 -2.5107293 -0.4466515 -0.198403 0.048565477 -1.1356671 -1.1766576 0.9686288 0.002074338 1.7965398 -0.14747058 -0.7715527 0.85466534 0.88188636 -1.9920126 0.15157194 1.6482699 -1.2657424 1.266856 -0.015287371 1.3823375 -0.67948616 0.64261574 -1.2487155 1.4743143 -0.04528932 -0.7242795 -4.57856 -0.34632206 -1.6840105 -1.9746752 1.149309 -1.4210211 0.3765759 1.855631 -1.5545028 -1.1900182 1.4927397 -1.3423773 -1.2761871 0.4108027 5.7030087 0.3206597 -3.1779835 1.1574221 2.4498146 1.783333 -2.3741927 -2.5586822 1.189738 -0.09719542 2.4521523 1.4261334 0.77401775 1.6999357 -0.085147806 -1.5610197 0.4236637 0.7436808 2.3538978 2.2674916 -3.0433886 0.03500126 -1.4040191 2.3514366 0.16146556 -3.5323236 -0.1010558
return 2.0130796 -5.518255 5.665955 4.73931 5.341423 -1.8331475 10.24258 -1.9301625 1.1600434 1.9196569 5.30682 -2.9872777 0.9693894 -7.685683 -2.661999 11.612272 2.1733708 -3.3824885 -7.2649765 6.456235 3.3982022 -0.010839553 5.2779737 -4.299618 -6.2965627 3.6616547 3.2757795 6.80888 -5.926196 -0.7255238 -0.31842366 -1.6500564 1.6172915 2.9847002 -1.759138 -1.3108833 -1.6114762 -5.5248322 -2.9653285 -0.48532686 -1.8509836 2.268589 -2.7657073 1.204884 2.5924635 0.77612644 2.8856027 2.0664473 0.68376297 -4.4807053 -2.9373853 -2.8205163 -1.4646349 3.8663578 1.7853216 0.70689225 1.3172278 1.8400774 -2.6951745 -5.515324 1.5876154 1.2076463 2.6551077 -2.5840855 -1.3018144 1.1230676 -1.9782056 -1.1325151 5.1061873 1.5648451 2.0652778 3.3548977 0.27947953 2.1951196 -2.5115705 0.1265047 -1.4988967 -2.5997834 -0.74937755 2.6551993 0.15712132 2.8031466 -2.2500875 -4.786398 0.7400188 -2.9572449 0.19716795 -3.0426466 -3.532013 -2.3547506 1.4921567 -4.5222793 -1.7168812 -1.0791607 -1.6541585 0.8006782 0.37707093 1.0765605 4.107366 7.9716125 -2.344838 0.46934617 -1.0879306 -6.604136 -0.006224159 1.4461533 -3.6410527 -1.806244 1.4844643 -0.77513516 -2.3383229 -3.6342394 -2.598904 1.7520046 -2.0318592 0.7428432 1.1421248 0.71794635 -0.62244636 3.5812743 2.1123848 -6.257624 -2.3692408 2.6691995 -0.27406725 3.6243234 -2.1996787 3.363713 -2.7691503 4.5216017 -5.5262284 -0.1512978 0.9026432 -1.1178489 1.406252 0.74196714 0.07395281 -4.2464905 0.65858716 -0.7733065 1.4106944 -1.8410388 1.9440938 -1.9430048 1.0075297 -5.4247937 -2.6480749 -0.49254242 -1.9895626 1.4404837 -1.4975817 -0.8771322 -0.36534327 1.4883581 2.2984827 -0.87242013 1.1068379 -0.26244628 -0.86013955 2.70655 -2.4897625 -2.6196582 -2.0449643 -1.0429156 -3.2455463 -0.3247319 0.6428285 -2.5565386 2.7555454 -1.4199426 1.9634678 -1.1901276 0.93527675 1.0710884 -0.28008586 -1.6011821 0.976594 -0.9085915 0.6970523 1.2044873 -0.50712425 -1.8064126 -1.326904 -1.9886003 -2.1238334 3.1795871 0.5233321 -1.5642 -1.5682055 -0.5225488 -0.14628656 0.42263773 0.12805545 1.493913 0.24728772 -0.08589504 -1.452098 -3.3559413 -3.8773093 1.2681838 0.06533456 -0.8145652 0.7050516 -0.51828086 -2.5265741 -0.72921324 1.9051311 1.8151455 0.81370014 0.04448197 1.6805017 -0.36423478 -0.91428137 1.0088062 2.4530585 -0.07174321 -0.2726026 0.086363256 -0.2684257 -0.9420431 0.494527 -0.652578 -2.0711286 0.8097366 1.5782135 1.0029262 0.79383564 -4.661169 0.72182363 0.667837 2.6522193 2.8409462 3.4210904 -2.7175531 0.68970484 -2.944282 -1.329512 -0.29117298 -0.8057964 -0.18278277 -1.4006445 1.197085 -2.88833 1.5605655 0.1787765 -2.0175261 0.7617899 -1.2134962 2.1373868 -1.1614442 1.7141294 1.9594501 0.255764 -1.5214485 -0.2215583 2.697796 -0.8206053 -0.29469165 -2.0549312 -1.3274057 -1.364746 0.18557847 0.7892514 0.99046886 -0.45143545 -0.02789459 -2.0135238 -0.56741816 -0.5244588 -0.17301464 1.1900438 1.4475086 -1.4779617 0.55854565 -0.11117243 1.5417356 -0.8263926 -1.256158 -0.6581773 -0.18559858 2.9967642 0.49493638 1.7011435 -1.3353583 0.61214083 1.512404 1.69232 2.5887744 2.9620948 2.5203571 2.478041 -0.74021345 -1.5449537 0.8316484 0.2569531 -0.6457555 1.9422196 -1.536199 0.048376802 0.19509031 0.86619025 2.237935 4.9070077 1.1900053 -3.8203137 5.895485 3.3742707 3.3389366 -0.40121585 1.632104 -0.6774975 3.2515557 0.49905157 5.295404 4.361009 -3.115134 -4.3311167 -0.65411365 -1.7890427 -0.24645028 0.21209311 1.8358203 1.1266322 0.45779565 2.4542923 1.3879607 0.5588415 1.30439 1.0063512 -0.4414229 2.491607 -0.7724532 2.683645 -2.270436 -0.22193955 -3.1446536 -0.27712002 0.63673145 1.7975339 -0.13587238 -2.4622765 -3.2786934 -2.404497 -3.1255012 -2.006541 -2.6299307 1.8550618 -2.747705 1.6049505 -1.8140819 -0.26293567 -0.4761875 0.35160652 2.3307266 -0.6826898 1.1070714 -0.63897634 -0.03981046 0.40931696 1.2784759 1.6629192 0.53119713 -0.13096476 1.1968597 -0.7341617 1.036583 -0.3774588 2.1117187 -2.7060933 1.6445402 -1.0078603 -0.09712178 -2.3939455 2.6342864 1.6501552 1.6824523 -0.02323496 -0.5356971 -2.1767128 4.84622 -1.8840555 1.4908793 -3.9516308 3.301099 -0.7201356 -1.7282499 -1.1811663 -2.2146602 0.4970093 -0.1965496 1.032724 -3.3680108 2.9764519 -2.9865866 -2.5046299 -0.32230926 0.7310799 -1.6730733 0.65599376 3.7495575 -0.32018325 0.4497235 -3.1883485 1.6614661 0.781073 3.9084432 2.426019 3.6702719 -0.1964129 -2.0679898 -1.3195158 -2.749925 1.0987728 0.021383505 -5.993773 0.6566522 -1.5872451 2.793957 2.4330964 -2.0828376 1.0455077 0.079538874 0.80076253 -6.047226 -1.984609 1.0949916 4.3751 -2.9900486 -3.2869143 -0.7702453 -1.9737799 -4.003554 0.86730397 -3.149229 1.2798167 -2.128376 -2.1265562 -0.10567127 -4.704277 1.8809019 2.3365586 -1.9552556 0.53937703 -0.4563178 -0.13164869 -0.09547026 2.191979 0.16290979 2.6480513 1.4383227 -0.042099446 -0.86104494 0.595664 -1.0801396 -1.5651354 3.0056162 -5.615644 2.2734375 -1.1491842 0.78494257 2.08025 0.4850673 0.6319257 3.4487054 -1.5726659 -1.4498308 -1.4762689 0.018355766 0.8923675 -4.2111683 -2.3152874 2.762034 -3.8987145 -0.6921991 -0.94794416 -1.7455891 -2.889551 1.590391 0.21305595 -2.550186 -2.0181522 -2.1614478 2.9185 -1.9078579 -0.46291783 0.11530713 0.6949647 -2.1771488 -3.838494 -0.77125156 5.8321743 2.8081157 -3.6775694 -3.439447 0.024090478 -3.3951468 2.0056977 -0.12625693 0.7684371 -0.187977 2.3351614 0.8724758 1.7216502 -1.0559137 0.35357758 -0.3099125 1.4496336 3.1947865 0.8225214 0.60888964 -0.86033756 1.2454301 -0.19777516 0.7308433 -1.2766862 -1.9113548 2.3333852 -2.925292 2.4133072 1.3540087 -1.846759 -0.22367032 -0.17356236 -3.4475377 -3.0740712 1.3971959 -2.8206978 -2.2797854 1.8982323 0.8522686 3.7481148 -1.6237732 -0.32955715 0.059137374 3.0381937 -2.4139738 0.31656453 0.25957868 -2.0997312 -2.8614106 -4.062711 1.7660025 -1.6104932 -1.1963456 1.6742852 -0.6179491 -0.11908769 -0.376625 0.41035336 1.3281119 1.2657471 -4.075517 2.907075 -0.2805315 -0.07285057 -2.3165348 -0.6808745 2.8235474 -3.5331504 -0.8825633 0.07205398 0.13055064 -0.60922825 -1.7900785 1.4997314 0.12548769 1.3340374 -3.5010388 0.4394824 1.5072563 0.3091459 -3.5863388 1.1738117 -1.8800409 -0.35641217 1.4317191 0.8886299 -0.35179895 -0.7401627 -4.5947433 -1.0260799 -1.5660627 -1.9145343 0.60765547 -0.645426 1.1535034 -0.0330739 -1.5239553 -0.8440402 2.4047792 -0.7628699 -1.8662919 2.3743305 1.1929317 2.8794522 2.5714383 4.16141 0.7990239 2.3623722 3.661595 1.098565 0.038993448 0.68685067 -1.9578774 -2.1687222 5.187817 0.17343038 -2.102012 -2.4359472 -1.4427286 0.6970128 -0.46401873 2.9796357 3.1467261 -1.062995 0.64483535 -1.535844 -2.0093162 -1.3766545 -1.3511314 -2.0741231 -0.1313504 -1.7241588 4.189389 0.3968588 -0.9083568 -0.5568328 -2.3408108 -0.030371288 -3.0674918 -1.0000547 3.052839 2.309181 0.8314152 1.4077096 -1.0285207 -0.3975751 0.037207216 0.29511398 1.5404049 0.8269574 -2.2629123 3.0442936 -3.2089608 -0.95379263 0.35499072 0.62725145 0.05013494 2.9084902 -4.2408113 0.9677686 -3.4517121 2.4584916 0.3868641 -0.9738713 -3.2471867 1.9272274 2.113761 -2.2599876 1.61569 0.4791349 -0.31089148 -0.77519107 0.386705 1.4629486 -2.2933102 1.7554384 -0.36698237 -1.3691977 2.8128126 -0.99438107 0.951118 0.9477312 1.9847738 -1.5214481 -1.9356288 2.2935698 0.99961275 -0.96626043 -3.6629486 -0.051048797 -0.23096222 -0.21594615 0.5098265 1.5686512 -1.1334764 1.2888967 -0.39447743 -1.9071454 2.21057 0.055707198 -3.4970112 -2.329703 0.1535721 0.9375106 -1.9671361 0.6030123 -1.6373307 0.28822175 2.5202487 -3.3364258 -1.6485394 2.1899247 -0.91660947 -3.2793388 2.0183704 0.7385406 -0.64037645 0.36619756 2.2545993 -0.96864784 -0.35407102 -3.6834395 -2.5098891 -1.6548116 -0.995195 2.0824807 -0.705193 -0.52655506 -3.9324467 1.8694297 -0.7951357 -0.7413971 -0.70502365 2.0020218 1.8029419 1.6804246 -3.0827847 1.1356703 0.09282213 -1.8780043 -0.25492567 -5.0074477 1.4093039 0.26355314 -3.0702193 0.75961995 2.4731653 -1.9778148 -0.67010236 1.3750565 1.6619017 0.8492637 -2.425163 0.17035457 1.3417304 -0.22141704 1.0528187 -4.1977034 0.4866266 0.34338397 0.95340276 -0.10209476 -0.49892434 1.9662049 1.8911843 -0.22960684 2.0282366 1.7034335 0.33719486 1.7199656 -1.8106381 -2.2322943 0.879106 2.4006405 2.4383316 -4.138362 0.00359063
