89 300
push 0.74587536 5.310162 0.9285035 1.120575 0.957499 -3.2246134 -1.7677735 -0.5095855 -0.44858342 0.13876612 -0.8891895 -0.76775926 -0.3968313 -1.1340388 -2.270552 -2.9222589 -2.6397324 -0.62365437 -0.6053118 2.870569 -0.030277077 -3.2717695 2.8982468 1.0224768 0.808446 -0.15608831 -0.55847186 -1.9302723 1.7273823 -0.33265084 0.08368911 -0.18958491 0.5770695 -0.8620789 -1.1733503 -0.36431992 1.9066881 1.8140175 0.37449738 1.9012712 -1.020171 1.8194506 0.58102953 0.2200234 0.5217094 0.6877725 1.1798884 -1.875599 -0.12302832 2.4022436 -0.6110782 0.38766938 0.31701428 -2.092912 1.5856959 0.31038126 -0.9676414 1.3367714 -0.41120937 1.5063645 -0.7428142 -1.0097282 0.34059715 1.2491708 -0.117307864 -1.3952106 -0.5407077 -0.34881285 -1.2573264 0.13123214 0.2865386 1.8541534 0.25939757 -2.527538 -1.6603029 -1.1180441 0.59200156 0.17292786 0.9492371 0.8374665 1.0245912 -0.116888195 -0.19122341 0.017937038 -1.0034034 -0.17530558 2.2458322 -2.1706004 -2.152803 1.6362926 2.3609023 0.7831819 -0.95142794 -1.2347242 0.8237002 -1.0077078 1.5124507 1.4751614 -0.52224684 1.7751932 1.1140934 -0.48230475 1.2523267 -1.6100975 -0.64894456 0.65573454 -0.9509426 -0.06831669 -0.24543402 -0.21554668 -1.0290171 -0.84058833 -0.76633286 -2.3310328 -0.232718 1.290618 -0.990363 0.49254215 0.26198024 -0.034995068 -0.28275117 0.37082827 -0.060958307 0.8940593 -0.5996584 -4.926118e-05 0.070303775 -0.32769158 1.1049217 -0.16248706 0.9068531 -1.8809941 1.1457142 -0.5789274 -0.39155897 -0.66464627 0.6440929 1.1706443 0.9628392 -0.6075529 -0.79041547 0.8982758 0.16110235 0.5036035 1.200233 0.45472428 0.5398893 0.3719626 -1.3061867 1.1079183 0.1087889 0.28231746 0.16995335 -1.7982223 0.8158078 0.22073397 -0.5213178 -1.7472469 0.6025996 -0.3397679 -1.325849 0.31912753 -0.12593482 0.7234912 0.5653713 -0.2160088 -0.9428382 0.06342943 0.7114589 0.52844054 -1.1537421 0.3440464 -0.06030429 0.9454757 -1.2699487 -0.2127792 0.057321135 1.325841 0.6130854 0.010712313 -0.44322288 -0.08949282 0.45481396 -0.9322223 -1.3283725 -1.4315692 -1.346603 0.62405634 -0.22950391 1.5373533 -0.9776356 1.1685671 -0.074381314 -0.6736033 1.243914 0.7598715 0.18854111 -0.8526762 -0.10833286 0.85821146 1.5679005 -0.28152004 -1.0551257 -0.04391572 0.64135796 1.3538957 -0.47066316 -0.11523948 0.1931232 0.055328406 -0.6684179 -1.4933789 -0.30343217 -0.433813 -1.4096599 -0.45558724 -0.28979588 -0.58759874 1.5709718 -0.19071163 -0.93417186 0.3757875 0.04517572 -1.4543605 -0.68623537 0.6805193 0.29380423 -0.5759734 0.09309871 0.19289844 0.83458287 -1.374675 -1.4096051 2.442032 -0.83936065 -1.2658166 -0.15580374 1.4066015 -1.0640928 -0.28929383 -1.3208321 2.021014 -0.8195237 0.37938577 -1.6840653 1.102979 -0.72246444 -1.7835282 -1.0351077 0.43661726 -0.9944777 0.22290875 -1.9600421 0.6893498 0.54496694 1.8732328 -0.39930332 -0.44195592 1.1824006 1.0800906 -0.10845023 0.31682512 0.023504011 -0.8022716 -2.691989 0.8762619 0.4186222 -0.2038517 0.90844095 1.5166718 0.7675612 0.4072436 0.25387526 -1.6094681 -1.1010294 0.35881117 -0.25728658 -0.94535583 -1.8230773 -1.2580596 -1.9426566 -0.6509613 0.62062746 1.225287 0.49641204 0.6457211 -0.050213363 1.2069354 -0.35829017 0.1039436 -0.49582046 1.3050121 -2.0093546 -1.1982236 -0.32713926 0.72576857 0.81228065 -1.4663535 -1.4134387 -2.0008373
dup -0.6014261 1.3033112 -1.530998 0.15944028 -1.9766836 1.0760119 0.24785918 1.9153883 -2.8746142 -0.68284535 -1.3546424 1.1635202 0.5474485 -0.45385233 -2.1019993 0.099799596 -1.0945163 0.67544967 0.28862125 -0.15167661 -0.54016733 0.55533695 -0.5055651 1.6113826 -0.3363638 -0.6091762 1.1256018 1.1598952 -0.42971689 1.0823187 1.7760572 -1.8666921 -1.374347 -0.4416615 -2.0249195 -2.425696 1.5000252 1.3593932 0.6496434 1.262133 -0.76992863 1.8202296 0.7778547 -1.0232781 -2.0771422 -1.043648 0.6560246 -1.3748887 -0.65518916 1.2589778 0.48830977 -0.1990215 -0.019815605 0.5195078 0.1230122 0.4492351 -1.2594651 -0.7043673 -0.94682986 -0.17637525 -2.0567436 0.40767497 -0.39289573 -0.01906575 1.533445 -0.053132754 1.70534 -0.12059948 2.0014713 -0.33106005 1.5121729 0.51337624 -1.2278614 1.564831 -2.2170465 1.3729292 -2.1222086 -0.4718624 -0.49487236 -1.0171497 0.13388498 -0.71073365 -0.10193118 1.355768 0.33378372 -0.93815273 1.3651817 -0.90669733 -1.1038457 -0.020682054 0.5217568 -0.22508535 0.42135787 -0.89289296 0.56759846 0.5149003 1.4509141 0.58850026 -0.36368862 0.80616826 0.05177284 -0.063189596 -0.008365238 -2.515046 -0.38754803 -0.55999714 0.31474823 -2.2287502 -0.5035655 -0.48184538 -0.15190944 -1.0899885 -1.3712527 -0.9596542 -0.596005 -0.9562161 0.8639974 -0.39177608 -1.1111975 -1.3600128 0.20223787 1.513573 0.11766233 0.8055556 -0.0395199 1.432187 0.060898215 -1.1630347 1.652256 -0.9175804 0.5982553 -1.088374 0.32766947 0.4087453 -0.10417563 -0.9980191 0.80530816 -1.0876338 1.6947036 -1.4256451 -0.70906377 0.2641159 0.93966115 0.537689 1.0480223 1.8994915 0.15581907 1.0217434 -1.1043664 1.3553485 0.04765095 -0.2253868 -0.4514817 -0.038758893 1.509313 0.15177202 0.8957424 -1.2859664 0.119119555 -0.11175579 -1.156365 -0.41489995 1.2347097 1.3031946 0.7619641 -0.37722966 -0.42666924 -2.0653727 0.08773612 0.29905573 -0.019607015 -0.94812065 1.0502894 -1.2450372 0.104245566 -0.3348574 0.57948184 1.5757351 0.5147288 0.24167396 0.54231656 -2.0805345 0.45476475 -0.4693924 -1.2230388 -1.8024582 0.09521245 0.123846896 -0.6877446 -0.056151915 0.5511536 -0.7686291 -0.17303622 0.877832 1.5394497 -1.181662 0.846521 -0.104304165 -1.0550821 0.502218 1.6429695 -1.4938107 -0.19935684 0.55136853 0.8114596 0.9593506 -1.96624 -2.2554498 1.1703986 -0.8104466 -0.31028754 -0.6289639 0.95222116 0.13450652 0.036166973 -0.26034525 -0.8117497 -1.3732967 -0.1914888 -0.6599238 -0.6879625 -0.27111098 -1.3331485 1.8648608 -1.250923 1.3029445 -0.51166236 -0.4099372 1.1891525 -0.26489666 0.31033 0.23783821 -0.15570013 1.6114577 0.39271793 -0.6495485 1.0970699 0.68514633 -0.8935867 -1.2543874 -0.2559319 -1.3613485 0.3142753 1.4476842 0.874763 0.33256075 -1.9641284 0.54659575 0.20916352 -1.756339 -0.8439197 -0.45066997 -0.558625 2.6259363 -1.0296323 0.21707942 1.5197127 -0.8274591 1.7344728 1.2578967 1.0604095 0.38892674 -0.9807596 -0.49857143 -2.128712 0.45992333 -0.13292275 -0.12397838 -0.10866549 2.0681868 -0.42963988 -0.32477352 2.3447752 1.0811783 0.43154508 0.5366871 0.31253168 0.7858838 -1.5869999 -1.0095421 1.1296152 0.29740536 -0.40154973 -0.71648026 -0.6721613 1.421383 -0.3084632 1.0190848 0.6971314 0.12367548 2.3354654 0.89288676 -1.4632742 -1.8457067 0.17069502 1.6115861 2.296514 -0.18909802 -0.971406 2.354654
swap 0.8347252 -3.3373692 -1.1626834 0.26542792 0.34839833 0.2113668 1.8310754 -0.30142382 -1.5073191 0.39310926 0.41745746 1.3021048 -1.3536149 1.3387115 -0.25994912 -1.3520237 -2.4941301 0.39951155 -1.4287221 0.94712573 1.4921385 0.27956873 -0.14246325 2.7056303 2.1761625 -2.0733142 0.57171226 0.3754574 -1.0877655 1.9303571 1.3558974 -0.8402619 -0.34187654 -1.2645588 -0.14123191 -1.789353 1.1890119 3.1727445 0.039351996 2.2348166 1.3150028 0.58061427 1.0882006 1.0189061 0.48631275 -0.8845723 0.9631746 -1.489766 0.11173851 -0.8081639 1.7967902 -0.43932718 -0.48292577 0.9532106 -0.23053893 -0.19262464 0.093783036 0.7619584 0.053865653 -0.44930252 -1.3681973 -0.6141289 -1.5470333 -0.7167984 -0.24536386 -0.22525984 2.1806853 -0.69985527 0.75652283 1.1144781 1.5015016 0.5680671 -3.0122485 1.4170594 -0.7670266 1.6706158 -0.69698083 -1.3608303 -0.93404186 0.11902097 0.59332204 0.075543806 -1.2385209 1.5992788 0.9698998 1.5898226 -0.84149843 -2.1326258 -0.8147833 0.38520798 0.33358315 -0.29288536 -0.7614026 -0.6935149 -0.32416034 0.53114784 1.6032186 -1.3126705 1.2858914 -0.686425 1.1513805 -0.24448214 0.6843761 -2.5663362 -0.97625613 0.9295836 -1.6698285 0.12134194 -0.68507737 -0.08450301 -0.6231028 -0.30891845 -0.4492293 -1.750497 0.36515278 -0.3512589 0.5207735 -0.100274965 -1.4579515 -0.6539551 1.1702452 0.18217982 0.85633004 2.6619966 0.13873683 0.64742035 -0.55238485 -0.8979811 2.7715955 -0.299196 0.89634883 0.16893004 0.9826986 2.0533416 0.9013307 -1.1894501 -0.054493148 -0.4201912 -0.10551314 -0.44095266 -0.5536806 -1.915428 -0.54623425 0.5348582 -0.05434785 0.3351311 -0.95446306 0.27665818 -0.97504306 1.5531113 -0.9899409 -0.9430205 1.3172566 0.9013984 0.58965445 1.0088109 -0.29543987 -1.3764662 0.42172468 1.2654716 -1.6058278 -1.5522189 0.43899128 1.4008443 -0.11898293 0.42660886 -0.7610545 0.30250028 0.4116122 -2.3739123 -1.0457581 0.1748155 1.3485652 0.65537244 -2.1628695 0.78408206 0.13985257 0.0974858 -0.3675785 -0.11115924 1.1146553 -0.5170932 -1.1352533 -1.442144 -1.2038506 -2.6618109 -2.3273687 -0.44283146 -0.7693843 0.7852636 0.68475 -0.22253294 1.2352569 0.015400914 0.80680746 0.043343503 0.5096869 -1.0341839 -0.32136232 0.22711535 2.8481307 -0.8983374 -2.8369956 0.9871096 -1.1497433 1.4946926 -1.0985453 -0.8186372 1.4702442 -0.8693723 -0.47497693 -1.216985 0.7933653 1.248713 -1.760166 -0.26510558 -0.65756166 -0.51224357 0.022100238 -1.6774879 -0.6751282 0.1556773 -1.0507251 1.2049242 -1.3952434 1.1027827 -1.1938215 0.57872266 -1.4741584 0.79644966 -0.6659886 1.7208401 -0.69781554 0.55638355 1.3153421 -0.515535 -0.39619142 0.06507796 -0.98935723 0.020365754 -1.4048655 -0.20333008 -0.77684766 0.059727814 0.45430344 0.6474099 -0.018328922 0.5264855 0.47186705 -1.5287361 -0.829526 0.5825 -0.68252677 2.0856528 -1.4467735 1.194873 1.6237813 -0.81176656 1.5914389 -0.7469177 2.1567495 0.63170826 -0.20809259 1.365523 -1.3177329 0.117489286 2.098613 0.7915945 0.5120297 1.8105131 -0.30534807 0.016489401 3.2148805 -0.6525805 -0.8879668 2.1666486 -0.5475012 -1.0833143 -1.4915287 -2.3611372 0.96627015 1.6222147 -1.0289224 -2.9020464 -0.66614485 1.9418321 -0.007138025 1.1286769 0.58492154 -0.6574661 2.0621722 -0.8466031 1.1530098 -1.940366 -0.6879438 0.1662467 -0.10984744 0.63234913 -0.87701494 -0.66585535
jumpdest -1.520828 -5.8360834 -0.70958114 -2.0447536 1.3907584 -0.4764842 -2.426683 0.5410972 -0.99151456 1.8000838 -2.7426107 -1.9556788 1.2992306 -3.4958067 0.045751352 -4.133009 -3.168496 4.40148 -2.262341 0.19270086 0.54831564 0.036366057 -2.287629 2.7703714 -1.134637 -0.10997043 2.9547613 3.1321046 2.615503 -1.0241694 1.1095957 -2.5447483 1.208464 -0.043671496 0.3921747 0.6141813 -0.9649471 0.12643936 -0.89366436 -1.067468 1.562803 1.8594313 0.66459477 -0.27506897 2.95649 3.2454352 -0.589431 -0.253764 -1.1014097 1.3639116 -3.8530395 -3.0165594 -0.61246294 -1.9724197 -0.2527843 -0.5677494 -0.18216284 -1.352302 -1.6689392 -2.861215 -0.98238134 2.4473872 4.1039376 -3.0839126 -1.1050016 1.184733 -1.1175364 2.594315 -1.3839436 -1.4508599 0.5430268 0.81090534 -1.6894634 0.7036963 -2.4632099 -1.6024832 0.22679885 -0.08444177 0.6796819 0.9456383 0.6385958 -2.671215 1.2060684 -0.2682271 0.7297728 -1.4018291 1.771351 1.6724054 -0.29699245 0.112179406 -0.9614007 2.1391788 -0.9687612 -1.2701195 1.0044028 1.2268672 0.9990939 -1.2802026 3.0795245 -0.7049014 -1.8494323 -0.9572445 3.8248227 2.7039514 -2.713917 2.2056816 -2.3263817 -1.2672933 3.761497 -1.6119099 -1.52158 0.088198885 -1.3760471 -1.1923565 0.5602116 -0.36047995 1.2796803 1.7001222 0.8515983 0.7889877 3.2036433 0.31617054 0.58994985 -1.3477144 0.62937707 0.16332099 0.4265345 3.5441108 0.9793316 0.36378655 -0.98184556 1.803473 2.3231106 0.3325299 1.0587784 -1.1775124 -0.6503926 0.5097258 -1.0578804 -0.46275285 -0.12911206 -0.22411822 2.2340581 -0.8833669 -0.73291 1.3996503 1.4761258 -0.43038353 -1.8207761 1.753832 0.71382433 -0.7261685 0.9286648 -0.13708521 -0.04636781 -0.67509377 1.7768695 -1.3889233 0.21250576 0.5601791 -2.2444694 -0.6856347 -2.2981765 -0.5444739 0.8195214 0.20160279 -0.78974664 1.1155092 0.08708223 -0.4671753 -0.02731692 0.259429 -0.28649312 0.20330176 -1.4763649 -1.1386826 2.2463872 1.1347862 -0.59363633 -2.5734024 1.0341982 -1.9916755 -0.82146645 -1.103621 2.598406 1.01838 0.5198264 0.112711154 0.22886679 0.30686763 0.744382 0.9310527 0.39377192 -1.077759 0.2671773 0.70842946 0.19618723 1.2635416 -0.9411059 -0.5525058 -0.7066163 -1.9609518 0.3471501 0.9606747 2.5085888 -1.7617162 -0.18790604 0.1480419 -2.4848666 0.041141246 0.0376675 0.44995824 2.244465 0.6000596 1.4819286 -1.3530052 1.2581096 -2.4312363 -2.431814 1.1437994 0.078391284 -1.8666708 -0.23392394 0.76786256 -0.5587968 -0.0065653007 -1.0952203 -0.32164577 -0.6149243 -0.8278276 -0.18452726 0.24888076 0.5469009 1.4081904 0.39443028 0.9837962 -1.0223325 -0.1821239 1.2433326 0.2271517 -1.4242214 -0.06685575 1.0073359 0.31653196 0.20187092 -0.9382403 -0.11656636 -0.19873394 0.14430033 0.8776234 -0.4597225 -1.3675501 -0.94105405 1.0363078 1.0622993 0.012005161 -4.348495 -0.55124307 -0.06386921 1.3921133 2.116516 0.96468246 1.2075014 0.5073869 1.7077953 0.2787953 -1.236559 2.8056452 1.6538241 0.9635492 1.3522105 -1.9838953 0.881604 1.0641041 -1.9496313 -0.058721457 -0.8607907 -0.85915923 -0.68427306 1.2774051 1.4816301 0.7316756 -0.90652525 2.8001702 1.6251451 1.4044747 -2.391916 1.716074 -2.0237467 -1.1406901 0.03598306 -1.6268133 1.4121631 1.2478951 0.64530057 -1.6501069 -1.7039942 2.4267273 -1.5632802 -2.1732445
pop -5.4301276 -6.304226 -3.4875531 0.29791975 1.4537832 0.9554386 0.27974653 0.3907474 -0.84674376 4.911385 2.243477 2.0295537 2.1959555 -1.1689277 -0.38026634 0.34731025 -3.83508 2.1740675 -2.1610196 0.7098905 1.2847422 1.9206668 -5.0470257 1.9228603 -0.85032284 1.2997931 3.0445747 1.3694116 1.3782976 -0.5302288 2.986871 -1.9393514 -2.236287 -1.905214 -0.8325361 -2.2955573 -0.90778506 2.8433192 0.0712777 -0.85617375 3.4486134 0.19490345 -1.1766244 -2.0564296 0.098320276 -0.25092384 1.6213249 -1.2266349 -3.3614151 0.055156246 0.9843694 0.44111517 -3.3328893 0.8042179 -1.7583538 -1.2116014 2.1187193 -0.45346853 -1.6438847 -1.7576144 -2.094243 3.5533352 0.98785794 -2.5737262 0.17215045 0.92663646 3.1274865 -1.046486 1.052906 1.0483129 1.2425376 0.44753158 -1.6436176 6.8376813 -2.4075773 1.026556 -1.3120546 -1.0160333 -1.4856027 2.126936 0.24944803 -2.503599 -0.5113877 1.5352273 -0.8795689 -0.6549105 0.22590472 -0.31306046 1.2974573 -2.074173 0.8948432 0.72270197 -0.10886943 -1.8491338 -2.0037818 1.2953713 1.1999159 -1.7116668 1.2002416 -2.3999953 -0.93372756 -1.421867 0.41092902 0.6756097 0.0069694323 -1.8190303 -0.47270563 -2.1016593 1.2120754 -0.57906586 -1.0884907 -1.0383105 -1.7584853 -2.1217353 1.064982 -3.113712 1.5112932 -1.302493 0.32139695 -0.78533614 0.009915228 0.0041171783 0.54908496 2.8378024 -0.72125536 0.6416679 -2.4597275 0.07482232 1.7649766 1.4516908 -1.3480254 1.9204773 1.3458508 2.4764764 0.39341125 -0.7102657 0.10793949 -0.06270372 -0.37272087 -0.54467785 -0.3429451 -2.3299768 0.14468707 -0.68537366 0.9554181 0.26239744 0.996004 -0.13633628 -0.492193 1.1375027 -2.7976482 -2.1084101 -0.8158137 1.155629 3.1054866 1.5716982 0.11723365 -0.2943005 1.1471031 0.8590032 -0.72535396 -0.6924627 -0.33202216 2.6090732 -0.1044302 -0.90886676 -3.754937 -2.7576275 -1.3786592 -2.5516665 -0.7201969 -0.60869503 2.762802 -2.7095678 -1.1950033 -0.9188712 1.9666728 0.4400751 0.07670842 -1.3567 1.4510468 -0.39581734 1.8241336 0.54006356 0.75102514 0.3381323 1.3260438 0.58874285 0.49759138 -1.6340609 0.6623012 1.1396651 1.7962402 1.5681403 -0.047032062 -0.2579 1.3775961 -0.71382934 -1.6244886 -0.5281036 3.0149014 -3.1970541 -2.5124176 1.6074347 1.154577 -0.30604103 -1.6683306 -1.9196616 1.7566656 0.921605 1.3907093 -1.290504 3.8343608 1.4003197 -0.8370916 -1.1619647 -0.12707333 -0.71224314 -1.3136891 -1.4450387 -0.601129 -2.3057265 -1.0559866 3.4589667 -2.0737906 1.1441972 -2.561482 -0.5691946 2.4830968 -2.293974 -0.2384018 4.096598 -2.1167262 1.4776464 1.9188957 -0.77011126 0.40735584 0.33647472 -1.2757069 -0.8232369 -1.3405533 -1.159231 0.71475613 0.45493743 2.5639594 -2.7142103 -1.4306085 1.4683195 2.0311344 -1.1114011 -0.03929642 0.39172614 0.3489594 2.9561586 -2.3369043 0.89615184 1.8524688 0.80848056 -0.33236736 1.5186224 4.294413 1.9209619 0.9370555 0.17325436 0.43594465 0.069271006 0.68307525 1.9074482 -0.7325428 3.3520515 1.9322604 -1.4435848 3.9061215 1.4340999 0.6011437 1.5911475 1.932497 0.17036632 0.3626268 0.59433377 3.2515821 1.4769652 0.5661892 -2.679167 -2.3024714 1.7210457 -0.15070704 1.6684939 3.8106456 0.8895824 -0.6634683 1.2696401 1.8260177 -2.1693704 0.5208253 -1.1668859 -0.72051716 3.0812767 0.21945038 0.70087326
add 2.1478884 3.165035 0.33589444 3.7727563 -0.6081175 3.4377038 0.7888318 2.130049 -2.168351 -0.6650252 -5.625181 0.29587638 -1.3352102 1.7625535 0.32505867 2.6314077 0.95463794 -1.7967902 0.5413626 -1.8490025 4.1643443 4.583674 0.5078715 3.1964583 -1.2335361 0.006841419 0.90766966 0.69741094 3.5676935 0.5120926 1.5806545 -0.83193946 -4.6591396 0.5874173 0.23467728 -0.9825377 1.7459154 2.44441 0.5359946 0.6981963 -1.5317533 2.6091485 0.041636102 -0.28754225 -1.9169104 -0.7821578 -0.91882867 0.9801138 -0.18194638 -0.25147715 0.9733997 -0.75043905 0.31565106 4.8387117 -1.645738 -0.2989512 -1.2816461 -0.8678244 1.0405545 -0.5243594 -2.0333738 0.33429214 -1.4527013 2.823948 2.0874648 0.99196917 1.3265005 -0.5924719 1.9681098 -0.2690074 -0.30728522 -2.294594 -1.8924372 1.3881358 -2.4010983 2.1987548 -2.8575199 -1.2971132 -2.1836393 -1.8174528 -0.05624003 -0.15624513 -0.5347633 0.20055872 -1.5655339 -1.366402 0.49106893 -0.62929815 0.50737214 -1.7176293 -2.3534606 -2.9769936 0.2948168 -0.8267035 -1.5892313 0.8263659 -0.14620349 2.3727744 0.86959547 1.9513191 -0.5993912 -0.52442646 -0.39358395 -3.1070464 -1.7552507 -0.64201105 0.5465066 -2.2150872 0.4403018 -0.38639462 -0.11748452 -1.0768057 -1.823443 -0.11080929 0.14194323 -2.228426 -0.58624715 0.15277123 -1.1718628 -0.9711603 -0.06420922 -0.24655175 1.2769486 1.7123774 0.7508278 1.239855 -0.008582875 -3.053537 0.62827766 0.006641561 -1.4533631 -0.95020527 -0.23120368 2.6121387 1.1605572 -1.0889089 -0.108577386 -1.2541888 3.2072742 -0.29510543 1.0755723 -3.1563358 1.2646514 0.1226345 1.4186316 1.0533131 -0.5196416 1.4009178 2.0163062 2.832915 -2.288116 -1.0666572 0.4177202 0.84429795 2.054763 1.5066751 -0.2709 -0.032856263 0.8978328 -0.43801117 0.5403987 -0.96874404 1.7210517 2.8756752 0.5028383 -0.16855277 -0.18657273 -3.0558584 1.5678781 -1.5718274 -0.104383975 -0.7553935 2.538384 -2.4026573 0.91946423 -1.6267778 -0.2676238 0.10440759 -0.87376285 0.89225435 1.6808429 -1.7567375 1.5500804 -0.33325854 -1.838806 -0.0056464565 1.3652585 -0.6491856 -1.7760736 -0.9489766 0.72797036 0.5481582 2.5208256 1.1323186 3.3538387 -0.1946449 0.87491506 1.0004755 -0.8197826 -0.18825246 3.9553313 -3.3953831 -0.968447 1.497567 1.2335005 1.5831774 -0.6157647 -3.5269606 2.562594 -1.4584603 0.44693017 -2.2168872 2.5517437 0.602803 0.9641303 0.21227202 -0.43745345 -0.35704055 0.15957859 -1.518895 0.6180813 1.1449082 -1.2198226 3.342769 -0.04633735 0.8642009 -0.5092722 0.043749794 1.4190822 0.27230138 1.9432462 -0.70691866 0.520098 2.2719746 1.1555394 0.69808805 2.366608 -1.371407 0.7633084 0.0011668938 0.52405983 -2.6002338 1.8291396 1.1376189 2.0627723 -0.25299478 -1.2914351 2.3477821 -0.8459627 -0.7039777 1.4194672 -0.30598736 0.8257006 2.0797377 -2.2788289 0.52872247 3.6851509 0.39991817 -0.028723644 1.2512887 2.5566072 0.19572793 -2.9307115 -0.85333437 -1.4174197 0.19998257 -2.1632166 -2.2234397 -0.38583654 -0.87355995 -1.6881397 -0.61695737 3.0196323 0.1100044 0.27660373 -0.057581138 0.088089526 1.4030365 -0.5879783 0.14989683 1.8541539 0.5682131 -3.1184928 -4.296715 -1.7444172 0.15048033 -1.880204 -0.40711758 -0.12128736 -0.77439475 4.7290993 -0.5382415 -0.28036636 -1.7794785 -1.1249982 3.2707958 0.57171875 0.097677566 -1.0055639 2.193197
jump 1.3704137 -5.371208 -0.7946413 -0.8164397 5.6348624 -0.8687302 -0.88694555 -1.6085644 1.4956639 2.9106708 -1.8780873 1.7399515 -3.817493 0.055407673 -3.8160734 -4.0872326 -1.4982867 2.5628793 -3.1746252 -0.84580666 1.6982163 -2.0042439 -2.099166 -0.7564263 3.6875288 0.14215448 -0.55284417 -1.1137017 2.4345229 -3.244822 3.0723891 0.68784755 2.5052366 -1.896676 2.5961285 0.18098694 2.4146795 0.7890305 -0.14249058 1.9413749 4.1974835 -1.3041049 -0.51846594 -0.09543186 6.3406324 3.649298 4.7591624 -2.9486544 -1.9679925 0.7422675 -2.2793615 -0.18965676 -2.676369 -2.628393 -0.0124939 -2.2101321 -0.99643195 1.4462858 2.4995852 -1.0805583 -0.5062472 0.5088023 0.83746165 -2.017165 -1.727451 -0.76158476 -0.22410548 1.3194752 -2.5789902 1.0927978 -0.13141462 3.2868247 -0.38619947 0.56029266 -0.7787027 -1.713758 2.0826173 -1.576644 1.8238789 3.9118342 4.96451 -1.53625 -0.10771909 1.2259923 0.06737329 0.15142451 2.1011467 -2.253545 0.44202814 -1.3840051 1.2354193 1.1621593 -2.813575 -0.12270054 -1.9053524 -0.5024512 0.98038304 -1.5964786 1.0812986 -2.0995913 -0.34291825 -2.4140403 -1.3766936 0.4402049 -2.1737196 -0.6460089 -1.5627106 1.561138 2.2844632 0.77364844 -3.8689303 -0.07972125 -2.3929582 -2.6953273 0.15961626 -0.16569228 -0.74143386 2.5324688 -0.93501484 1.2879864 -1.7842712 0.48370406 -0.4448569 0.8831984 -2.476441 -0.3627957 1.2951965 1.0045948 -0.7533895 1.3427461 -1.9012091 0.04252073 1.1953719 2.8088043 1.7324455 -0.25696468 -1.527053 0.68435353 -0.47930813 1.007884 1.0896277 -1.2019819 -1.7460663 -0.22681752 1.8623834 -0.8497674 2.386998 -1.6007276 0.08263603 2.8723152 -2.1422193 -1.1856678 1.9534038 -1.3332499 -0.09825501 0.33626264 -2.793516 -1.7132086 0.90422076 1.2034417 -3.1570725 -1.7468776 0.17623065 1.3921437 0.013280978 -1.6448226 -4.1211863 -0.25894493 0.46817082 -3.65586 -1.3218621 -0.6744866 1.0049725 -1.4685501 -2.7890153 3.2760031 0.27902505 1.8406858 0.28236678 -3.1650674 2.7150588 -1.479086 0.7463312 -0.98727775 1.0921496 -1.093505 -0.59926265 0.17853743 -1.1906252 -0.040375046 -0.5412937 2.2383857 4.280674 0.37765488 -2.0132084 2.1642468 -0.7327934 -0.8065895 -1.0746622 -1.6271074 0.28105974 -1.5059512 -5.5852714 0.91357833 1.638474 -0.69916314 1.2521923 -0.05439304 0.65427834 2.2262452 -1.7223568 -2.9461503 2.0073533 2.971005 -4.485812 -0.46914747 -1.9090798 -0.13077846 0.030980792 -0.0119517315 0.042260334 0.1889033 -0.2078213 -3.9523973 -0.7750845 2.5298321 -3.0138311 -1.247822 0.042933613 1.5383844 -0.6011032 1.1110969 -0.8684148 2.220075 0.4482393 -2.2929802 -2.6142125 -0.06237882 -2.6358888 1.8816228 -3.8092263 2.945211 1.0042263 -2.1461222 1.6871539 -1.7103441 2.3618348 2.1236224 1.040175 -1.2448174 -1.5003506 0.52858204 -4.049937 0.5837145 1.1719358 2.3081849 0.45694193 -1.2932051 -0.59391403 1.5518063 3.9406872 -0.4267248 1.3158612 -0.5718702 -0.14981574 1.076123 1.7321851 1.4297228 0.30666295 1.5133803 1.5363321 -1.0927444 3.17382 -1.7086014 -1.2524904 -1.6023407 0.013649227 2.027393 2.8806584 0.68101645 -0.6206193 -0.8975947 0.2270048 -0.035581917 -1.8595626 0.8713762 -1.5334543 -0.56492054 1.8764727 0.30052257 -3.3042436 1.7024935 0.925751 -1.3228891 1.1580172 -0.6401291 -2.5244515 2.6466634 4.337493 -7.7988963
mstore 3.1786182 8.554591 -1.756348 5.566116 -0.32554123 1.4725513 2.9969463 1.2775228 -1.7845091 -0.44299492 -4.261835 -2.737663 -2.362216 -0.062596925 -1.1736536 3.17092 1.0361091 -2.4806657 2.1607149 0.95364654 1.940466 -1.0189155 4.083669 2.0634189 -1.0937197 -7.2420626 1.812368 -2.582707 2.0118701 0.5871334 0.69004214 0.4748393 -1.5152088 -1.3761581 -0.18788923 -1.0325521 2.662564 -0.42104304 -0.2515428 4.5212393 -4.189463 2.729416 -0.33137974 1.8447188 -1.1003139 -2.9549954 -2.6148787 0.45894185 0.14571846 1.3941888 1.2870733 -1.294629 1.2096573 0.40416062 1.7618458 -0.94762564 -0.08877318 0.4936397 3.3051937 3.3333642 1.241917 -3.4535234 -2.4745486 3.841139 -0.020603359 -0.55982685 -2.011257 -2.1806524 -0.4492289 0.6740929 -0.9322492 1.0086226 0.9442649 -0.50722647 -3.8916645 3.5865593 -0.805008 0.05284081 -0.7208593 0.6196265 -0.9712992 1.3672575 -0.5549446 -1.1717844 -0.40648916 0.711148 -0.26546243 -1.9068096 -1.1574786 -0.5510585 0.3763762 -0.7285101 -0.7712039 0.7752799 -0.2479591 -0.53444296 0.7510134 2.3443165 1.1897362 2.3687985 -0.7217128 -1.6673415 1.1503136 -4.030149 -2.3275824 0.9709289 1.3155391 -0.8385786 0.6667239 -0.42358425 0.7084209 -1.9616919 -1.1665106 -0.78902376 0.09744271 -3.0692322 -2.9401453 0.28857064 -0.86997664 0.8597981 2.0228279 0.43478298 3.3796902 2.2875855 -0.003802622 1.9296734 -0.032841958 -2.6238282 -0.5159885 0.033376727 0.9085301 -0.8326617 -0.83163935 0.18742181 0.8112478 0.55937797 1.2467207 -0.20109525 2.103295 -1.9065446 2.3545704 -1.730025 0.53459054 1.8206166 1.3464587 0.81453884 1.9311706 0.5010699 0.30135646 1.931244 -0.768323 0.06213195 -2.4453707 -2.6501207 0.4322152 -0.68731475 -1.8527328 -0.3837034 0.84092647 0.0833628 2.2089255 1.0527728 0.2365139 1.4078473 -0.7450583 0.5850534 1.9224188 -1.4041884 1.0353338 0.73431826 -0.4297603 2.0676637 0.6896699 0.6050531 -0.8861794 0.4028012 -0.077557124 0.43674728 0.11691261 1.4322081 -0.08367925 0.22068226 0.47699955 -0.45163363 -3.5192902 -1.2659485 0.05648273 0.028528307 -1.4465351 1.9022785 -0.7727445 0.033503544 0.73900753 -1.1330295 6.5128355 0.8818078 1.2822276 0.2604175 0.045080088 -0.3455583 1.0653208 -1.4193026 -0.847459 0.38516536 1.0213077 2.341684 -0.081908 -4.3722177 1.1266922 -3.162765 -1.7753285 -2.6015754 -0.3722581 2.114165 -1.6316803 -0.013753953 0.25410146 0.63107044 1.2578949 -1.5458385 1.5891844 1.9581381 -1.3674877 2.8673656 0.58183444 1.0872276 1.2295772 1.1851599 3.5395052 0.16076395 2.6229177 -3.6138666 0.5384516 0.44385302 -0.5009185 -1.113371 1.1833798 -0.08477731 -0.8586061 2.7975771 -0.34952366 -0.61795604 -0.21994402 -0.2010539 -4.4854045 -0.004464845 -1.9016399 1.0205067 -0.5192637 -1.6610357 1.5159849 1.3358735 -3.5316436 -0.40459973 -2.574866 1.5116626 2.3037114 -2.1496131 3.1286125 -2.6754813 -1.125823 -3.7435641 -5.0262284 -1.5497754 -1.8737215 -0.32158613 -1.8966465 -1.0034659 1.9991815 0.7019117 -6.178616 0.18847485 1.9082627 -0.11030035 -0.041394554 0.09548529 -2.27765 -0.6698482 -2.0911958 -0.245368 -1.2768435 0.13753392 -3.2252538 -0.647764 -1.3342973 0.571705 0.49408835 -1.8645046 -2.999954 -1.8505888 3.7555418 -2.1325176 0.24940607 1.460845 -1.6823584 3.213671 0.14732443 -5.5871587 1.6824151 -1.2665721
jumpi -4.2267604 -0.31184977 3.7251167 -1.7716393 0.31704146 2.1924326 0.0861457 4.2705355 -1.0390906 -0.20672351 0.5968746 -2.4072204 -1.4690323 -4.810342 -4.323623 0.06954598 2.664952 -1.7629617 3.0442848 -4.1421804 -1.0456128 7.3695164 -6.367206 -3.6882951 -2.9938374 2.168302 0.87389505 -1.6639817 2.539507 -2.2434683 -3.2943342 -3.5984125 -2.4285638 3.6475034 2.080168 0.7636501 2.037927 -2.0374713 -2.2257643 -0.9235667 -3.9593668 2.4550054 -0.8668118 -3.5337958 1.1748543 1.5843155 -1.9544171 1.1209531 -0.465094 2.4900587 -2.2661054 -1.1648896 -0.62566036 -1.8703464 0.727358 -2.8731596 -0.3304472 -1.7422644 -2.8695018 2.0956483 0.6518096 2.4153345 -0.9897665 -5.3381753 0.8617228 3.404849 -5.1472287 0.2864351 1.5035529 0.47094002 -3.5273013 -1.992063 -0.45920575 -0.7166434 -0.7283382 -1.0401571 0.037753683 0.69107467 2.195413 -0.06696768 -0.89331406 -1.9510777 0.89268106 -3.774734 0.92874724 -2.3846264 0.75149876 3.538292 -2.7215495 -0.2667085 2.98784 3.106573 2.5396903 -0.6866835 3.2350593 -1.5199343 -2.3587234 2.8389711 1.400334 0.26609713 -2.471972 1.6498264 3.9129896 1.5543791 0.87824434 0.4523414 3.0166752 -0.71063626 0.6728867 2.475612 0.5061754 -1.957627 -2.6419566 2.4328465 -1.9044557 -2.5693448 1.4392891 0.9225208 -0.56144136 -2.1357346 -0.45817438 -0.309083 -2.2886927 -2.2065654 1.0707725 2.3642924 0.41104084 2.6142523 -2.5312402 -2.623077 -0.7072042 0.22061507 2.7128205 -4.132314 -0.93647915 0.75392 -3.8427987 0.70633173 4.5163817 -1.5961133 0.33379498 2.3606675 7.0241237 -2.482244 -1.0977536 0.41584578 4.6356688 -2.150207 0.2045688 -4.6307087 2.9683745 0.6664833 1.5425332 -3.359705 -1.236576 -2.5197825 -1.9965888 1.974542 -2.1555486 0.32780543 0.734582 1.1474055 2.3802488 -3.874926 0.8112894 -0.3668483 -3.3963525 -3.1778061 1.2440817 3.7339225 0.5703317 -0.8959605 -2.002105 1.0997753 1.2193695 0.08865986 3.0835083 1.8850427 -1.4079056 -3.6258929 -2.0531538 -1.265401 -0.15556514 1.8593767 1.1189536 0.30679193 1.3726021 -1.1540738 -0.4496592 -1.3406082 -1.5728759 -0.62475216 0.74159944 1.8551066 -4.9952793 -2.4748502 1.3625226 0.8386051 -2.5104842 -0.9913727 -2.2930548 -2.5904446 3.6170378 1.279736 0.8114235 -2.3626308 -6.2116323 -0.12697048 0.6127912 1.8699514 0.0712306 1.6204993 -1.039353 2.6490264 2.374691 -2.0525348 0.90597576 -1.6360831 -0.8713238 2.751958 1.3620814 -0.85439783 -1.0723103 -3.982299 2.4145284 1.36899 -1.6323122 1.5398167 -0.16951281 -1.674059 1.6060674 -6.8635383 -2.3602653 1.7774017 -6.312396 -0.3353097 -2.801005 2.0416062 0.8001006 -3.5561206 -0.32085255 -7.628342 2.1311665 0.30874482 5.1620207 4.3073335 2.2553937 0.94978553 1.7712593 -0.5620193 -1.2755973 -4.8259425 -0.44548064 -2.5079803 0.3773768 -0.324482 -4.320744 0.6120712 -5.310753 2.422931 -2.6961591 1.7048608 2.8289638 -0.47489136 -1.4930816 0.48084342 -5.7242956 2.6418185 -2.3416321 1.9773748 -0.13875605 0.364745 -4.409752 4.0952487 2.044167 0.6237282 0.9827816 0.08139493 1.4472013 -3.1766326 1.5918071 -3.7494755 -0.6210895 2.127341 1.5228223 -1.9255067 -0.037011806 -1.2420928 3.0171137 3.3832974 -2.7295027 4.2434244 0.08768448 2.673576 4.191351 2.4086573 6.0630116 -0.15707512 3.1397543 -2.2840867
mload 2.1351888 -0.59459007 -3.8800771 -0.36011225 -0.20573425 0.29523996 -1.692623 0.116210334 -1.7480547 -0.54945034 -1.338457 -6.384301 1.9632596 -3.6595342 2.3934674 -2.274671 0.64337766 -0.20215476 2.276169 2.2943487 1.5661424 3.416787 2.026048 1.1915628 -2.4024267 0.22363696 -1.919481 0.70228475 -4.368404 2.3956094 -2.7203689 -0.22346015 -0.22832511 4.2137723 -5.815948 -1.1476253 -2.2444923 -0.646394 -1.861548 -2.425777 -1.5565482 4.0097113 -2.3235593 -0.085664384 -5.0680003 -2.4039063 -0.88470215 0.7534037 -4.0353312 -0.2235795 -0.6070027 0.6359769 1.5158553 3.1664662 1.511514 0.93253344 -1.9977396 1.3208454 -0.45342588 5.1757307 -3.3698633 -0.5823862 0.52725285 1.0157379 3.59805 -1.0622555 1.5033412 -2.4809651 3.1167843 2.7179954 1.4264383 -3.7932906 -2.7514088 1.3717644 -0.58838195 0.8562276 -0.48031005 0.0651386 -2.284049 -2.3350976 -7.277699 -0.34054732 -0.30471054 0.81376714 -2.1745393 -4.7408385 -1.3155433 2.4194133 -2.0128477 -1.386542 -3.0728323 2.973567 0.56864417 -2.5004587 1.0810517 -0.35355273 1.4514828 3.9507425 -1.1996102 1.3874407 2.365488 -0.22061539 1.3040193 -1.6613053 1.7922801 -0.8883863 0.93196183 -2.555725 -3.415773 1.7524464 0.9897817 -1.944945 2.4843216 4.1972055 -1.5391027 0.6701833 0.36795595 -3.3981843 3.2121518 -0.49878424 0.18955003 1.177623 -2.6460152 2.9083848 2.197734 -0.20558175 -1.386539 -0.055293016 3.2362216 0.21534382 0.45963743 0.2268048 1.5613184 0.5017614 -1.1608634 -0.9546853 0.52790934 1.2382045 1.6688162 0.70767456 -3.3291094 0.31772918 -0.7194173 0.64852124 1.0056806 -0.7957444 -1.5658973 2.8098516 1.3751059 -2.2419147 2.5038104 -0.79611844 -4.224384 -1.9021007 -1.8772868 -0.9681038 0.7792803 0.8105103 2.4575036 -2.1259222 -1.7569404 0.9464446 3.2179546 -0.057928503 0.853754 -2.0192807 1.9370363 0.02194904 -0.7421488 1.8551133 0.95627755 -0.90294546 0.71942776 0.31658253 2.226543 0.6378259 -1.2020872 0.5849461 0.65987974 4.432115 -1.314221 -1.2001511 1.0691 -0.7854816 -0.88712114 -1.3728873 -0.28008008 -0.33210304 1.9454223 0.43586093 0.3614505 -1.216817 -0.93221015 -3.3252935 -0.02953213 -2.2686968 -2.8148694 -1.7531917 -0.1533555 0.8814769 0.38644478 -1.4054537 -0.6561692 -2.437568 -0.8386218 0.01823641 0.71834654 0.49620613 -0.28285494 -2.6557672 4.0943875 -2.1898599 2.6269224 -2.275763 1.641521 -2.0284824 -0.5129819 1.5380778 2.4297564 -0.013220525 0.73322135 2.5201051 1.8354686 -1.0722828 -2.6002955 2.1020331 -2.5706906 -1.3322518 1.0521519 -0.3369473 4.586515 -0.7970073 -0.30963504 1.1663125 -0.0636307 -2.6282444 -0.101344876 -2.3933554 1.0035268 0.4896224 0.95800525 -0.65014184 0.34174803 -0.2904742 2.2913344 0.8538854 -3.2225566 -1.2875903 2.9309328 0.26977447 3.0734816 1.8816917 -1.173117 2.7555285 -1.6109442 1.3527644 2.2717097 0.27143088 -0.36290893 0.028075514 1.2813591 -2.219617 -2.958671 0.933303 -4.565716 -2.3630674 2.9336088 -1.642928 -1.5003558 2.6619513 -2.2784052 1.5108315 2.06767 0.13366249 0.93958145 1.0184416 -1.2626057 3.9536364 -2.3476517 -2.027718 0.28144273 1.7257098 0.13700552 -3.43068 1.1996894 1.4872645 -1.3354055 -2.8282533 3.8449364 -1.3156328 1.432687 1.8738227 -3.5063372 -2.1609092 0.99296784 5.1288857 2.2857308 -2.3399312 -0.15770876 2.0604987
iszero -4.4160724 -1.5637578 4.151086 -1.5674354 -4.0837555 -0.21926396 4.408461 5.3383536 -1.8856742 -2.7225306 0.60416335 -1.3978639 1.662357 -2.0476816 -0.02302455 -0.53455347 1.8177644 -2.321206 2.9230797 -2.5796251 -0.7846827 0.46652922 -2.1424363 -0.6758587 -1.8784211 0.15479216 1.0468972 3.3696349 -3.0165958 -0.9818692 0.25758517 -1.785217 -0.37592816 2.785321 0.27351192 -1.9552377 0.7605881 -1.3692144 -2.819903 -1.653433 1.3238593 -1.2925164 1.8064059 -0.5402774 -1.9661531 -3.035422 1.2843236 -0.4964743 -1.4570413 0.40140364 0.02788823 -1.8290752 1.9484752 3.2924135 0.37556142 1.6539598 -1.2852784 -0.50408727 -3.7213056 -0.5582641 -0.6328105 1.9973353 -1.669919 -5.047084 0.1111194 2.3264232 -1.3091187 1.2698241 4.0807734 -1.6448977 -0.99839675 -2.9501598 -1.8537008 -0.11171384 2.2315283 1.8037465 -2.0779438 0.5640805 0.95497155 -2.0403328 -2.5594065 0.29580644 -0.80099356 -0.4318117 -2.337052 -1.0963318 0.8245865 4.0875587 -2.3187678 1.6719102 0.7619377 2.2443483 3.7972963 -0.8524147 0.70994675 -1.7565298 -0.26367655 1.6043026 -2.8181396 0.4036063 0.9422367 3.5931258 1.6692113 0.602442 0.41768378 1.5246108 -0.04624031 -1.6455323 -1.7488867 0.46413183 0.15733455 -1.0862125 -0.6710989 0.929073 -3.013351 2.4470391 5.539559 -1.2298238 -2.7733185 -2.6787984 -0.032101292 0.36501175 -1.0608448 0.026983289 -0.5197227 1.5225264 0.44132495 2.1409328 0.2516675 -1.593945 0.10845898 1.0298492 0.94731504 -1.9951867 -1.0442642 -1.3061563 -0.38725245 -0.80950475 1.2148206 0.28167006 -0.30915594 2.5812795 2.2919278 -2.8791478 -2.90886 1.104004 -0.94641876 0.6177723 -2.4306433 -3.3716357 -0.12538414 -0.011668875 2.9852674 0.16953844 -0.94552547 0.35346752 -0.6387988 -0.27222508 -1.2033491 0.78507185 0.22804724 1.8022828 1.2453532 -3.1061118 0.34792262 0.109575935 -0.1007336 0.5408903 -0.33236915 1.2979889 1.2751386 -1.7864094 -0.47237092 -0.32684612 2.8562586 -2.2650256 2.1480145 -1.8888123 -2.1912959 -2.2006807 -0.52793705 -2.750468 -2.6485696 0.046031423 1.6184318 -2.9520276 -1.3387706 0.30139157 -0.3793199 -0.16205032 1.1345092 0.0850158 -1.0772082 2.328602 -2.0657597 -3.2121594 -0.059069898 -1.338099 -0.45247358 0.69560033 -0.5468531 0.20870298 0.44645286 1.8024893 -1.3441299 -0.03119442 -4.8942275 0.13648374 -0.14734034 0.30935144 -0.5232995 5.852014 -0.50138533 1.6185087 0.6104504 1.3680837 0.6917574 -2.0800555 -1.7289025 -0.789691 -1.9558879 -2.412692 -1.0898612 -1.8692377 0.68992907 2.4431243 0.5635928 0.0071228333 -3.6581025 0.7249899 -2.9765725 -0.33198807 0.39302775 0.18442492 -4.1435337 0.30572253 0.08587224 -0.45326325 2.3174334 -3.2914195 -0.49063927 -5.3587036 0.7574124 2.026003 2.7929983 3.6896207 0.2999825 -0.057766054 -0.4617726 -0.7701993 -2.9737077 -4.320587 0.8729405 -1.2772028 3.5233867 0.13337673 -2.5942674 -0.33088493 -2.24354 2.7396042 -4.3935156 4.0017614 -0.061924443 2.0998228 0.9690184 1.5054436 -2.9919808 1.2128215 -1.0804453 1.2656113 -0.10242195 0.3836269 -0.59670407 1.4399017 0.44790968 1.1168132 -0.7455939 -0.9093837 -1.458334 -3.0172808 -1.7496939 -3.1673908 0.24676548 2.2999246 0.43910843 -0.40614346 2.1254292 0.8262678 3.235543 1.8272635 0.3089368 0.54928046 -2.048394 0.11190092 3.5566902 1.653151 1.6712899 0.35712203 0.82601106 3.5873134
sub 6.6247654 3.866268 -0.63023466 2.6115088 0.62258184 -1.9487969 -2.472034 1.0626417 1.1611438 -0.65931416 -1.0132163 -2.4896796 0.38795757 0.37923142 1.0089641 -0.8644367 -1.1780698 2.5721712 0.4243767 5.809897 2.0996552 -1.4260999 2.0686002 0.6258744 2.5447628 -4.042625 -1.4941976 0.8946835 -3.4704983 3.394377 -1.4878131 2.8788753 1.5343549 1.3691273 -4.6164904 -0.8447716 -0.7529055 -0.15093887 0.6199002 0.82058483 3.3070788 0.4919366 0.39689958 1.1695983 -2.8529468 -4.5592723 -1.0685776 -2.428445 1.5880295 1.0380465 2.3827276 0.5809899 2.1416144 0.8946691 2.699256 -0.9256214 -2.7108176 3.2283213 -1.7187057 2.0474634 -1.3490998 -3.554009 -2.379704 1.2363598 2.647323 -0.5023748 0.053929437 0.49487782 3.946117 1.061941 -0.55239564 -3.9016175 -2.9283266 0.1427074 0.9731017 1.3020127 -1.6130036 -1.0148842 0.1899976 -2.4453464 -4.9502788 0.8836289 0.98929495 -0.77212083 1.6293827 1.3860294 -4.463735 1.5721433 -1.8764253 0.6062814 1.3683857 3.1474552 0.5164989 0.11703391 0.39276233 -1.1173744 1.8517755 -1.3754789 -4.7657113 3.3075116 3.1427507 1.263985 0.60683674 -1.0401864 -0.9738318 1.7852615 -0.50688326 0.61688995 -3.8085713 3.7302656 -0.35744357 -1.1775694 2.3480327 2.3464248 -3.55307 3.865194 0.16863355 -0.7547352 0.25104624 -1.8440701 1.7158041 1.2175682 0.57204175 0.8609666 2.076806 -0.39627135 -0.13464898 -0.7875249 2.7815125 -0.95813614 1.1664165 -0.37377635 -2.1049197 -1.3135281 -1.2132891 0.40079913 1.0259203 -1.3284932 -1.3182735 -0.28532737 -2.2283516 2.4097464 -0.11526916 1.6719123 0.6519761 1.9089506 1.557326 1.145074 -0.6241009 -1.5005869 3.259391 1.7610637 -0.047309842 -0.11735014 -0.43070388 -0.41534376 0.5481225 -0.11894692 -1.7717428 -2.5252109 -0.53443587 -0.4191552 0.66598487 -1.0249952 0.1718534 1.1409817 2.27102 1.5488336 0.27420583 0.76353306 2.725052 -0.70382 -3.7952096 2.3071926 2.254847 3.0028856 -1.2298287 0.2935502 -1.413922 1.2560424 -0.70348513 0.53128576 -2.6144903 -2.9341314 2.1497238 0.75101703 1.6053423 0.33975577 2.5296383 2.372416 1.8714088 -2.2499137 -0.7075075 -2.1921136 1.7878749 -5.9012513 0.62452406 -1.2753468 0.42720282 3.0956106 -3.7735996 -0.7581012 -1.7638083 -0.302948 -0.855904 0.5539504 2.443836 1.521321 -2.9676533 -1.4743499 2.7521634 2.426099 -1.6022575 -2.970004 3.7691767 -0.3716666 0.19978535 0.38232526 1.9247508 -2.8844306 -1.0134805 -0.69272316 1.0020894 -1.4784869 -1.5175391 2.5734208 -1.1148472 -2.5885577 2.8256574 2.171667 4.2957244 -0.7597998 0.9553626 1.1247596 -2.242014 0.9701124 1.0428946 0.44470522 2.563117 -0.46131727 0.70440376 -1.7187958 -0.88290834 1.1626873 -0.7838423 0.9110472 -0.95860106 -1.43645 4.5796456 0.90309936 0.7522588 0.6758861 -1.3657416 -1.0478461 0.9202044 0.22805195 -1.3754982 0.38958654 2.249762 -3.079782 -0.7780938 1.9785436 -0.4164006 -1.0002477 -3.938908 1.3282949 3.9167693 -3.0839875 0.16970408 2.0443168 -3.3483531 3.2618222 1.1495222 2.2652435 2.1637092 0.30159283 -1.5464381 1.2936002 -6.460387 -2.2154403 -1.0866274 2.8824527 -0.14015643 0.99520916 3.8432357 0.34614688 -0.48158184 -4.8195276 3.5334558 -0.06674046 -2.9359117 2.1380417 -1.3274182 -0.3745157 2.2188997 0.3434001 0.6539024 -5.2899556 -3.1512594 2.1062841
and 1.9319476 2.8608987 1.6009855 4.6892004 -0.69528127 -5.9946523 0.56510097 0.056122508 1.5621715 0.7447469 1.7488339 -4.4993157 -4.106593 0.6266132 0.25321767 -1.8069248 -0.6783867 -1.3474874 2.1453836 5.6901755 2.8864114 -4.866447 6.016301 -2.0386362 3.4689796 -2.0926857 -2.6142144 -2.5684118 -1.9658747 -2.0010545 -0.6059642 2.7887278 4.0447893 1.1323631 -4.4854717 -1.1377534 1.6228673 -1.5906745 0.46138942 2.8634193 -1.8071557 -1.012754 1.5205164 -0.4990515 1.0638402 -1.96155 0.20099029 1.1514688 3.9649172 -4.37212 -1.3368536 3.6785564 0.24170245 -2.1321461 4.542666 2.7751544 2.7404788 3.913971 -0.71553683 1.4407935 -0.66556084 -2.008661 -1.0539466 0.9881692 1.2647555 -4.2481675 -0.59165245 -0.49541646 1.2179575 -1.0407143 -1.9640489 -3.7177305 1.6506932 1.2073432 2.5631351 1.3560896 -0.37600893 1.2795416 1.6524118 2.5742261 1.810327 3.9308689 -2.9787388 -0.074299395 -1.3946965 3.891566 1.9938405 0.35510454 -2.4656353 5.424791 2.8757708 0.08574953 0.4889391 -0.7277582 2.0285134 0.6018626 -3.0277197 1.1462916 -2.4495466 0.38091078 1.8179934 0.70519114 1.4407635 1.1608502 2.220229 4.4693837 -0.17506875 0.840446 -3.4690125 4.6584144 0.6728675 0.23142384 1.5646461 0.15738629 -2.4684272 2.544006 0.7399799 -2.0441663 -0.9872942 -2.4543033 -3.6121259 1.2455993 0.89122057 1.8192855 1.8476143 0.06494301 1.8544322 -0.120146185 2.9611106 -1.2724707 0.31596506 -2.2582185 -2.0210571 -2.475554 -0.6332433 -1.4674411 1.4360924 2.8154132 -0.927282 -0.44860673 -0.25321355 3.1869721 3.840368 -0.6107833 -2.5216076 -0.21280716 -2.9940927 -0.22378835 -0.4540217 -3.3512473 2.3986151 0.63765 2.0766096 -2.749059 -0.56737393 -0.69329965 1.2016678 0.58090156 -1.9868461 -0.51744634 0.13316827 -0.111270376 -1.5538914 0.51959896 1.7480631 0.19511922 0.35565612 2.3067744 0.040120978 -0.54985195 -1.9987897 0.2568513 -2.422922 4.2220693 -1.4406565 0.018710574 -0.3415319 -1.0263565 1.1094043 0.5781182 -0.9623763 -1.0575783 -1.7751648 0.059541628 -2.8251598 -2.5424411 -2.1408422 -1.2889746 0.5823463 1.6180692 -2.6874766 0.37266713 -2.9513726 -2.2392669 -1.5147165 -1.7363462 1.3138299 0.18927889 -0.1832914 0.4983571 -0.60950017 1.1588732 -0.4343312 2.185538 -1.7593334 -0.94319224 -0.43292913 -1.5593394 -0.046746824 -2.1693375 -1.2292082 0.21786578 -1.7564446 -0.8857795 -1.7743418 -0.09358433 -1.1233115 0.8212123 0.8699323 1.1922361 1.2824012 4.260304 -1.6589801 0.8181562 -0.36549583 0.1696165 -1.122488 -2.7229538 -0.4980891 0.7503867 1.8871 -3.5255911 -0.74548995 -0.5447159 -2.5507462 0.9812935 0.9050058 2.323682 1.2010981 -1.4450622 1.5492963 -2.0813608 -1.1582628 -1.6782812 -3.0364456 2.5065165 -0.42600012 -0.79709506 -1.5101347 2.2534547 0.4467433 0.5503202 0.9168486 -3.147936 -1.7249349 3.2451894 -3.4104896 -3.419409 4.269213 -1.4752089 -1.9518076 2.6797614 -0.61752135 -0.54586524 -2.7870684 1.4670633 4.0650864 -2.9751484 -2.0457404 -3.056211 -2.3320873 3.5502317 -1.0043309 -0.48262662 -1.2650585 1.042627 -4.1673794 -2.068106 -2.1160278 -2.1356125 -3.691322 4.7193623 -1.971919 -1.879519 3.399803 -0.2738983 2.047399 -1.7578269 2.511607 -1.8361902 0.017727163 -5.825066 0.12968071 -0.116333686 1.0540136 -0.011274104 0.5446417 -4.3327575 2.8256798 0.07033699
sload 2.4262435 4.034499 0.032356225 0.09914565 -3.7641277 -0.1491251 0.6169399 1.3800403 -0.39820656 -2.1878383 0.49424273 -1.9156138 -4.6245637 0.29214504 -0.2387346 -1.2159393 2.528966 -2.759854 1.1545184 0.9361708 -0.33820647 -3.4070873 4.6492753 -0.6384465 5.0136476 -4.3882923 -1.100515 -3.246432 0.16346608 -2.689188 -0.5619696 -0.6876317 0.008717054 -0.789248 0.06386643 -1.8454177 2.3172383 -2.8245964 1.2016052 4.955229 -2.9267778 -2.7165124 3.7159064 0.5561231 3.5598059 2.7060187 -0.24822132 0.7955091 -0.3269332 -2.4016013 -3.287366 0.38782132 -0.5868883 -3.0628386 3.4831903 -1.0160365 0.9438293 0.7194726 1.1925436 2.6799953 -0.032484535 -3.0471973 -0.60778886 -3.9917336 -1.887409 -2.2039895 -2.6921587 3.3630435 -0.53922594 -1.7937651 1.6299237 1.5164717 1.2905062 -1.6147561 1.1078943 -0.45382807 3.5999446 -0.8232592 0.9397198 3.4586477 3.910744 -0.64325964 -1.2078365 -0.5577494 1.9227617 2.4959464 3.7442129 -1.2384379 -2.879264 3.7882445 2.2640345 -0.13906983 -1.9871042 -0.73816955 0.51500285 0.012662272 -2.0009727 0.64904594 -2.4644108 0.46285394 1.4242142 -0.95161635 4.224484 0.96426725 0.010012456 3.0821795 -4.384345 0.58938277 -0.611113 0.7291984 -1.1473398 0.033190902 0.8973279 -3.3721032 -1.1269958 1.5476502 -0.30388916 0.6925804 -1.0468785 -0.6426994 -0.23903428 -0.2245887 0.38459328 0.98974836 1.9300652 2.0642374 1.8671248 3.9954965 2.6669302 -1.3319699 3.0011094 -2.6114252 5.2034006 -3.189672 1.8037688 -2.0734162 -0.80362296 3.4801185 0.7392738 1.8618078 1.068025 -0.94214237 5.3996186 -3.428651 -2.1034193 0.17968118 -1.174132 -0.9040871 -3.4228327 0.6486139 0.4771885 -1.0738924 2.7013001 -3.6456785 0.22995049 -1.3914632 -1.2606953 -2.213674 -0.9218034 1.3271186 0.043251675 2.436177 -2.249255 2.9843807 1.1484417 1.3691927 -1.2393317 2.0588365 1.4199599 0.35182813 -3.3106973 0.8799866 -0.17462727 1.6152838 -5.950413 0.8672631 0.14838235 0.7996625 -1.565323 -0.8968108 -0.35828823 -0.6086078 -2.1865895 0.30593824 -2.1189895 -3.5292976 -5.5587354 0.3276494 -2.0738475 2.9155102 -3.6998746 2.5401413 -6.2127376 -0.5263695 3.0470715 1.9691846 0.06549345 -1.0944216 0.5200044 -1.2715952 0.8279438 0.35131064 -0.10272382 0.31916517 -1.3067153 1.0742837 -1.4472376 -0.07220478 1.1392134 -0.15654436 -5.6280847 -0.83515006 -2.792737 4.096608 -8.757112 1.4830483 -0.9555388 1.2950456 -0.45255014 0.8960747 1.7509049 7.6701517 -1.7714223 -1.3612542 2.9837914 -0.5861677 1.3972433 1.6753129 -4.181254 4.3207855 -0.9083775 -2.7899768 -2.1298954 -1.6000024 -1.9868336 -1.5371727 -3.6491194 1.9572682 -1.2717794 1.4834738 -2.9279935 2.6584358 -3.3359215 -1.0533214 -7.1503944 3.284518 -0.5439294 -1.3781937 -2.1848502 -0.46479464 -0.6450382 -0.18054159 -4.3553567 -3.6156626 0.87865365 4.7247515 -4.7844424 -0.6792206 4.282964 -3.9034421 -3.3457124 2.337085 1.1426088 1.4792333 -0.31410617 0.034390774 0.10716485 5.471134 0.09407452 -1.2818859 -0.9540543 -1.0245678 -0.06813981 -7.2437696 -3.4725044 -1.0604656 -4.802436 -4.4200397 -0.8008427 -5.3080873 -5.181233 -2.769376 0.045613486 2.2887225 -1.2411395 0.040794265 1.8893378 3.0302427 -3.1618679 -3.3914237 -0.42168465 -5.481039 -0.8441068 2.2805016 -1.0321033 -0.6912809 0.78801495 -0.23244147 3.5614874 -3.2024047
revert 0.20589542 -1.2644516 2.1886168 -3.5334613 -3.2027566 -2.6178849 -2.8163545 2.413113 0.5940463 3.5212166 -0.17737333 -4.037942 -1.3449626 -6.030318 3.4006522 -0.94828 0.757121 -1.6541843 -0.7297152 -0.58385444 -0.35132268 2.8862367 -0.77956676 -5.406099 -3.9832175 4.4150305 -0.3549477 -0.4396758 -1.1118139 -1.9195071 -0.17081864 3.2683034 -1.7237234 3.0560145 -4.2480216 1.718864 0.5092169 -0.27498126 -1.1790092 -0.8887358 -0.24423723 1.4925035 -2.2511835 -2.147015 -2.4913938 -1.0533777 -0.27847734 -1.8569305 1.057576 -0.06612082 0.62573886 -1.1037927 0.4298528 -1.1789975 -1.4755111 0.6043708 0.6901272 -0.33587086 -0.4607505 1.4183604 -0.66967833 1.1408896 -1.20939 -1.1441667 2.1784782 1.0379208 -1.374585 -1.1522859 5.174344 -1.8600283 -1.5880735 -2.783961 -0.6101415 1.1777775 1.2498164 -0.64835376 -1.9184833 0.52522624 0.9541727 -1.2113284 -1.5334105 -2.632552 1.175847 0.07729356 -0.70656735 -0.6830986 -2.3566158 6.505071 0.44854268 1.8038985 0.009166905 5.5457554 4.4235206 -1.0023733 2.8079827 0.0009006876 -2.1598036 -0.057382982 -5.4342194 -1.9686624 2.2865107 1.2681806 0.65622103 4.2091 2.4672356 1.0139745 0.42797947 -1.1907097 -4.199266 3.5040693 -0.56846994 -1.6471972 1.391319 3.3972075 -2.2534099 1.7547305 2.5054288 -1.8346733 -0.28849027 -3.0074277 -1.1772777 0.045044556 -1.8177185 -2.327421 0.7139348 -3.964349 0.9601657 1.1845784 -0.8377063 1.628681 -1.68869 -0.08035789 3.2921371 -3.0670457 1.3537763 0.16930778 -0.86057556 0.14922625 2.1118362 0.59628844 -0.9578817 2.6113424 4.5265255 1.5623916 -1.3370795 -1.6598192 1.65299 -2.7525835 -0.05149027 -3.0459273 0.49275807 1.5063931 2.0206845 2.9990187 -1.1323475 -2.032542 -0.86757326 4.069999 0.19473638 -1.4240283 0.46082637 0.34984258 2.4099486 -3.490928 1.7739062 -0.29125652 -2.7546096 -0.6892232 -0.8085076 0.60499114 3.6460629 0.45261383 -2.952304 -0.8567262 3.5527737 1.913157 2.0886364 -0.9792118 -1.4507164 -2.6977868 -0.4827712 -0.7661992 -1.0465486 2.14972 2.0978532 0.07848679 2.5471692 -0.771974 -0.0027054497 -1.487216 0.95129114 -1.6163508 -0.39816394 2.2450776 -8.496792 -2.4755566 -1.5639322 0.4878686 -0.50124943 2.4077137 -3.290833 -1.0992086 4.546619 -1.6153907 0.72967094 -2.579068 -3.409562 -0.93485355 1.6964893 1.4649477 0.1375384 3.0604155 1.7085161 -0.79001313 1.3114822 0.43555492 0.28808767 -0.8209312 -2.2959342 3.9665594 -0.7620079 -0.8909271 -0.23464301 -2.6154308 0.029964477 -2.1839542 2.3738008 1.5000548 -1.5549699 -2.4305034 -1.0642976 -0.049818147 0.38753912 0.07527279 -2.2828965 -1.6726677 0.0027410402 0.65452963 2.7205706 -7.18615 0.5505961 -4.3798766 3.5272205 0.58637005 5.5868697 4.380559 -1.3816671 -0.3531131 -0.14069079 1.9962244 0.6723737 -4.302711 2.2828624 -1.3553927 4.195507 -1.7439808 -1.93294 -2.2369578 -1.5769802 5.1691155 -0.29980803 0.48200127 3.6664069 -0.38426 0.7618191 2.6746123 -2.9636135 0.47259593 0.38727534 1.4891936 -1.5318117 2.3425322 -0.13867341 2.7385924 1.2557487 -1.3549399 3.467787 1.7199746 0.88032645 -1.295337 1.9827038 -4.2088 -0.019575821 0.43942958 -1.0870208 -4.8936667 2.4679298 -2.496662 3.1473427 3.8045788 -0.9523131 1.7538264 2.426273 0.12627417 3.6622474 4.238444 2.6035383 0.6633232 0.91878927 -0.93624175
shl 5.5951443 5.908283 2.0602536 6.998234 2.2525148 -1.0277699 -0.28254429 -4.9775496 -0.041602675 0.59229887 -5.9421983 -4.4546204 -11.974163 4.4866695 -1.2770957 2.9564905 -1.2845607 1.2680113 3.813072 -2.2370489 -1.7040216 -6.84692 7.2995496 -8.45981 -1.2752982 -3.219056 -4.20143 -5.65609 1.5322636 -2.0943713 -5.3152213 0.30582228 9.816144 4.9313917 -6.199455 7.597709 2.0046842 -4.8437924 2.5801682 6.3709702 -3.5668256 1.6969782 1.7171419 1.9452782 5.317644 3.8488057 2.5376022 10.1313505 0.45928144 -7.5749707 -9.978954 3.4438834 1.5998594 -3.6236842 4.5221334 -3.1544538 2.6821394 6.137955 2.6378212 1.4301934 1.1030376 -4.1460266 2.7937987 5.00741 4.115301 -7.3413115 1.7956284 3.4053261 0.4441346 -2.832789 -1.8184884 0.44060695 5.8799014 -0.4065006 0.87370086 -1.7148854 1.9029887 -0.76472676 -0.38444272 0.5194824 5.2755475 3.955296 -1.0122095 -1.6884828 -1.1678079 2.7115357 4.0818553 4.594781 -1.4678162 0.89186263 -5.110508 -1.6441333 -0.9611479 2.6282728 0.6092529 2.6602945 -2.6094096 4.225347 1.970744 -1.9381313 -3.3951504 -3.478481 0.32121506 1.3386167 0.14771919 0.93525755 3.8721173 -1.1549208 -1.1406742 6.0022383 0.29912794 0.7559807 1.7816252 3.0312357 -2.0972056 0.4972727 -2.298011 1.8561529 1.7330414 -1.1855727 -4.957965 4.1268616 0.53526324 -2.9139175 1.3274925 3.0593526 6.5346994 -3.9869888 -2.9001255 -4.1972055 -6.6352606 -3.8395412 -6.8046613 1.5507848 1.2718246 -0.26449496 -0.566964 -0.511256 1.9485536 -2.171564 2.3236158 5.5576277 1.2449036 -1.1467297 0.92074645 2.9946985 -0.3660502 0.9276895 2.5509684 1.4080123 -0.819675 -2.1184185 0.6141144 -6.55763 -2.0120718 -2.764503 0.5825362 0.6223889 -4.3275566 -2.4736376 0.9222365 -2.3271704 -1.1999491 1.2800219 1.66787 -0.6235598 4.51788 3.1957095 0.96566623 -2.1303217 -1.7277291 -1.7724364 -3.455998 2.556221 -1.4851377 3.1589832 -4.5193896 0.23242901 3.0907695 1.0452368 1.0474716 -1.999964 -1.1214858 0.24751033 -4.849939 -1.6286333 3.2309148 -1.8024718 -0.71436596 0.78901213 -3.5148222 -4.936791 -0.9273942 -1.1186484 2.8444898 -1.7883238 1.6970356 5.943114 0.2828479 -1.9692657 -3.8948286 1.4489009 0.69926614 -1.8603016 2.8285851 -1.2445041 1.9560859 -2.370565 -2.9874773 0.14350715 0.055084255 -2.6953728 -1.626945 -0.87611455 -2.12037 3.411405 -0.0010978898 -2.6209383 -1.6220702 5.132316 2.3405364 7.3622136 -1.8666347 -2.4147625 2.9841444 3.4335682 -2.6047316 -7.0458064 3.504533 2.458511 4.2150545 -5.0380635 0.70524263 1.1314903 -3.6207538 0.9669512 0.68520343 0.36107907 4.2807164 3.6009169 6.297161 0.3930988 0.13804424 -0.25343138 -1.2979205 -2.28808 1.5859758 1.3073031 -3.0361712 0.97034794 0.090164505 3.1493943 1.0386027 -3.9348164 1.1468773 2.0259051 -3.363487 -0.2482827 3.1438367 -2.8256128 -5.049088 -4.3889694 0.15230364 -0.71801364 -4.0955358 -2.3243556 3.4701004 -6.3960185 -3.06471 -4.8500423 -1.5691512 0.91097707 -2.1215038 3.553145 1.3645347 -3.9477873 -5.097607 2.6924605 4.7881947 4.524938 -2.8862154 3.6484666 -3.7099197 6.5579805 5.0075207 -7.0816035 -3.3998122 -6.179294 -6.6916094 -8.2283 5.7641163 -5.6172566 -3.752524 4.347293 -2.137923 0.16106729 -3.8912706 -5.522929 1.9861482 -4.1908545
eq 2.571239 -2.430976 2.4449944 -5.5528154 -1.5144638 -0.02547244 -2.160277 -2.2097692 -3.5658915 -2.4215944 0.6991116 -12.058956 -2.5026276 -20.954163 1.638586 -2.8962915 2.0801988 -2.0524583 1.8424627 0.09128374 1.7996383 -4.759939 3.1774757 2.129756 -8.420272 -0.31557047 1.5063891 -0.8879647 3.952965 4.2502728 -7.0072155 -4.8261757 1.7783397 1.8216859 2.123135 5.9751472 -7.1545625 -2.07513 0.18988684 -6.650083 0.90684736 -2.500568 5.472956 -2.999757 2.409813 5.584019 -7.3506465 1.4612278 -1.0548686 1.4232007 -1.5576792 -1.7539929 -0.85383373 -5.6491985 -1.7675582 3.466608 2.827008 -1.6885562 3.4033573 -3.191675 4.992142 0.9317519 2.636601 -3.510645 -4.733391 0.054314323 -10.034535 4.595251 -8.509551 -0.30994302 -0.36714074 -1.037222 7.91183 -11.46282 -1.7771199 -3.6628141 4.332565 6.0134397 3.658251 1.0551641 1.9475592 2.3308072 3.823307 -5.8017745 -1.5784836 -1.1859076 0.79754424 -0.22844416 -3.0322382 -1.6887121 3.5555456 5.0582776 0.7857452 1.1407208 0.54749525 -9.464654 -0.9510565 3.526363 2.9708378 1.921745 4.6370335 0.532388 -6.404746 2.7760425 -2.0508237 -3.1450813 3.1912053 4.239034 1.1890734 4.7413898 -2.6546278 1.9255832 0.3131992 3.691272 0.7951599 -0.7700609 -3.5304086 7.147808 0.52067816 6.61978 2.2016816 1.6547368 -8.071526 -6.884444 -3.1936824 -0.7878699 3.450896 -2.9767244 0.088073224 2.2286043 -4.359523 2.8751142 3.605857 -2.352316 1.3847351 2.1198165 2.1830964 3.8607147 2.0004613 3.4892135 5.5337534 0.5682713 -1.179041 3.6162825 1.1664939 -1.3472934 2.2867563 -1.5590876 6.41606 -1.7332484 2.9262526 2.52625 -2.45118 0.6157984 -3.6402516 0.740259 -0.7457007 1.3071467 0.7738453 1.2848521 -2.9232314 -3.7317436 -4.54132 -3.1621604 -4.2863894 1.7018996 -3.050269 8.147022 -0.9445209 -0.90833986 1.2330836 5.9577003 0.8058096 4.7025433 1.0233786 1.7657968 -2.640299 -3.2061992 -2.7336285 1.5248309 -5.950751 3.9910583 -0.154256 1.4003032 2.9629037 5.2432365 -1.3801432 -0.86277324 7.004219 1.2972561 4.5717807 -3.196393 3.567507 1.0697635 -10.586499 4.0006413 -7.8935285 -4.2615438 0.965461 0.22436303 -6.0724764 1.8559252 -5.087199 -2.729983 -3.2547636 -4.3625135 2.6545823 7.1016335 0.3633588 -1.8472614 -0.893134 -0.39202717 1.9902111 -2.3257506 0.8317934 -4.8095484 1.5503093 -0.079730906 -0.45922902 5.5139475 1.7728492 1.0079303 2.8310163 -10.592028 4.775059 -5.044131 1.3857976 1.4402595 -4.7852454 -1.1413358 0.6161911 -6.1106095 1.6818507 -3.8371131 -1.3609813 3.4205446 -2.386834 -3.021204 0.28515154 4.9374433 4.184216 0.23991235 -3.3813024 -2.5013323 0.119844064 1.0013496 2.8904846 -1.8844554 -0.50708884 3.8787732 4.2335296 -3.9194732 3.9434793 -2.8876967 3.719341 1.0926026 -0.19116539 4.523691 -2.0988925 -5.71846 -3.3226082 1.3546222 -0.9875693 3.2554758 4.0880914 -3.6704261 -1.8595786 4.1837626 0.35090706 -1.3160006 0.9725686 3.0956008 -5.340467 -1.2258425 1.381383 -3.7878664 5.866341 -2.2944143 5.502464 -1.8568159 1.4735776 1.4543484 -0.27075246 -4.8969126 5.678472 -0.44140953 1.1089052 -2.351425 -1.2674923 7.569342 -4.239556 3.30121 -4.0647855 3.2957819 1.0089111 5.3005195 -2.2359006 -2.1684182 3.5708401 -5.769364
keccak256 4.709227 5.5133166 3.984929 0.71318823 -4.9756756 7.07424 -0.83901465 -2.864052 -4.1683974 5.462086 4.2719226 0.9831698 -1.0459288 1.2895659 0.5937919 6.2616816 5.312811 -2.6678288 -1.3550736 3.7211933 1.7706633 -1.0814869 4.424685 -1.0010004 4.4628243 -7.5665355 -1.9444015 0.6689326 3.599904 0.0061400463 3.316236 -0.07123017 -3.124113 -0.8577298 -0.2730313 -3.500022 2.6823528 0.22000113 4.3365593 5.642304 -1.7580596 2.4192488 3.6863453 -1.7015975 0.6479266 4.516487 -2.8344543 3.0420978 -2.6012414 -4.9588985 1.4628234 4.375095 -4.6949134 -1.6025041 3.7886796 -5.0163603 2.0422294 3.157294 0.2934408 1.0940958 -2.7115226 -3.6049209 -3.1996033 -1.4213907 0.14935932 -4.4017305 3.964975 0.39164415 -1.3021178 1.0794215 3.0798788 -0.26807207 -0.88202584 -1.9276152 2.864536 -1.7795862 2.345358 -2.4234314 -2.5133054 2.3606622 6.7808924 1.9062852 -3.6466818 0.58816046 1.4068029 4.7199535 -0.0013022712 -2.6895075 -1.1057719 0.09861423 1.9179388 -1.8624899 -0.8300588 -2.7026958 -1.7315644 1.7816473 -2.4454465 -0.66875887 2.2401998 3.1723952 -2.0933867 1.3081976 6.482506 0.83307207 3.8617544 1.5691241 -3.3734865 1.9836642 1.5168995 -1.8251886 0.35018718 3.871067 0.7361583 -4.524829 0.7507626 -0.7194716 -4.0220356 1.0153819 -0.20195502 -1.8460548 0.23048604 -2.3486724 1.8996303 -0.7574422 5.3413815 1.2480289 0.3372124 -0.5778018 5.956407 -2.5341706 4.730444 -6.6598935 3.6694965 -1.5522506 2.0399916 -2.7800484 -0.9947481 1.5184168 0.7159568 2.0711145 1.0467324 -7.4448586 4.7893867 -0.5779271 -1.5214307 1.9370493 -3.5844026 -0.5476911 -0.033800043 2.7918582 2.4499116 1.7518166 2.0594256 0.73896986 3.3957815 1.4830279 2.723377 -1.1564829 -0.29097497 -2.0698056 1.9182638 -1.3585552 -1.4586349 6.8474765 1.813748 3.1069026 -5.56273 -3.3091602 4.386783 -0.8134933 -6.0292807 0.18379128 0.96810526 2.2394319 -8.350417 1.6212378 -0.9980918 1.7003607 -3.4421976 -0.020838931 1.5388931 1.0661246 -0.1966175 0.19898793 -3.2678568 -0.36833906 -2.6122062 1.4182954 -3.9765701 3.5091057 -1.5343512 0.6273658 -6.0098057 -1.6922405 4.5976973 2.3073242 1.6043046 -2.2152834 2.3101087 2.2464728 4.6687884 -2.1429315 -1.1085508 0.4118309 -3.0767486 3.2724564 6.420012 -0.6620181 1.9743637 2.4858847 -3.6859114 -4.94822 -4.4194016 0.68118656 -7.202191 1.4723324 0.23212932 3.0524063 0.7267446 -1.9216933 4.018016 8.395471 -2.3676872 3.5400481 5.436509 -3.7919707 4.063376 1.1393486 -0.9059918 2.0908809 4.254562 -0.23802276 -4.1089754 -2.9208794 -2.073464 3.6980157 2.4755774 0.83055794 -1.7892696 1.9030423 0.543516 6.7118063 -3.1669824 -0.2671554 -6.1293836 -4.4448814 0.8450571 -2.0831625 -2.901931 -1.0561084 -0.5234253 1.5617721 0.06649685 -3.2533536 -4.7285824 1.0870715 -3.6875422 3.09831 2.9649384 -1.7359071 3.8293855 2.4868941 4.150823 0.31525528 0.43677628 0.7174274 1.0850013 1.0863836 -1.0663332 -4.283262 3.0471933 -2.0437577 -4.1937556 -5.4575515 1.5400085 -0.9598991 2.95664 -4.751934 -0.8337122 0.8949165 -3.5719156 -3.4143903 -0.26434255 -1.8831339 -6.313714 -1.5018827 2.77761 1.7180947 -2.4637415 0.123179905 0.08413475 -5.1209726 2.3718314 1.8338026 -1.5008789 -7.5329556 -0.33920398 3.136372 -4.3046365 2.2125447
lt 2.1717253 -3.1379597 2.6283948 -1.7754067 4.7289844 -0.8792021 4.8206077 0.7296708 4.471102 -4.4303503 -7.531563 0.5641418 3.7215915 10.98696 5.119884 -1.071793 4.1980433 -1.9877378 3.8637452 -4.1010814 -0.26684245 1.5208455 4.1907506 3.7225718 2.5667872 2.5215049 1.5701395 3.67288 0.14572243 5.4822416 3.1831963 0.0031204147 -2.5874176 -1.8059847 6.5770164 -0.9275848 -3.430971 4.564391 2.5255895 -5.1116266 0.67782515 -4.4907174 1.6159904 0.7284732 -4.936916 -3.259774 1.0187875 0.9852088 4.6672997 -0.15544629 3.0031133 -3.7109413 6.231111 4.487648 -3.8406482 6.569145 -1.3821989 -3.328428 -0.37744454 -8.291112 2.2680266 1.6200966 -0.916708 2.0343082 -2.54711 3.4645753 2.2603695 -4.5568666 -3.349224 -1.1171486 -3.7099054 -0.49354956 1.2220317 -1.6417854 -2.2505288 3.0846434 -2.2188113 -0.46257564 0.50556374 -3.6046505 -0.96675724 4.4204555 1.3328247 1.0026027 0.74179053 5.7320514 -0.7318005 -5.7672906 2.2404788 2.934566 -1.7008164 -8.988569 -1.2633843 3.3433402 -0.5387451 5.4640756 -2.8028324 1.4872078 -0.66267264 -0.027093578 -0.7961662 0.3965192 -6.6832414 -1.0232778 -1.7812533 2.4836745 1.6328217 4.238608 0.08100698 -0.83018404 1.5229061 1.8260977 -0.55574733 -0.0011583702 1.5384988 -0.63613915 1.8520893 -0.9177007 -3.6933136 0.7081542 1.0900409 -0.85524076 1.9403269 1.1153059 -3.17442 -0.54991806 -3.6537745 -4.0319014 1.4199122 -1.7004473 2.9855692 1.1722 -4.9015164 2.810953 0.41697946 1.9100862 0.42294824 -1.9384581 -2.6287272 -3.2524753 2.4291604 0.15522069 -1.041743 -0.5550954 -0.2320029 -0.45054033 -1.6653367 0.94990486 0.7417844 1.0791605 -1.7631376 -0.8413673 2.5082004 3.9918933 0.08775396 1.9511648 -0.58939075 -1.2152808 -2.3842683 2.929319 0.14476246 -4.7766047 -2.343757 0.5241839 -2.8870955 2.0608704 0.7451699 3.9785326 -1.8512511 -4.526202 -0.25783703 -0.041765098 -0.122264095 5.1182656 0.75013757 -3.2066424 -2.5767906 -1.5849168 -0.6533453 3.786298 -2.2175336 2.6855662 -1.8912684 -2.2325523 -2.4658132 -0.27771676 -2.9699736 0.37515908 -0.5481914 1.1195273 -3.361066 0.6154494 5.421699 -1.386673 -0.963733 -0.18381365 -3.9546607 0.70824784 1.0731171 -2.2007449 1.0433474 3.7004051 -3.6142545 4.246472 -1.0565208 2.3923988 2.7098162 -0.39511696 1.0260532 -1.0521669 1.2909943 0.6235064 -1.8105012 -0.75982726 4.4153256 0.45962554 -1.629489 1.1950753 6.0881906 1.3720981 -3.0977666 -3.0967777 -0.18837994 2.4202282 -4.876894 -1.3086262 0.7830291 0.29946655 -1.963789 -1.6471009 -3.45931 -1.5760678 1.6569254 -0.6902192 4.571255 5.0698605 4.2710023 -4.1242123 2.2115092 -0.46248612 -0.06533577 -3.5294747 1.8599869 -0.7287777 -2.6044345 -0.020400546 2.8526068 0.17312664 5.265368 2.4254174 0.5025392 -0.32608044 3.3439558 -0.09557186 -0.0645659 -0.59197205 4.2419853 -1.6721486 -3.3006642 2.1326249 0.55747944 -0.11120036 -4.266193 -0.7390027 1.0280945 -0.89091706 -3.3133476 -7.153062 -1.1475629 -6.3066206 -1.1466645 0.5958428 -6.239692 2.3835454 -0.3304547 2.097993 -1.9311571 3.6710875 1.1097091 5.614442 -2.4415522 7.95274 -2.9692829 -5.8802023 1.5083534 2.8120813 1.0569869 0.0062260996 -4.019081 -1.9658384 0.98661137 1.541947 2.274943 0.5649106 -3.3385797 -0.9123055 -6.917077 0.49935138 -1.8592135 -0.09900216
sstore 1.0013958 6.710283 3.3047276 -0.63334006 -4.899833 -2.0935633 1.8316977 -0.26761734 -4.4102583 -0.8146508 3.1902907 -1.3136953 -3.9562376 0.42392302 0.7289588 -0.518169 -0.8546138 1.6873394 -0.36615255 5.9120703 2.9416504 -12.443367 0.39077282 -1.0538237 2.698999 -8.196219 -4.66001 1.5406556 -3.5430639 0.62311953 -3.9303894 1.8049117 0.40617153 -6.3113513 -0.56032634 -1.0857732 1.200879 1.4079084 2.0734968 6.3431334 -1.0927783 -0.5684294 3.565922 1.8359444 2.8504157 -1.0398978 -0.29371902 -0.20238636 3.300333 -5.673621 2.9394777 2.2140338 -3.4676776 -4.771475 1.180768 -1.9213458 3.9055867 4.6826363 -1.3433315 1.1543957 0.12796903 -6.8486195 -0.735309 -1.4133703 0.022708338 -8.762991 -0.48287624 1.331414 -3.278135 2.1659706 2.9729047 1.6380321 2.646858 0.10309157 1.8003073 -0.83085763 -0.7332741 0.35717288 -2.0028298 3.8908482 4.81744 3.7466655 -3.76558 3.2001636 3.8481002 0.43910202 -1.476122 -3.1748815 -1.4320056 2.5448947 1.1115828 0.043583483 -1.4590607 -0.2507401 1.0042217 0.06480151 -0.01918502 -7.5230584 -1.4134201 0.79527223 -1.0934784 1.9641557 -2.0803928 -1.1108586 1.6124749 -1.1628044 -3.0184867 0.34932423 1.718664 0.17088352 -0.793439 1.9377294 0.4561992 -1.4595683 3.164175 -2.8774157 -5.7553525 1.9592079 -2.8889768 -0.3319326 -0.22067113 1.1447427 2.2834423 -1.1867163 1.8105718 2.2151072 6.211194 4.324511 3.3954432 -4.3391223 0.80266285 -2.1336956 1.0220823 -3.415989 -2.8329575 -3.9188492 -0.15808724 3.1247752 -2.1217825 -0.04397429 -0.017916972 0.7276207 2.4184186 1.1188239 1.1315416 0.27533522 -1.6799309 0.934757 0.22961597 0.20220645 -0.032364637 -1.6505967 1.7024598 -4.3959465 0.28335994 0.7447692 1.808757 -2.8319943 -1.9967592 1.2792603 -3.3147006 -1.4526944 -1.7970345 5.686302 4.209838 -1.3541654 -2.6648633 -2.0669005 4.32217 -2.0032697 -3.109452 3.4947975 -0.79796547 4.757528 -7.659493 -2.4857259 -1.6410648 0.032600973 0.09469943 2.1108816 1.573096 1.8251002 -0.64233905 0.5692189 -4.4727545 -2.7782502 0.35814416 -1.209658 -2.6068027 1.6710548 -3.4405556 2.251815 -6.030833 -2.6698143 4.291657 1.0535334 0.80324066 -3.0035129 2.4595218 -0.089644104 1.1799302 0.40317556 -2.4152179 3.4707205 -3.4424775 -0.4729204 0.7377858 -1.2442033 1.1063609 -4.836248 -3.7633898 -3.6422765 -4.6082735 1.46311 -4.9013753 0.029373392 -0.5533332 5.952362 2.3860126 -3.4602938 3.414727 6.709457 0.7640893 4.559077 -0.16710187 -3.4901829 -0.77011204 1.1587303 -2.423285 1.6185231 1.417145 0.25623497 -3.6380403 -0.3329387 -4.9256306 -1.884923 0.11874279 3.2432883 -3.5763927 2.370082 4.8532166 2.3599167 -5.2849417 -0.5401766 -7.8425584 -2.3721602 -2.1172013 -1.9118994 -3.1312268 0.22030352 2.588506 4.1006627 -0.76101214 -0.68593615 -4.7035604 6.2984877 -2.0726323 -0.92252076 7.72787 -9.22761 0.9012071 0.5484022 1.942044 2.084937 -2.9914155 0.16204329 5.7676525 2.3269243 -0.8093382 -1.7699538 -1.4815278 1.0755593 0.6950805 -5.689193 -0.00095697196 1.2934254 -0.54902166 -6.6770873 -2.0698955 -3.2975047 -1.1739337 -0.10898527 0.7907226 0.30224988 -2.7758625 0.61683327 3.8293772 -2.0551536 2.9939504 -1.0701851 -0.04101361 -4.5951037 4.461051 -0.6148573 -1.5775948 -2.1870658 2.4714932 -2.9978223 1.4124378 -2.9896605
calldataload -1.321179 -5.9580107 -5.3642755 -3.6156793 0.8356236 -1.9173003 3.0330977 9.586078 3.5012028 -0.6182232 -3.47128 0.327679 7.6010427 -1.2058336 -4.258151 0.3696054 0.13191737 5.54121 4.8534513 -5.4549975 -2.4053957 3.5161204 -8.857839 2.6749842 -5.406504 5.084897 0.80897623 6.094531 -3.9076445 -1.7685735 1.6416234 2.279096 -0.7194065 1.527209 0.7346069 -3.505241 -0.5618197 -0.6983064 -3.2082393 -0.9062888 2.1080074 1.4834428 -1.7412548 0.32886854 -2.1927006 -4.107585 1.9593033 -0.1723353 -3.745314 1.2515309 -1.8763642 -6.1612926 2.7023106 -0.012465322 -2.93795 2.7208734 -3.1364422 -0.34248096 -4.7995353 -1.8069178 -0.5916305 3.034267 1.4425131 -3.9359202 3.4677408 7.92863 3.441008 -1.0699472 2.6929996 -0.42001274 0.15790138 -2.6860342 -7.517346 -0.74071217 -1.3208175 1.3092172 -5.060157 -1.1295135 0.872687 -5.681161 -4.062956 0.8437892 1.6524738 2.8294592 -1.8432175 -1.2606797 -0.44537684 3.4944074 1.7586234 -2.2819946 -3.1692815 1.2008442 4.9000883 -0.31419465 0.09768739 2.8468711 0.6799417 -2.1581962 -0.5666543 -0.34443787 -1.8558643 2.4293938 -4.4229198 2.385364 -0.42021233 1.1596227 3.1742985 1.6461711 -3.6586096 -3.7318423 -3.7074108 -0.99567527 -0.6679362 8.141777 -2.884334 2.1807587 7.5935817 -1.3209043 -1.0967709 0.9102 4.6308393 5.3121033 0.19572075 -0.319569 -2.2310867 -0.8846502 -1.383799 -1.5151821 1.1076117 2.8384333 0.55882037 5.3725657 -3.8064964 1.3430444 0.28358683 2.2346435 -0.7131766 -7.692543 -4.5512843 -6.459487 -0.63907564 4.372089 -2.851016 1.0462459 -1.2025607 2.3866348 0.9661861 2.1836507 -0.8871691 -2.5132592 4.9477863 0.5140321 -1.5919033 10.035026 -2.95697 -0.600117 5.3931155 -1.9554734 -1.2972841 3.8704329 0.8819821 -1.3355328 -0.0003958201 -8.405307 -1.7678686 2.30857 3.3817606 1.6675769 -2.1897845 -0.22178872 3.1680906 -3.974931 -1.2710854 0.78405845 4.9637575 0.70680976 2.8453083 2.0002358 -1.0636325 -2.20979 -1.661473 -3.7990012 -3.269368 -3.098834 6.060813 -1.2784733 3.0450497 1.8871477 1.113353 0.37764555 5.8924904 -4.626599 -1.685698 0.96377367 -5.2169523 -5.6953936 0.15519801 -2.8036118 -6.70734 -2.6882806 -0.018818758 2.0915549 1.3247534 -1.7552633 2.9420936 -0.64248365 -1.7852294 0.08596153 -3.6474595 0.073560044 2.7437136 7.5331283 6.9445395 -1.3568307 6.638354 -3.4868386 -0.22371152 -8.293918 -4.230367 -1.9988666 -8.150294 -9.3104725 -2.3857243 -4.304 -3.5892627 4.3185325 -1.3623651 -4.73572 -0.5768843 -2.036937 -4.2797775 4.7787423 2.7293258 0.88138366 2.0045779 5.555193 5.231242 -1.5991441 6.2331886 -5.294798 -3.6192281 -9.045577 4.9478436 -2.7328799 12.660565 6.0948563 0.8315251 1.4277215 4.758073 -1.1684842 -5.2986 -6.592431 7.2015076 3.4338799 1.935615 -8.654213 3.8223097 -3.6022973 -7.3732224 9.078673 1.5010389 0.489054 4.871913 -5.654911 0.15365227 0.81999874 -5.4833326 -2.2529788 3.5642688 4.127175 -2.9699714 -0.98426825 -0.88523334 5.611708 1.9407076 4.740643 7.7159595 5.67208 0.29725128 -0.051384535 1.2889191 -1.1808805 0.7922934 -2.4412985 -0.5625311 3.6246123 -1.1224703 -2.5361452 2.7118793 2.7630515 -1.7573572 5.5130615 -3.4922323 -2.0906546 3.1237767 1.1993741 -1.6094165 4.514892 -0.7787415 1.194291
gt -5.1412225 5.233831 -0.19396077 -4.2132382 1.6049403 -0.5177899 2.2460437 5.8262897 -6.0169673 -6.346951 -3.488488 2.6670809 1.6536161 -1.6648207 -2.6568272 0.84641755 0.31091863 -0.7038202 5.6594954 -4.2993793 0.024999542 -5.4754105 -3.164447 2.985919 -5.935009 4.403109 1.0957454 1.4540566 5.567147 0.5568663 -1.1318678 -4.4081635 -2.1808963 -7.017377 8.008896 0.18482181 -4.759512 4.036601 0.41404969 -1.7891223 0.7186788 -3.3582613 5.8178573 -3.2888877 -0.80467635 4.0575166 -0.14681707 1.0325936 2.8964906 -0.27375004 -1.1559885 -5.9707875 4.4412003 -0.59446836 -7.5716286 4.7963634 -1.5564445 -3.3606412 -2.4893222 -9.505135 1.7416537 3.7136679 2.0290043 -1.8714964 -4.9167786 -0.9556881 -3.2202976 1.2996409 -6.8671217 -0.3023405 1.9460424 6.3712225 8.534204 -3.831571 -4.0216985 -4.1651936 1.5306548 -0.36507577 -0.0729874 -1.6095614 4.2764397 0.028371176 1.6362654 0.5790113 -1.1571734 -6.095004 5.8327703 -4.9762154 1.2252914 0.52348053 -3.4637172 -8.329034 0.2564425 1.3084369 -0.30328608 1.3696961 -1.781474 -0.30946985 -1.9774595 -2.4903252 -1.1648556 0.71387273 -10.24208 0.19651595 -2.026945 -3.7304509 3.5521042 4.3898554 2.593124 -3.009165 -1.4233589 0.7976066 -3.4862723 -0.050264996 4.3354964 -3.071583 -0.08992924 4.8687344 -3.4898622 3.9821446 1.425175 -1.2751918 -2.5326726 -5.721757 -4.878562 0.867855 2.2153785 -0.34630606 -3.5829515 1.2495914 -1.7992052 -0.27289578 1.3743671 -1.938465 -0.9560873 -0.20179139 0.21649879 -1.5040802 1.4250432 -2.4932966 0.29868078 2.6935904 1.2869155 -0.4447469 3.0527124 0.8616106 -0.052987378 1.1078202 2.5533438 0.17969492 -4.014535 1.7984532 -0.20757978 -1.1969925 1.7535745 -1.4357584 -1.5991017 -2.329216 -1.8164645 3.4498756 -3.49818 -0.036488827 -0.7760318 3.538291 0.012794747 -1.9004923 1.9581513 3.343581 0.99350154 -1.5655247 0.026992142 1.268961 1.6091565 3.354716 -0.3155127 -5.4252653 -2.2692118 -0.40525076 0.46452585 0.119270526 -3.7843401 1.7904145 -1.7375757 2.7847347 -1.2530882 -0.80332834 -0.6668398 -0.1704441 1.8988721 -0.1816833 -3.826219 1.460129 -1.2509292 3.4813085 -0.5468664 4.0549455 -5.027752 -2.4581382 1.8813086 -3.3126683 1.0104926 1.5099813 -0.7077325 -1.3413607 -0.7357524 -0.6806865 -2.9076755 1.9964123 1.3793851 0.28794378 -2.0728352 1.4890052 0.5727869 1.2013335 0.32714027 -0.1405643 -0.7503904 -0.86310697 0.20206791 1.1762342 -0.89761865 -4.7006035 1.9347953 -2.0530176 0.45400453 -3.9557338 2.5569365 0.5478956 -5.508972 -1.9011467 -9.146601 3.2315917 -2.8589988 -3.6563244 1.2315586 1.0312372 4.1937695 -1.7034236 -1.7456857 -1.5676626 0.010285446 -4.9842663 -0.79004306 -4.6478825 2.3639586 5.190175 -0.86795294 -1.2175195 -1.9028455 1.6859337 1.1402926 -2.1575294 1.9402401 2.734248 0.62999004 4.6287317 7.665893 0.16640745 2.820197 -2.887094 -1.5141528 3.6678152 -1.7912115 -0.7317998 3.395012 -2.453519 -7.6395445 -0.13913816 -0.40901393 -2.6054752 2.1793528 -5.495474 -8.009931 -6.53486 -0.66568476 -0.8330156 5.273738 -0.9541787 7.299335 -1.9885031 1.3684263 -2.2635384 -3.5929205 -0.3940389 -0.4057846 -0.4766761 -0.2156008 -3.9934833 -5.180342 -1.6810398 2.0093615 3.888255 -1.0499384 -1.474496 -0.6322311 -2.3446283 -4.406137 1.613846 3.9932353 -3.772989
mul -5.7406564 1.7396344 -0.68249357 -5.840469 -3.8173769 2.7154167 8.426969 7.203189 -2.6062331 -8.947476 1.8670837 0.19282717 -2.0872383 6.2707796 0.9531535 1.5182573 4.9265723 -3.745221 3.3559384 -7.6507607 0.19580667 3.3060293 -3.6574721 3.7492433 2.8336809 8.043772 0.31401166 -1.0681747 -0.39090124 8.615357 -3.157 -4.0862575 -9.268615 -0.14939591 1.5797985 -5.546846 -2.0134153 -1.4400293 2.692464 -3.8132267 -2.751464 -4.9227138 2.5360355 -4.6214924 -2.4654706 -3.5287912 0.9674839 0.7084053 2.2300072 -3.0484228 2.5980961 1.1928526 1.2327956 7.669865 -5.0128775 4.8458695 2.091051 -6.4786525 -4.539547 -2.4673257 -1.8834387 4.61234 -1.1974076 -4.0318055 -0.91636354 2.734937 1.8138363 -0.08579768 4.249774 -3.9409635 1.3398118 3.2114048 -1.7382597 3.1432621 -0.81933355 0.7094727 -0.90954196 -2.2675126 -2.6639912 -5.071254 2.9310088 -0.816608 -0.29615957 3.1320822 0.98416185 -0.5672215 3.9090753 -0.83865625 1.7642674 4.588821 -2.3102303 -6.89037 1.0168668 1.870993 0.34222165 3.0250535 -3.220061 -0.13795966 -3.5700839 -2.3921254 -0.9115239 0.72708887 -4.3781624 -1.3567727 -2.5343096 -1.7824676 0.41809434 0.76038474 0.6768326 -3.6771905 0.4716718 -0.121282764 -0.5323643 1.2616068 2.3104491 -3.0904336 4.2798095 -3.6291084 -3.8946848 -0.98414916 1.1067588 -2.4692576 1.035223 1.3570498 1.4170939 3.7479076 1.0070792 1.8426766 2.0552657 -0.6341249 4.2929296 3.4802067 2.86417 -0.31656265 -1.1191548 -1.0520144 -2.4710093 -0.08945752 3.609786 -2.4111505 -0.34600827 -2.4524004 6.519224 -6.4023094 -1.8080679 -2.3619697 -2.6444356 1.8387723 -2.5323749 -0.429748 -3.465951 -3.740743 3.7544832 3.1291268 2.4088774 -0.26661697 -3.217205 0.07830569 -0.4773433 5.0081387 -1.1436169 2.3935142 1.4252956 1.6823756 1.5546273 -1.807542 4.0348015 0.17413202 -0.3906131 1.3349063 -1.7327026 -2.2543428 2.556164 -0.1373519 -0.30422422 -5.663836 1.1082975 -2.3232317 -0.26957497 3.9002285 0.9360595 -4.5437875 -1.2519743 2.59468 -3.7111576 -5.775716 -3.2858737 -0.6935072 -2.710617 -0.36908722 -1.7712938 1.1676284 -2.8047135 4.7634554 4.9486804 -1.1701856 -2.415562 0.70593286 -0.20848145 -5.5637317 5.8336143 1.1085575 0.13957441 1.1505198 -0.5346816 1.755696 -5.3094864 -5.4582553 1.779566 -4.1349974 -3.0800123 1.3940623 1.574071 4.2948313 -0.6191579 2.3039224 -3.1726305 -0.21289095 -0.62894845 -2.9502501 -0.7743856 5.0036707 -2.86708 8.407317 -1.1750938 -2.415389 -2.8901885 2.10191 -6.0165052 2.4343426 -6.519722 0.8315701 -0.56650853 -1.0939678 3.2580168 1.8676914 1.4683939 -1.5054562 2.3563354 -2.3700294 -1.2135257 -8.224721 0.5749569 -2.6360872 2.7633662 7.8994575 -2.9484732 0.6826559 -0.27315113 1.5149518 1.9504585 0.053688023 3.8662565 2.4134552 -3.440736 4.471269 5.9133515 1.6316992 2.1093214 -4.949942 -1.1840941 4.6971717 -5.5129266 2.8890855 4.561109 1.3455632 -2.5547583 4.2165895 -3.2932913 -0.7710042 1.7838082 -0.81021357 -0.76309365 -4.6700234 -2.297813 4.5996614 -2.323968 -1.030905 0.66293204 -1.1364573 -0.49370718 -1.6734333 -1.8333851 -3.5409439 -5.1753316 2.7281985 0.164276 -0.1341905 1.6824242 -0.9412497 7.075505 -1.2919316 -1.2333033 -2.6238875 -2.1576762 6.5439787 2.7078457 6.6887703 4.610489 3.0759337
callvalue 4.627346 -10.89876 -5.259894 0.20128478 0.99578893 -4.44128 5.017837 0.45768195 4.9869194 1.4783735 3.4398031 5.794596 7.5270586 1.4776678 2.0320306 -4.3955493 -1.3681192 0.8105975 4.2718706 3.2621694 0.59010684 -4.0766087 2.5397627 4.466501 5.0138 -1.2068968 0.5290528 -0.58278286 -6.979066 -1.1342684 2.720358 4.85205 7.9052906 0.32181096 6.386997 -0.5152512 -5.397928 0.63154066 -4.575114 -0.703161 9.56861 -0.36696333 -1.0656204 6.753803 -0.7268855 2.2820342 -2.6082087 -0.17815764 -0.12919828 -0.7588255 1.5200744 -4.997853 6.3163424 -0.06202214 0.3802436 0.934885 -4.4888268 2.518379 3.7783856 -2.1316843 2.4634738 1.5014838 -0.07480803 -0.8668173 -4.561327 4.5038767 -2.1180937 0.72468257 -4.264646 5.5215716 1.1183736 1.3179821 -0.50043696 -4.479335 2.943492 4.301786 3.1427815 0.4094261 3.3709118 -0.8752608 -5.4801 0.77124655 -0.08741329 -2.3110254 -2.6243389 4.922107 -0.10142678 0.8123843 0.17097087 1.3409702 1.0051396 4.2554593 1.8548831 0.40754822 -0.5780157 -2.535507 1.9667611 -0.6901698 0.37588447 -2.7409801 5.5433693 2.7409916 2.6624513 3.1704545 0.20790441 6.9520464 -4.315906 4.469624 -0.044824485 -7.352948 1.2173653 2.5694897 2.4840977 -2.8608828 -0.39570865 6.441803 2.758369 -2.4185734 0.17430988 3.9497988 4.465656 -4.5676374 0.34314325 0.29250696 -5.479859 -4.9954586 -3.176953 2.8346736 0.5319433 3.9938805 0.6559774 1.3277692 -0.4773161 1.2391992 1.5719287 0.96484196 1.320156 -1.9581059 -5.9994283 1.8116215 -2.5909426 -0.39916438 -7.7603765 1.8454764 -3.318051 -1.0726945 -3.185761 -2.772774 -1.282404 -2.082566 -0.70470375 4.4037313 0.7382898 2.6020463 -1.5419215 -2.2141356 -1.2738379 -2.937294 0.07012491 2.3935292 0.9858386 0.9268171 -6.55464 -3.7554283 -3.3331094 3.0784895 2.775317 8.389068 -3.5648499 -3.1174247 2.6943543 2.2802808 -0.7139124 3.9236603 2.2268367 3.7325513 2.7219584 -6.470992 -2.2162795 -3.6570194 -3.5699959 3.1229043 -6.4859276 -1.5375503 7.204718 0.5101533 -4.622205 -0.8307587 4.3157587 5.6843333 2.3452275 1.7782687 1.0446656 -2.3264813 -2.3642304 2.1302474 -4.2399545 -4.0607743 2.81113 1.0573515 -1.3337389 3.2019024 -6.6977143 -1.7114205 -2.5115027 2.8063698 5.3303046 8.480018 -4.793021 2.9625082 0.16385953 6.4504414 0.64690965 0.53583354 0.23643444 -0.77023625 3.0177696 -3.2702806 -1.9627941 -3.4340887 -5.4505935 -5.7394056 0.9942298 -7.8073573 -0.3172561 1.5932465 5.844319 -1.4503036 -4.6985974 3.4879122 -5.576282 9.4008 5.0940604 -7.5805006 4.5738554 3.4213216 2.0858955 -6.4534993 3.054526 1.4521893 -8.107633 3.9726067 0.45590523 -2.7629817 -0.8731808 0.9933617 7.1431804 -1.9795346 2.2705328 1.0807946 -4.6516614 -3.0168514 -1.1075484 -2.8625772 8.969616 -3.1240966 -1.7804561 -3.2250166 -2.2280264 -0.694662 -1.0186003 -0.68966675 -0.91876787 2.7943158 6.932855 1.0964351 2.4439542 -5.075454 5.63872 1.5590974 4.125113 0.42492425 -3.7095764 -2.7791467 -2.9550424 3.149423 0.06535698 -0.51057714 -3.2139814 1.8284953 -1.553821 2.3912208 -0.79538155 3.2056644 -0.084833175 1.4287165 2.6192434 0.77150494 -4.567961 0.026979096 -3.3543377 0.08105805 1.8836434 1.0254047 4.6147637 -8.510688 -14.272695 2.0306895 -0.9377571 -3.1228008
div -3.0316768 -2.3231347 5.916455 -2.8503108 6.9113936 3.2903142 -0.03168206 -0.25295794 4.315231 -1.5494534 2.6018155 -3.490742 -2.547429 6.8431783 0.5070275 -3.1197705 8.866628 -3.5177596 -3.2500207 4.682056 -1.3384671 9.167339 0.63089 -2.7968218 0.8364742 0.7285748 5.239096 1.6823864 3.2194898 4.5047064 3.228543 3.37643 -6.479362 -5.288921 4.853509 -5.1261606 -4.673073 -2.4543078 2.9983861 -6.9075 0.5037198 -3.7835 2.4002447 -4.199735 -1.4921969 -2.7187617 1.1567868 -3.718145 0.6913472 2.4600205 1.2402433 -2.699008 0.98739463 0.8644861 -1.6694807 5.316624 -0.06539709 -5.900284 -5.372181 -1.5737091 -3.2410963 2.7054694 -2.1229017 -5.2848506 -4.3900013 4.1936584 -3.5705082 -3.3494651 -2.1496518 -7.598621 -3.2112916 -0.06786148 -0.5892536 -1.6335268 -1.1046375 -1.5638485 -0.60588884 1.7743833 1.6128136 1.5129939 -2.107586 -0.32974604 3.8809657 0.4583885 1.5765203 4.5385456 0.8368775 -3.776177 -0.9693137 4.4030004 3.4068213 -4.7126384 -4.5427747 -1.1801425 0.15861727 2.309934 -2.9889674 4.361356 -2.6254468 3.0705748 2.7061105 2.3009994 -1.9468611 4.999589 3.3985593 2.4516969 -1.5809321 5.1164 1.9669027 0.82389617 -1.3800415 2.5861642 -1.3975568 -2.0412827 0.16440468 0.038711835 1.9038079 -6.1336956 0.7433743 -0.69343674 0.19933984 -1.9741726 0.90297556 5.356346 2.078488 0.86950874 -7.257184 3.771563 4.6255617 1.4070117 7.144793 -2.7721624 4.9279227 -3.0401409 0.5741593 2.8366435 -0.79864717 6.7250237 -0.04089417 2.189287 -0.72623545 -3.960393 4.928266 -5.1797657 -2.5625808 0.13001294 -2.6402016 -1.0019414 -1.1140449 0.44391558 1.4650637 2.2874517 0.11920283 1.0512596 -1.3968903 -0.08539613 0.92596036 2.4347508 0.44274133 -1.0253222 4.0804925 2.8341258 0.8480388 1.5340816 1.5914096 0.34605682 -4.4660897 -0.9681001 -1.4615114 4.1504135 -5.2697067 -0.8582464 -0.056737844 5.892563 -0.24631341 -4.1630282 1.156761 1.3578353 -3.0422935 0.861532 -3.5266733 1.3248188 -2.1351433 0.44082355 -1.5485103 -3.0133352 -5.579682 3.881818 1.1246327 3.8274908 -5.9145007 1.5837494 -3.3964055 -1.8089386 1.0424895 0.40018687 -4.7543535 -1.8637452 3.7077582 1.3622212 -2.1367536 3.611616 -3.8991375 -1.8240774 -1.043239 1.5204356 -0.3834772 1.8502364 -0.510176 0.24848476 -2.2389765 1.3548877 -3.2992089 -0.37237322 -2.987718 1.0836221 -1.8942068 3.9897792 2.817886 0.6998165 3.1343033 1.8860981 1.6436722 4.036086 -0.56349576 -2.6898804 2.7082977 0.9544926 -4.69865 -0.98641765 -3.5166724 -0.7187067 -3.2167392 -6.25932 1.0078733 3.4479291 0.63678867 -0.0952869 -1.9284009 0.31578314 -3.224125 -0.0066371695 -3.7226977 -4.045048 -5.7823005 3.9959662 -1.8037987 -4.8400073 1.3878195 -0.5847648 2.553713 -0.77800065 -1.1258729 -5.018697 -0.9212153 6.3953886 1.9696959 2.6127264 1.0783539 -6.2636576 1.1037003 2.4139895 -0.9380754 3.523462 6.346689 -3.0856795 -3.8045282 5.7460647 -0.8146968 -2.7197945 3.3989975 0.15565324 -7.300494 -2.7536533 -0.6729441 0.60654986 -1.1195487 -2.5991397 4.116989 -0.245259 -0.40931007 -1.4530606 -1.069132 -2.7764354 -1.9112593 2.2103784 1.8008294 0.056004304 -1.4828215 3.5988917 -2.5433815 -1.7149093 -0.2784932 4.0975127 -1.0877749 -2.1488118 -0.5549509 4.230727 2.6781168 -2.1618497
exp -7.0617733 -5.7939095 2.730718 -6.825438 -6.8767943 3.8497157 6.2430964 2.6370983 0.8938595 -7.6983147 5.3825045 5.15892 0.40765947 -1.7035341 1.7885226 -4.112022 7.052781 -4.118654 -1.487766 2.4494572 -2.6631365 2.4096847 -2.0117214 -1.1586915 -0.93684924 2.163367 -1.5186371 2.1984673 -6.441794 2.2229373 -0.15287036 2.6823578 -12.405259 -0.57959676 6.713252 -3.3774273 -8.641763 -4.899726 -0.37806702 -4.7754297 -5.8459306 -0.95026803 -5.3631835 0.209057 -6.012247 1.3536874 -6.1681247 -3.5224276 1.9353173 -1.25515 4.3796687 1.2299047 0.008227669 0.90163165 -1.6834059 1.1686267 1.8448887 -5.3919396 -1.0306476 7.152286 -2.8731594 -2.8797436 0.19072671 -1.9573392 0.0069271103 4.6007442 -2.8969138 3.141164 0.1062746 1.9188215 5.0709524 0.57415247 -0.6810565 -4.865246 0.47617227 3.516289 -6.4628916 3.7353747 -0.51778966 -0.562202 -5.215087 1.2085807 -0.59401554 -3.6503167 3.834493 2.1809866 -0.08939932 0.07223728 0.06847738 0.6111779 3.9107437 2.1930685 1.3595321 -1.6456864 2.4411755 -6.960215 0.7094376 2.2552571 -3.0727787 2.029058 4.4436135 6.991726 -3.12905 0.30702516 4.1197367 -2.7907493 -4.430686 -3.5312319 2.27479 -11.283917 0.8279581 2.033812 -0.10137457 0.010064918 2.5178936 -2.1750596 1.1242846 -4.4504585 -1.057129 1.393772 2.186926 -0.8393487 2.1840885 1.3925937 -1.8790736 2.7789345 0.5307889 6.609762 -0.6513933 -0.5767614 0.0743182 2.3092837 5.182297 -3.8180213 -2.4545648 -0.4084369 -4.525425 5.487342 5.9075537 3.6295114 2.2039857 -5.8844986 1.1785032 -2.7338903 -2.2312226 -2.0331738 -3.3328307 -0.5193 0.8836811 -2.2524836 -4.695677 -5.094339 -1.5700086 -2.9210715 0.19104053 -0.8998069 1.3583099 -0.99953884 -1.9720122 3.7295663 2.264524 3.6666868 -3.4518476 -0.6438476 2.2528672 -0.2589836 -6.0407367 -8.776481 -4.4987607 3.4370437 -1.161038 2.1948526 4.6971154 -1.9866221 5.012176 -4.8193684 4.18732 -6.861914 -2.4834008 1.9054942 -1.6233526 3.2159722 1.0381371 5.6164217 -0.7956742 -2.8439016 -3.985081 -0.7250862 -0.86026746 1.1501805 0.77675056 3.9980326 -5.1212764 3.153444 1.9156606 0.912729 -4.2717624 -5.0962763 -0.5770726 0.18780085 0.5892621 3.3874593 -3.9940233 -0.7682308 -0.9966148 2.9692209 -9.8984165 0.75803065 4.380009 -5.1834025 -6.116936 -0.037581857 -0.5200086 4.2659435 -7.3051147 0.26805335 -3.0923438 7.1330156 0.096602716 -5.2394433 -1.1526499 8.987961 2.5686913 3.4737606 -0.5222064 0.48334798 2.6309836 4.5891566 -7.835511 3.2034461 -3.86047 3.8835835 -2.9694068 -6.4927797 -0.014298767 -3.7142456 -4.3342695 -1.929215 -2.9040596 4.11341 -2.335056 -0.4253695 -3.2096677 3.6181881 -5.4446335 3.6080842 -0.028784633 -1.7445431 0.15018293 -3.0365934 3.2257185 -1.8112006 -0.82091254 -0.17286317 1.5493677 6.341064 0.121050276 3.7537508 -0.87801945 -11.535407 -3.721416 -6.278225 4.165141 8.357073 3.060785 -5.222122 3.0643032 3.7139356 0.84545213 2.1517317 0.44644544 -0.9187182 3.3501453 -1.4009204 0.8548368 3.6467457 -3.9491742 -8.425539 -0.78740454 -7.7718816 7.9698305 -3.518328 5.8579774 -0.6303181 -9.274949 3.4482918 2.7311482 9.987791 2.0973833 5.1709304 -1.1491287 1.9878166 -4.6528974 0.1259571 -0.5403599 1.2951715 3.2121096 6.5870566 0.44344482 1.4886214
retutndatasize -8.614167 -0.71891654 -1.3801944 6.1494436 3.9345794 11.072233 7.444942 0.6935599 -3.4280698 2.59395 8.529432 5.8814845 4.178155 3.18387 0.1727774 -2.8740418 -4.4869943 6.385883 -0.6509804 3.0965424 -1.6437095 -6.1234426 -6.407514 -1.4233667 3.1949131 -0.16963634 0.74943614 3.3173144 3.3848472 -4.1111603 2.8176155 -5.904359 0.33762103 4.4514494 2.8512774 -1.5277 -0.8640832 -3.2981198 -6.422055 -10.625963 6.953643 -5.048604 6.413203 -1.7309163 -0.17642204 -0.3781634 -7.013345 4.945509 -0.6522572 2.5214756 -1.7049474 -1.4612426 7.8623247 9.134251 -1.5520239 3.1518552 -3.349095 2.243008 -4.415985 -1.7356632 -4.8784294 7.8137302 -0.59294677 -11.662965 3.7543654 -1.1863983 -1.3038695 9.024987 5.80383 -7.4972496 -4.5389004 -5.7239766 4.6256723 5.495245 -5.235476 6.992812 -3.4247856 -1.5932529 1.3623085 -2.121426 -5.1360383 -3.2511995 3.3417087 -7.1966662 -3.4649258 -1.948662 2.6238046 5.592436 -5.6835637 -1.4322151 4.1241007 2.4076192 -1.4335821 -3.514803 -5.574525 -4.5712013 3.4002 0.338747 -7.0625796 2.4222624 3.5782268 1.4727825 -2.5157847 -2.3269382 -2.043191 -5.5036983 -4.656885 -5.954136 5.3931355 3.8986957 2.2632945 -1.128 -7.9904933 -4.7257857 -1.5738531 0.88076335 8.473251 -3.58031 -2.9674492 -4.536763 -5.8327827 -5.8118 -1.2300926 -1.1852653 3.071687 3.6490827 0.84302765 -1.0940902 0.107708395 -3.544961 -7.8484263 -2.3040693 -4.7148275 1.5724788 -2.3137 -0.7420966 5.8369803 -1.8284336 9.226131 5.252656 5.450324 3.6314325 3.976232 -4.0602684 1.9938045 6.8486147 4.70013 0.8521116 7.164229 -5.163085 -5.7335777 -0.7241503 2.0463157 -8.0077505 9.44755 1.9462202 1.6340088 2.4390109 -5.744396 -8.091122 0.59717345 2.9414368 0.26716468 10.218368 -0.4422982 -3.6843913 -1.4364293 -4.4565926 -5.1871305 -5.061602 6.243788 -5.1425643 2.4649625 -2.043814 4.3938937 3.6629412 1.0504656 -1.1897955 -1.4944077 -4.4704638 0.6924267 -5.4250236 3.4860294 0.057546157 6.573532 2.3627374 12.699994 -2.5979266 7.0653524 -1.7248055 2.4522138 3.0931327 2.4892097 -0.19316217 8.970092 -4.0419407 4.6976223 3.0584588 3.6722803 1.8396877 -8.069407 -6.740967 1.2357626 6.7017817 0.7040167 1.824666 -0.023438744 -3.2814224 -5.4642997 -0.14744386 4.7817616 5.079307 -4.3030925 2.6939209 7.0470724 5.582509 4.918402 3.947975 3.2388926 2.023456 6.0506463 -0.38231796 2.5903118 1.6811368 6.4524918 2.7883081 1.5737474 -2.8020298 13.000091 5.249827 1.7561394 9.619432 1.7189101 -5.671511 -4.3415556 -3.2031977 -2.1793451 -3.3568227 -1.2773052 1.8287537 2.0755303 -3.5506868 3.444548 5.0159855 2.9945533 -6.2578745 -1.101852 1.7572224 5.87186 -5.7273874 0.34559417 3.6302946 -4.575482 -0.20256916 -1.47701 6.62904 -3.3465235 10.708756 2.5218897 -5.194824 -6.302333 8.384664 -14.427727 5.3825874 -0.12422251 1.8528411 2.948454 -4.6623893 -12.240641 3.790975 -0.16020823 2.5354755 0.18324384 4.9470387 7.8498163 -11.817079 -5.488537 4.967664 -1.2713933 2.9844666 1.5232193 1.9234235 -7.73893 10.752523 -1.8603727 -4.234667 1.3944638 -11.352867 8.663894 -1.396478 0.50147015 0.29599074 -6.432841 0.042803463 4.7872033 4.0904646 2.9238951 -4.632567 2.1235745 10.611339
not 3.7109911 4.138693 3.8163016 -10.681645 -0.24080342 -7.3012094 -4.4394 1.7755152 4.772763 -5.703355 4.727375 -3.01702 -6.1011953 0.68509495 -0.37940615 2.9655926 -6.2266207 5.205374 -3.2977993 2.3129113 -2.2325513 -7.4136944 -5.286184 -1.3681905 3.2571242 12.608499 -6.9741597 -5.232479 -2.2403173 3.929305 -7.0116677 -4.220355 1.6124028 -0.6698503 -2.3773718 1.8377352 1.711524 -1.954131 7.308191 3.125108 -6.5874257 0.06681476 -0.82833534 -1.336313 -1.6577008 -4.9665093 2.9778023 -5.8892727 8.22777 -1.1397935 2.6831384 6.0273256 -0.14585216 -3.5592859 1.1068699 5.0315905 2.0089684 1.617354 -4.722227 2.6486747 -2.6493518 -1.871171 0.9055332 1.3746004 0.6812553 -3.337088 4.3935184 -0.08768234 0.5320758 -3.8843744 3.1362376 7.2435217 -1.007129 -1.5269259 0.75151956 -4.8469486 -1.4271216 1.8503888 1.3994713 -2.3538604 4.5953298 1.3202368 -1.9033037 0.91279715 8.609934 1.154186 -0.32136178 -6.0566854 0.41835567 5.656131 1.4876404 -1.1946205 0.3182196 2.6731243 3.7594013 2.061343 1.4935757 -7.8945217 -1.7614278 -2.582168 -2.4826806 1.8060527 -1.2225301 -0.28234488 1.8121383 0.53103805 4.8586574 2.8999114 -6.8033075 -0.68475896 -0.5288452 0.87008643 5.221212 4.741289 0.34204993 3.4625816 -1.8432566 0.8552803 -1.9838544 0.009298045 1.7983283 2.3376763 -1.5975498 1.4065791 2.3775373 -1.4624687 2.5226123 5.7200203 1.3388327 2.8532658 -0.009785598 6.442107 0.2523433 -1.7770934 -3.50502 0.6342353 -0.25005317 2.0905142 -6.3978276 -4.962376 -3.961614 2.3422976 -1.220417 0.0045454223 -5.386607 -5.839833 -3.9295495 3.9132874 -3.737327 -4.073813 2.4590387 -0.6732295 0.72781044 5.2430468 -6.2298007 -2.3892386 1.3120713 2.490879 2.1507626 8.751595 1.2725009 3.0891812 2.724287 -5.901428 2.528268 0.5815305 8.282585 4.153575 2.7447927 5.525831 -6.022521 1.4664775 -5.2588882 -4.2753963 -1.6162761 0.2774124 -4.9887495 2.385944 8.017844 2.4474978 0.936842 1.4918498 0.05900278 -3.4500444 1.6059484 -1.6615092 -3.613045 3.129161 3.8984244 -1.1716411 1.641378 -3.7653573 -3.543929 5.4394865 -2.4546812 3.1923082 4.9335113 -0.71685016 -1.4488134 -1.5203483 1.9567522 0.5434959 3.4591534 -7.533521 1.8522696 -0.60421914 -2.1847456 1.4966341 -4.6777205 -3.944107 -2.1777732 -1.2809663 0.63205284 -4.6067643 -1.1590861 -3.0744247 -1.5971689 2.5249672 -3.919434 3.7039673 0.09724875 -1.6380961 2.180195 3.3021095 -3.6584759 -2.7648067 -5.053573 -1.3820952 -4.6876087 -1.0305374 -0.44988757 2.0679338 -1.7984916 3.5627592 -2.0585477 -3.5403967 -3.7188191 1.9264095 -1.9583366 -1.4268879 4.5500913 1.6120625 -5.216948 -4.834207 -3.6191702 6.098811 -2.1224942 2.214531 -9.208801 5.780094 -0.21030803 5.253136 0.86547124 7.6973934 -5.524039 2.6249366 4.5184665 -3.4183784 1.6296515 0.82912666 0.8541634 0.5240978 3.156734 -5.246111 1.4644779 2.1459413 1.7696625 5.7454433 -1.3698587 -5.6860986 2.522874 1.1823326 -0.67958707 0.15033919 -1.8017838 6.9363604 2.4052114 -4.3762574 -5.6240373 -1.5581248 -3.3884628 1.9929488 4.2246375 -3.6512594 5.1503043 6.053366 -4.063904 -4.1009207 -1.6413711 1.0131155 1.7166407 -4.0293293 2.235125 -4.506316 -0.84825027 2.656007 8.502831 -0.09685923 -1.4327713 -1.2204288
calldatasize 2.7971828 -13.469415 -10.978058 3.975711 0.7184916 -6.8017273 4.5273542 -1.8656324 -0.9320224 4.8331194 2.7155578 0.86754256 -4.51567 -2.1548321 -1.6223071 -6.357374 -1.4564139 -0.21273173 4.674478 -2.7836893 2.1065333 3.9669664 0.2495148 2.1824248 1.4517511 -0.5054426 1.4693695 -2.617938 -5.381882 2.477127 -2.99932 3.1763036 10.198758 4.040313 -1.2495246 -0.1306198 0.8999952 1.1065484 -4.8463445 0.94219697 4.8312807 3.2689757 1.3211845 5.494166 6.740791 0.45355734 3.5866642 4.468171 -3.644583 -1.6460015 -3.526447 -1.5343939 0.24735281 -1.2048961 -0.62844443 -3.1980534 1.4734741 1.2493798 4.249767 0.13088295 2.898307 3.2713213 1.3142602 -3.500413 0.28115904 2.368821 -0.6533777 -2.8450563 -1.03986 4.8422585 -1.3258098 -0.1322723 -5.6789427 0.3862809 0.14089824 4.0459747 3.4899554 -1.6964779 3.2134497 -1.0686482 -0.73547465 1.1134593 2.0095007 1.5981237 -1.7594486 4.655546 1.347378 6.509015 -0.1906936 1.3086972 -3.3871286 3.8576477 0.43096164 1.660542 3.016515 3.035844 -0.22959003 0.14407499 6.2507787 -4.1061144 2.5183978 -1.1861247 2.8318844 0.5363156 -0.69690377 7.1173134 0.07000519 3.2422817 0.12230923 -0.2565518 1.7493256 1.49459 1.4677771 0.73118794 -0.45521882 0.37858817 2.709684 -4.2712884 0.40895742 0.86811 2.392981 -1.0291426 0.60778135 0.57022053 -2.1823761 -2.1310391 -0.41105017 -1.3789183 1.1593385 -1.3516692 2.1608267 1.826831 -0.38827822 3.007809 3.9292254 0.88045496 -0.7547921 -2.6263564 -2.8163083 -2.3401968 -0.91331977 1.5386459 -3.858969 1.8204628 -2.0080492 0.49057645 -0.85674363 -2.8620281 -0.66792643 -0.5140637 3.9840598 1.328264 1.8846445 1.1357234 -5.8415127 -1.9216156 -0.36577597 0.37289032 0.6391631 0.9267166 -0.20849879 -3.760646 -3.5491292 -5.998632 -2.445096 1.9118974 3.0898912 6.798716 -2.4337518 -4.975498 2.4247782 -0.4383169 -2.1622586 6.1444345 -0.96432066 6.4667664 4.110211 -2.0212924 -2.483347 -3.0856576 -1.6768906 -4.0285616 -6.3131495 -2.1934445 2.7089872 -2.5991979 -2.9448447 -1.9929891 -1.2305784 3.9434178 -0.06835584 -3.9440007 4.45594 -5.9705133 -2.2050085 -1.9966286 -1.8309555 0.6134698 -0.7525053 -1.723375 -2.6711488 1.775399 -3.6404145 -1.753066 0.6252457 1.1011741 5.5524187 1.4316052 -2.4781058 3.4412594 1.7877351 3.0785968 2.7759283 2.4252572 4.3929267 -0.7512474 2.8292089 -8.248238 -2.362169 0.6113989 -2.370888 -2.8648126 -3.7870345 -5.875039 -0.41437584 5.4292717 -1.584639 -4.7791734 -0.5367768 2.6477199 -1.9074045 1.3505483 5.378872 -0.002497853 3.6672094 5.6602364 0.32629463 -3.5697463 5.898759 -0.99624044 -6.276424 -4.4571285 3.386135 -3.137062 9.879189 2.439609 5.7872224 2.5545783 3.668859 -1.9414246 -2.9106402 -2.9733682 3.9485958 -2.6675415 5.1006427 -4.9295664 -2.1344383 -4.2523236 -3.390141 3.0510027 3.1282701 -3.5974545 -0.7458022 1.6562712 2.3964508 1.5553062 2.3357406 -1.8395549 2.5020142 7.082392 2.409935 3.3610222 -2.5147312 3.3351166 -3.158789 1.2108345 -1.164991 4.3853035 2.7387857 5.199219 0.41925427 1.1187147 -4.097407 3.996072 1.7673925 1.3693461 0.45672023 -2.9042356 -1.5690721 -2.7004578 2.3271003 -1.6844543 5.20139 4.422418 2.6854203 1.2639755 -8.597772 1.8929864 2.8518715 -6.8115706
clller 0.94092286 9.106633 3.485626 2.5610106 -2.872821 -0.37815595 -4.3477654 -4.785977 -1.059452 -0.4283484 3.9614599 -3.6560254 -0.2508404 -4.1318007 4.0950894 -1.6659949 -0.5524195 -1.5632924 -2.0196934 5.405569 0.8714972 -5.030302 3.3043382 -4.3172436 -0.3572129 -4.6043253 -2.6886933 -1.5504746 1.3121557 -0.668984 -0.74831814 3.0175824 3.1406796 -1.0006775 -1.6602858 3.092944 0.17558013 -2.617933 2.2158957 2.552392 -4.780926 -1.1389569 -2.4410753 -2.0671384 1.5661424 0.6159033 -2.237505 0.094605036 0.37935838 -1.1332024 1.0146705 1.149138 -0.32930398 -5.1753097 4.495755 -3.2899582 0.606531 2.9416122 3.5124166 5.3255906 1.8542099 -5.5744586 -1.7445571 1.9020905 -1.1056468 -5.6165547 -4.4778185 1.1660959 -2.560863 3.4280386 -0.91304785 -1.1858548 1.4388956 -3.860804 4.606735 -2.7396836 1.363198 -0.3792613 1.694047 -0.57261014 -1.7068372 0.51033366 -0.2867863 -1.914547 -0.833608 -3.6393287 -0.98851156 -0.041279193 -3.791133 -0.6398912 2.3491683 4.1829615 -2.309624 -0.47648695 2.7821934 -3.3298695 0.31218693 -0.035689756 0.7543557 1.867561 0.6925908 0.079880506 4.6339054 1.1009248 0.77474755 0.23871577 -0.8361733 2.008646 0.5793036 1.5879691 1.6496729 -0.34166712 1.6044158 0.8137289 -0.9765953 3.3450165 -3.2907102 0.9027155 2.077058 -1.6937233 0.515815 -3.4483855 -1.660756 -3.0275528 3.0065184 -0.48895612 3.934157 2.6179166 0.48643935 -3.438688 3.2289717 -6.112409 0.48493475 -2.5810704 -2.7244425 -0.9073297 -2.555506 1.8644372 2.0621266 0.16974235 -2.3482695 3.30038 3.0121777 -2.8192987 2.344814 -1.1160648 1.2659912 -0.4929428 0.5740932 -0.33756265 3.6098578 2.2687213 1.8819565 -7.858079 -1.451999 -4.903291 -1.7193025 -2.3375664 -0.9198903 -2.5852497 -3.7936277 1.973053 0.32071084 1.5262868 4.455171 -1.6741534 -0.49499494 -0.0856264 0.8796619 3.2363677 -0.82261765 2.0759614 -0.09719877 4.7500434 -4.4700594 2.2003677 -0.17894119 -0.37832662 -0.8466564 1.7187471 -0.096421346 3.9413435 0.04660664 2.281831 -0.7445795 -0.3270617 0.617212 -1.0738648 0.73196906 2.8465734 -3.4971013 -0.4787243 -3.8306181 -3.2723446 -1.8803521 1.5096978 0.0030307386 0.9926004 2.5083458 1.8412743 0.099337146 1.0983112 2.3576307 0.7156612 0.6553195 -0.6114141 -1.4935513 1.8155001 -0.096122175 -1.1422857 -1.7010636 -2.7958882 -3.8154318 0.043250717 -2.7400029 0.45916313 0.89992154 1.2199595 1.7739345 -2.1173248 1.2565993 4.58434 1.2273118 -4.4107313 3.6014287 -3.7352755 4.48045 2.53022 -0.8591124 0.09911819 3.061993 -6.400031 0.23884352 -2.7570622 -4.7494373 -2.0436714 -1.352182 2.8460746 0.33055675 -0.43982476 2.9164815 2.8386557 -3.4830112 0.6140791 -4.5476737 -0.78497726 -2.6962204 -5.759919 -1.3245138 2.8838017 1.0804751 1.5413855 -4.435487 -5.462337 1.2829719 1.7753735 -4.870429 0.9921324 3.8589733 -3.6053827 -2.7993667 -0.67263144 -0.040434256 -0.17388995 -6.824948 2.3787427 3.658518 -0.4353481 -0.49916565 0.39384535 -2.9110293 2.6933062 -0.22107124 -2.6662965 1.8363452 -1.6689526 -0.7405412 -3.6322086 -3.8882368 -2.9901974 -4.005859 -5.1982994 2.2363088 5.392095 -2.5201843 -4.513956 2.4630148 0.8260981 2.9596434 0.5569359 -1.6066533 -1.7483511 1.2959334 2.203005 1.8524116 -2.9300969 2.7228677 -4.5290356 -1.9173545 -1.933292
selfdestruct -1.8690803 -1.7006378 -0.10573889 0.32824394 -1.6053532 -0.6218036 -0.6243321 -0.920793 2.5343404 -0.9953032 1.638724 -0.9657212 -2.2914855 -1.3679731 -0.7862488 -0.89822495 0.6987251 -1.3837807 1.1701533 -1.2850991 -1.4529108 2.5789852 -0.39904782 -1.824479 -0.35957286 1.0921824 0.99029404 -2.7740624 -2.990708 0.15478525 -4.568851 -0.96803516 -0.47852346 1.5417887 0.71346986 0.98815626 -0.9725019 -1.274736 1.8054496 -2.1881375 -0.820505 -0.7458637 -0.6387291 -0.0567211 1.2234211 -1.1236799 -0.11279095 1.5318297 -0.014826512 1.1027064 -1.8894058 1.7462096 0.35622263 -2.1183443 0.13411526 -0.49768156 0.5666812 -1.6674415 -0.48248598 0.8606321 0.74163294 -0.91876316 0.023216795 0.5481823 0.9872028 -0.11459367 -1.0841985 0.64980656 0.088554695 -0.90490884 0.053302255 0.86737996 -0.04690381 -0.32511002 0.43059608 -0.78241706 -0.4230907 1.2208176 1.0062332 0.013481581 -1.5141889 -0.18180974 1.0703312 -1.2931904 2.1734033 0.26942867 -0.11807736 -0.32316688 -0.108583346 0.69144195 0.23960534 0.5063808 -1.2749718 1.1630027 0.6332956 0.12781368 0.12763608 0.056937765 -0.8375041 1.9801123 1.0642477 0.12785804 -0.88784504 -0.8158894 1.2106434 0.11062396 -0.13014431 -0.38155907 -0.77851456 0.86987686 0.75610656 0.62486315 0.591832 0.087929375 -0.20081054 0.053840254 -1.1352414 -1.20336 0.48210713 -0.23270915 -1.3959099 0.7018161 0.7109415 2.0303292 -0.13721827 0.033956144 -1.5170847 2.1848247 -1.3146082 -1.2922248 -0.8379367 0.41030338 -0.85052955 -1.5228989 -1.5004703 1.4857583 0.61521345 1.7941672 -0.73767704 0.45053804 -0.33719504 1.2370305 -1.1688834 -0.93967646 -0.35199103 -0.6610489 -0.145318 0.34394988 -0.41079086 -0.44228202 0.24279344 -0.64361393 -0.35796002 -0.8917156 -0.9038395 0.5012294 0.52764684 0.81871635 -0.24720065 -0.18545042 1.8081198 1.2730799 -0.053569313 -1.0926921 -0.72507805 0.846047 0.8202027 0.037312184 0.2106847 2.092044 0.071399994 0.29037136 -0.22178732 0.071961306 0.9602986 -0.3695518 -0.4892517 0.22100167 0.6623606 -0.006107633 -1.2584084 1.2529866 1.1076068 0.6991518 -0.41734785 0.89238787 0.42901143 0.3875752 0.91640735 0.41082323 -1.075719 -0.5965435 -0.32979843 -0.6930657 0.7375716 -0.47529647 0.9017055 0.025895553 0.19508836 0.4648004 -1.7930003 0.3944669 0.2523008 0.41360903 0.40188405 1.0182054 -0.30490667 0.48531136 -0.66204053 -0.7929977 0.03838327 0.3973325 -1.135072 -0.18540163 0.3665458 -0.13108853 0.6563915 0.6257005 0.91228867 0.85993856 0.40186977 0.1741119 0.62474555 -0.24936356 -0.22687283 0.32266963 -0.23988062 1.1162847 1.8056643 0.75855833 0.9530909 -0.5249923 1.2640978 1.0449563 -0.31061736 -0.9653438 -1.2950579 1.5845964 -1.2307658 1.2155297 1.3621135 0.33533418 -2.5076313 0.9526804 -3.420878 -0.70234936 -0.16472098 -0.31817988 0.9383052 -1.0603893 -0.4205331 1.8120493 -0.9383865 -0.5888417 0.096254036 2.3375065 -0.71150166 2.8800428 -0.795244 -2.3928387 -1.3045359 -0.74394786 -0.3982638 0.9404759 -0.5242647 -0.5994987 -0.78312474 1.6050612 -1.2680715 -0.5674603 1.5518938 1.5841804 -0.5769525 0.45896244 0.050008807 -0.6680295 -1.4620789 -0.7097303 0.35877374 -0.30158755 -0.39844993 1.4236106 1.8743309 0.9354173 1.9701369 1.223238 0.052409027 0.17036046 0.65388435 0.3499787 -1.8865969 0.6470381 -0.6735127 0.3978024 -0.82523215 1.0998275 2.0151336 -1.8368262 1.6015588 0.52464473
